{"sizes":[200,50,1],"layers":[{"0":{},"1":{},"2":{},"3":{},"4":{},"5":{},"6":{},"7":{},"8":{},"9":{},"10":{},"11":{},"12":{},"13":{},"14":{},"15":{},"16":{},"17":{},"18":{},"19":{},"20":{},"21":{},"22":{},"23":{},"24":{},"25":{},"26":{},"27":{},"28":{},"29":{},"30":{},"31":{},"32":{},"33":{},"34":{},"35":{},"36":{},"37":{},"38":{},"39":{},"40":{},"41":{},"42":{},"43":{},"44":{},"45":{},"46":{},"47":{},"48":{},"49":{},"50":{},"51":{},"52":{},"53":{},"54":{},"55":{},"56":{},"57":{},"58":{},"59":{},"60":{},"61":{},"62":{},"63":{},"64":{},"65":{},"66":{},"67":{},"68":{},"69":{},"70":{},"71":{},"72":{},"73":{},"74":{},"75":{},"76":{},"77":{},"78":{},"79":{},"80":{},"81":{},"82":{},"83":{},"84":{},"85":{},"86":{},"87":{},"88":{},"89":{},"90":{},"91":{},"92":{},"93":{},"94":{},"95":{},"96":{},"97":{},"98":{},"99":{},"100":{},"101":{},"102":{},"103":{},"104":{},"105":{},"106":{},"107":{},"108":{},"109":{},"110":{},"111":{},"112":{},"113":{},"114":{},"115":{},"116":{},"117":{},"118":{},"119":{},"120":{},"121":{},"122":{},"123":{},"124":{},"125":{},"126":{},"127":{},"128":{},"129":{},"130":{},"131":{},"132":{},"133":{},"134":{},"135":{},"136":{},"137":{},"138":{},"139":{},"140":{},"141":{},"142":{},"143":{},"144":{},"145":{},"146":{},"147":{},"148":{},"149":{},"150":{},"151":{},"152":{},"153":{},"154":{},"155":{},"156":{},"157":{},"158":{},"159":{},"160":{},"161":{},"162":{},"163":{},"164":{},"165":{},"166":{},"167":{},"168":{},"169":{},"170":{},"171":{},"172":{},"173":{},"174":{},"175":{},"176":{},"177":{},"178":{},"179":{},"180":{},"181":{},"182":{},"183":{},"184":{},"185":{},"186":{},"187":{},"188":{},"189":{},"190":{},"191":{},"192":{},"193":{},"194":{},"195":{},"196":{},"197":{},"198":{},"199":{}},{"0":{"bias":0.00930738914757967,"weights":{"0":0.0025166571140289307,"1":0.16999487578868866,"2":-0.004924526903778315,"3":-0.15660221874713898,"4":-0.19101816415786743,"5":0.15752816200256348,"6":0.16897554695606232,"7":0.035316113382577896,"8":-0.03148039057850838,"9":-0.0655473917722702,"10":0.013855294324457645,"11":-0.1829470694065094,"12":-0.13560770452022552,"13":-0.014492064714431763,"14":0.1444443017244339,"15":0.07838230580091476,"16":-0.19061405956745148,"17":-0.024863379076123238,"18":-0.17809948325157166,"19":0.038768306374549866,"20":-0.07490061968564987,"21":0.024369120597839355,"22":-0.09063538908958435,"23":-0.16655521094799042,"24":0.14647161960601807,"25":0.0010512281442061067,"26":-0.16448888182640076,"27":0.15785720944404602,"28":0.2037416398525238,"29":0.19645841419696808,"30":0.0033318903297185898,"31":-0.021013624966144562,"32":0.03560924530029297,"33":0.141850084066391,"34":0.1702919900417328,"35":0.1385732889175415,"36":-0.09433422982692719,"37":0.15875287353992462,"38":0.18287624418735504,"39":-0.18879809975624084,"40":-0.07169219106435776,"41":-0.02048124186694622,"42":0.010270102880895138,"43":-0.10623595863580704,"44":0.1723177433013916,"45":0.0553615503013134,"46":0.1333111971616745,"47":-0.0701795443892479,"48":0.021425485610961914,"49":0.08770658075809479,"50":-0.19508996605873108,"51":-0.10661353915929794,"52":-0.0019299311097711325,"53":-0.011569378897547722,"54":0.1316223293542862,"55":0.13447065651416779,"56":0.1684785932302475,"57":0.05514746159315109,"58":0.04552174359560013,"59":-0.004505649209022522,"60":-0.03559964895248413,"61":0.034777529537677765,"62":-0.18345147371292114,"63":0.0071431430988013744,"64":-0.05471939221024513,"65":-0.14479118585586548,"66":0.16012653708457947,"67":-0.14461812376976013,"68":-0.0698574036359787,"69":0.02922060899436474,"70":0.030657410621643066,"71":-0.09489087760448456,"72":0.19325782358646393,"73":0.06565871834754944,"74":-0.18559801578521729,"75":-0.038877494633197784,"76":-0.002643152605742216,"77":-0.19307295978069305,"78":-0.1672893464565277,"79":0.1821145862340927,"80":-0.09289165586233139,"81":0.025066625326871872,"82":0.054840337485075,"83":0.05826709419488907,"84":-0.1471012532711029,"85":-0.10170478373765945,"86":-0.17142032086849213,"87":0.2017570436000824,"88":-0.013738909736275673,"89":0.17383286356925964,"90":-0.035717956721782684,"91":-0.15203504264354706,"92":-0.18864606320858002,"93":0.048922307789325714,"94":0.1365233063697815,"95":0.05226314067840576,"96":-0.008867266587913036,"97":0.07171917706727982,"98":0.019291359931230545,"99":0.10932653397321701,"100":-0.0904092937707901,"101":0.1391276866197586,"102":0.0995524600148201,"103":0.0854061096906662,"104":0.19190537929534912,"105":-0.16188238561153412,"106":0.11983316391706467,"107":-0.17240890860557556,"108":0.05211463198065758,"109":-0.1649262011051178,"110":0.015925690531730652,"111":-0.11518843472003937,"112":-0.0035297535359859467,"113":0.052088212221860886,"114":-0.10916478931903839,"115":0.18227368593215942,"116":-0.11982157081365585,"117":0.02747509256005287,"118":-0.14967946708202362,"119":0.12264680862426758,"120":-0.11017947643995285,"121":-0.09326937049627304,"122":0.10436880588531494,"123":-0.10039141029119492,"124":0.20176328718662262,"125":0.1878935694694519,"126":-0.03264761343598366,"127":0.07288377732038498,"128":-0.01676723174750805,"129":-0.06752439588308334,"130":-0.06716106086969376,"131":0.17801553010940552,"132":-0.012059804052114487,"133":-0.015630027279257774,"134":-0.09315164387226105,"135":-0.09089536964893341,"136":-0.11424780637025833,"137":0.1856580525636673,"138":-0.06927575170993805,"139":0.07122378796339035,"140":0.18091367185115814,"141":0.09420901536941528,"142":0.09363246709108353,"143":-0.1670311540365219,"144":-0.04329197481274605,"145":0.06185108795762062,"146":-0.0031383477617055178,"147":0.1149834543466568,"148":-0.08194182813167572,"149":-0.047349218279123306,"150":-0.12000735104084015,"151":0.0016542834928259254,"152":-0.15994305908679962,"153":0.16201545298099518,"154":-0.04920031130313873,"155":-0.10651622712612152,"156":-0.04080573096871376,"157":0.1974979192018509,"158":0.1817740797996521,"159":0.1934480518102646,"160":-0.05340142920613289,"161":-0.04985332861542702,"162":-0.13578513264656067,"163":-0.10232015699148178,"164":0.11277277767658234,"165":-0.19526487588882446,"166":-0.13956092298030853,"167":-0.1599433422088623,"168":-0.002147240797057748,"169":-0.11839113384485245,"170":-0.1312050223350525,"171":0.04597515985369682,"172":-0.07713399827480316,"173":0.11318165808916092,"174":0.11242935806512833,"175":0.18552953004837036,"176":-0.1228797435760498,"177":-0.08920467644929886,"178":-0.0983259528875351,"179":0.09808932989835739,"180":-0.004620233550667763,"181":-0.14385026693344116,"182":-0.0372939296066761,"183":-0.019676022231578827,"184":0.02839871495962143,"185":-0.0711168572306633,"186":-0.14469733834266663,"187":-0.17365780472755432,"188":-0.15922462940216064,"189":-0.11049096286296844,"190":0.030144203454256058,"191":-0.0887024849653244,"192":-0.07169465720653534,"193":0.19550834596157074,"194":0.14065419137477875,"195":-0.1407974362373352,"196":-0.16301418840885162,"197":-0.0739329531788826,"198":0.16713958978652954,"199":0.00343529786914587}},"1":{"bias":0.1772327572107315,"weights":{"0":0.012150960974395275,"1":0.07470991462469101,"2":-0.0878167524933815,"3":-0.06610184907913208,"4":-0.18611647188663483,"5":-0.14625681936740875,"6":-0.0018994385609403253,"7":-0.02128058858215809,"8":0.06558237224817276,"9":-0.07589872181415558,"10":-0.03706785663962364,"11":-0.07642681151628494,"12":0.18415449559688568,"13":-0.178664430975914,"14":-0.15996649861335754,"15":-0.15519456565380096,"16":-0.09872502833604813,"17":0.012248552404344082,"18":-0.15178532898426056,"19":-0.1337524950504303,"20":0.02536970004439354,"21":0.022362826392054558,"22":-0.16950364410877228,"23":-0.04626326262950897,"24":-0.048143137246370316,"25":-0.16217127442359924,"26":-0.015579613856971264,"27":0.018669141456484795,"28":0.1963081657886505,"29":-0.044788770377635956,"30":-0.16616983711719513,"31":0.03529101237654686,"32":0.05156281590461731,"33":0.1957961469888687,"34":0.15107178688049316,"35":-0.015843290835618973,"36":-0.1578528732061386,"37":0.10282140225172043,"38":0.12928909063339233,"39":-0.1939159780740738,"40":0.09471677243709564,"41":0.1137620136141777,"42":0.05673391744494438,"43":-0.12262723594903946,"44":-0.10645634680986404,"45":-0.15413011610507965,"46":-0.1516035497188568,"47":-0.1681906282901764,"48":-0.06619847565889359,"49":-0.11404584348201752,"50":-0.006796959321945906,"51":0.1977207362651825,"52":0.09609723836183548,"53":0.04621218517422676,"54":0.18475176393985748,"55":0.1216886043548584,"56":-0.16334103047847748,"57":-0.14224420487880707,"58":0.009916551411151886,"59":-0.09270396083593369,"60":0.16141310334205627,"61":-0.19484709203243256,"62":-0.1898483783006668,"63":-0.0819387137889862,"64":0.13114987313747406,"65":0.02622579038143158,"66":0.13840945065021515,"67":-0.02839316613972187,"68":-0.01992480643093586,"69":-0.17169709503650665,"70":-0.15873870253562927,"71":0.13368773460388184,"72":-0.1192493811249733,"73":0.11663632839918137,"74":-0.09517529606819153,"75":-0.010108508169651031,"76":-0.10738015919923782,"77":-0.12409759312868118,"78":0.07330983132123947,"79":0.13535113632678986,"80":-0.07529225945472717,"81":0.14014939963817596,"82":0.10140140354633331,"83":0.153178408741951,"84":0.06305352598428726,"85":-0.14378850162029266,"86":-0.1508350819349289,"87":0.031227270141243935,"88":0.01875043660402298,"89":-0.08791618049144745,"90":0.10740432143211365,"91":-0.16708508133888245,"92":0.09630418568849564,"93":0.03635507822036743,"94":-0.0034447757061570883,"95":0.16361092031002045,"96":-0.06455683708190918,"97":0.11264003813266754,"98":0.11066412180662155,"99":-0.1269499808549881,"100":0.1470889151096344,"101":-0.19056794047355652,"102":-0.027937214821577072,"103":0.021855439990758896,"104":0.02261143922805786,"105":-0.10342377424240112,"106":-0.1471639722585678,"107":-0.05894302576780319,"108":0.03494560346007347,"109":0.15378810465335846,"110":-0.12163399904966354,"111":-0.1417185366153717,"112":0.16670170426368713,"113":0.13981233537197113,"114":0.12016306817531586,"115":0.15203410387039185,"116":0.16882741451263428,"117":-0.05578037351369858,"118":-0.12243503332138062,"119":-0.15685658156871796,"120":-0.0013569692382588983,"121":-0.11029501259326935,"122":0.0032128598541021347,"123":-0.18072593212127686,"124":0.13724173605442047,"125":0.08952106535434723,"126":-0.19761651754379272,"127":0.19570498168468475,"128":0.06846154481172562,"129":0.1757306158542633,"130":0.17057591676712036,"131":-0.12784181535243988,"132":-0.1854441612958908,"133":-0.05285055935382843,"134":0.07267792522907257,"135":0.04927942156791687,"136":0.06124737113714218,"137":0.12222236394882202,"138":0.0748085305094719,"139":0.17029348015785217,"140":0.19113433361053467,"141":0.10748796910047531,"142":-0.19067473709583282,"143":0.1341729760169983,"144":0.14108894765377045,"145":-0.013027263805270195,"146":-0.10471401363611221,"147":0.16563533246517181,"148":-0.019862553104758263,"149":-0.037584926933050156,"150":-0.09162362664937973,"151":-0.012470013462007046,"152":0.09791997075080872,"153":0.0839969739317894,"154":-0.07143671065568924,"155":-0.059839505702257156,"156":-0.1068522110581398,"157":0.07672646641731262,"158":-0.1359727680683136,"159":-0.1010223776102066,"160":0.017388027161359787,"161":0.14591176807880402,"162":-0.10809484124183655,"163":0.1587626338005066,"164":0.19433104991912842,"165":0.009908469393849373,"166":0.06784197688102722,"167":-0.05221663787961006,"168":0.16040293872356415,"169":-0.049685392528772354,"170":0.1407974809408188,"171":-0.14247341454029083,"172":0.08697260171175003,"173":0.11837656050920486,"174":0.14309217035770416,"175":0.03963042050600052,"176":0.05095537379384041,"177":-0.09751161932945251,"178":-0.19329749047756195,"179":-0.1878168284893036,"180":0.15769101679325104,"181":-0.14248009026050568,"182":-0.03765257075428963,"183":0.014677280560135841,"184":-0.0269528329372406,"185":-0.04712912440299988,"186":0.03151637315750122,"187":0.10881182551383972,"188":0.12946175038814545,"189":-0.1973399966955185,"190":-0.017489057034254074,"191":0.1427464485168457,"192":-0.18272285163402557,"193":-0.03978258743882179,"194":-0.06197066605091095,"195":-0.18166634440422058,"196":-0.02063780650496483,"197":-0.19564422965049744,"198":-0.008343121968209743,"199":-0.11456702649593353}},"2":{"bias":0.18467342853546143,"weights":{"0":0.12178727239370346,"1":0.037094101309776306,"2":-0.12263257056474686,"3":0.05867227911949158,"4":-0.03632224723696709,"5":0.1303611844778061,"6":-0.18587225675582886,"7":0.1217135563492775,"8":0.18112236261367798,"9":-0.12953203916549683,"10":-0.11110526323318481,"11":-0.15361878275871277,"12":-0.10060273110866547,"13":0.10444040596485138,"14":-0.02224894054234028,"15":-0.10402177274227142,"16":0.15824751555919647,"17":0.024208366870880127,"18":0.1224503219127655,"19":0.03250415250658989,"20":-0.02991785667836666,"21":0.13950391113758087,"22":-0.18066084384918213,"23":-0.1628246158361435,"24":-0.15033774077892303,"25":-0.14822030067443848,"26":-0.12627817690372467,"27":-0.055955901741981506,"28":0.10557475686073303,"29":-0.17459021508693695,"30":-0.15069377422332764,"31":0.14685854315757751,"32":0.08641910552978516,"33":0.013821355998516083,"34":0.059058841317892075,"35":-0.1840132474899292,"36":0.00811742339283228,"37":0.015698404982686043,"38":0.026397651061415672,"39":-0.0709058940410614,"40":-0.024268601089715958,"41":-0.015626972541213036,"42":-0.1652301400899887,"43":-0.12392996996641159,"44":-0.06473367661237717,"45":-0.1704707145690918,"46":-0.08007239550352097,"47":0.09159474819898605,"48":-0.006426892708986998,"49":0.058380238711833954,"50":-0.09738831967115402,"51":-0.04347376152873039,"52":-0.07283932715654373,"53":-0.014103964902460575,"54":-0.11402282118797302,"55":0.019972868263721466,"56":0.11004839837551117,"57":0.154627725481987,"58":-0.1904989778995514,"59":-0.07724843174219131,"60":0.00736683513969183,"61":-0.07929089665412903,"62":0.10429811477661133,"63":-0.04332882538437843,"64":-0.12650161981582642,"65":0.09092705696821213,"66":0.061221279203891754,"67":0.1636103391647339,"68":-0.09744274616241455,"69":-0.18512174487113953,"70":-0.16460442543029785,"71":0.17445269227027893,"72":-0.19266915321350098,"73":0.007192071992903948,"74":0.01952383853495121,"75":-0.08289873600006104,"76":0.04602891579270363,"77":0.1832789033651352,"78":0.0010964948451146483,"79":-0.042059097439050674,"80":0.023893283680081367,"81":0.09589262306690216,"82":-0.13369159400463104,"83":-0.004736796021461487,"84":-0.12605413794517517,"85":-0.13643592596054077,"86":0.16395024955272675,"87":-0.08371671289205551,"88":-0.052946239709854126,"89":0.07249574363231659,"90":-0.19103169441223145,"91":-0.137680783867836,"92":-0.03135326877236366,"93":-0.10135876387357712,"94":0.010468145832419395,"95":0.0716826468706131,"96":-0.13631346821784973,"97":0.08197509497404099,"98":0.07790208607912064,"99":0.14332565665245056,"100":-0.03272346407175064,"101":-0.0020364816300570965,"102":-0.17861710488796234,"103":-0.02054978907108307,"104":-0.11473137885332108,"105":-0.08381488174200058,"106":-0.11986730992794037,"107":0.16942642629146576,"108":-0.05898154154419899,"109":-0.10578590631484985,"110":-0.1751393973827362,"111":-0.072389617562294,"112":0.0723283439874649,"113":0.11629373580217361,"114":0.057956330478191376,"115":-0.13022926449775696,"116":0.10188951343297958,"117":-0.14094507694244385,"118":-0.12686532735824585,"119":-0.06891230493783951,"120":-0.13924886286258698,"121":-0.16315175592899323,"122":-0.08878511190414429,"123":-0.10836774110794067,"124":0.15727563202381134,"125":-0.14338189363479614,"126":-0.19465067982673645,"127":0.06997691094875336,"128":0.11044241487979889,"129":-0.026258844882249832,"130":0.02791796438395977,"131":-0.1096184030175209,"132":0.03689653426408768,"133":-0.10854165256023407,"134":-0.18825460970401764,"135":0.03797632083296776,"136":-0.09224057197570801,"137":0.042992301285266876,"138":-0.14277802407741547,"139":0.11310705542564392,"140":0.15440502762794495,"141":0.03450661897659302,"142":0.0874563679099083,"143":-0.12236425280570984,"144":0.09135284274816513,"145":-0.08804389834403992,"146":-0.05744859576225281,"147":-0.03557759150862694,"148":0.08176951110363007,"149":0.05895143002271652,"150":0.11397384852170944,"151":0.011129244230687618,"152":0.09409799426794052,"153":-0.00405653053894639,"154":-0.19682921469211578,"155":-0.005069023463875055,"156":-0.05051202327013016,"157":-0.05741690844297409,"158":-0.04838908091187477,"159":0.0007079779752530158,"160":0.15375056862831116,"161":0.03154963627457619,"162":-0.15011222660541534,"163":0.15083330869674683,"164":0.046553388237953186,"165":0.1080361157655716,"166":-0.14529213309288025,"167":0.007990504615008831,"168":-0.08313754945993423,"169":0.03697589784860611,"170":-0.03002101555466652,"171":0.02090756595134735,"172":-0.011293782852590084,"173":-0.15399138629436493,"174":0.1354873776435852,"175":0.035542864352464676,"176":0.0357339084148407,"177":-0.05765729025006294,"178":0.1779477745294571,"179":-0.17419862747192383,"180":0.010415428318083286,"181":-0.1405026614665985,"182":0.07445447891950607,"183":0.18418289721012115,"184":-0.08462601155042648,"185":-0.1025257483124733,"186":-0.1511925607919693,"187":0.15685924887657166,"188":-0.010614153929054737,"189":0.0023446730338037014,"190":0.10223157703876495,"191":-0.05948125943541527,"192":0.05561548471450806,"193":0.19138963520526886,"194":-0.04079482704401016,"195":0.09420143812894821,"196":-0.10850922018289566,"197":-0.12891244888305664,"198":-0.033677730709314346,"199":-0.2003074735403061}},"3":{"bias":0.14879420399665833,"weights":{"0":0.10647836327552795,"1":-0.12654919922351837,"2":0.182671919465065,"3":0.13166967034339905,"4":-0.11924459040164948,"5":-0.04186590015888214,"6":-0.021191490814089775,"7":-0.07593900710344315,"8":-0.05886479839682579,"9":-0.16101393103599548,"10":0.11949967592954636,"11":0.1374496966600418,"12":-0.02076909691095352,"13":0.1383737325668335,"14":0.10460247844457626,"15":0.13183046877384186,"16":0.011156064458191395,"17":-0.000663818558678031,"18":0.11678515374660492,"19":-0.023349596187472343,"20":0.17840148508548737,"21":-0.1604413092136383,"22":0.02764742076396942,"23":-0.05115433409810066,"24":-0.1732313185930252,"25":0.03133368119597435,"26":0.17982687056064606,"27":0.08202549815177917,"28":0.1611020714044571,"29":-0.09119569510221481,"30":0.15507423877716064,"31":-0.02619953267276287,"32":0.03781747445464134,"33":0.19394665956497192,"34":-0.012410162016749382,"35":0.08437595516443253,"36":0.10013163089752197,"37":0.15137912333011627,"38":0.16702121496200562,"39":-0.10779347270727158,"40":0.05392853170633316,"41":0.08165271580219269,"42":0.14996649324893951,"43":0.002536482410505414,"44":-0.09901899099349976,"45":0.17509882152080536,"46":-0.08354918658733368,"47":-0.06187376379966736,"48":-0.045983728021383286,"49":0.09819400310516357,"50":-0.09727838635444641,"51":-0.1285765916109085,"52":-0.12603987753391266,"53":0.04725762456655502,"54":0.04649725183844566,"55":0.06260360032320023,"56":-0.14785388112068176,"57":-0.1573271006345749,"58":0.14646975696086884,"59":-0.08500289916992188,"60":-0.011892363429069519,"61":0.1296553611755371,"62":-0.19098123908042908,"63":0.14802175760269165,"64":0.17710840702056885,"65":-0.0237674992531538,"66":0.03206413984298706,"67":-0.06067535653710365,"68":0.09771504253149033,"69":0.16331544518470764,"70":0.012512512505054474,"71":-0.03866630792617798,"72":0.19959218800067902,"73":-0.11586839705705643,"74":0.1932331770658493,"75":-0.14077039062976837,"76":0.07187306135892868,"77":0.07020682096481323,"78":-0.013665566220879555,"79":-0.08309461176395416,"80":0.1868552267551422,"81":0.02845105715095997,"82":-0.15701910853385925,"83":0.18497642874717712,"84":-0.09406108409166336,"85":-0.16733010113239288,"86":0.023124661296606064,"87":-0.15122544765472412,"88":-0.05720658600330353,"89":-0.04086950421333313,"90":-0.1339157521724701,"91":-0.16440294682979584,"92":-0.06564301997423172,"93":0.05061765015125275,"94":-0.07556436210870743,"95":0.10219385474920273,"96":-0.012398891150951385,"97":0.10289934277534485,"98":0.13514621555805206,"99":-0.17780861258506775,"100":-0.15830868482589722,"101":0.08191702514886856,"102":-0.05600259080529213,"103":-0.03828246891498566,"104":0.15898026525974274,"105":-0.07050319761037827,"106":0.12072033435106277,"107":0.04475247114896774,"108":-0.07431444525718689,"109":-0.12180931866168976,"110":-0.17431671917438507,"111":-0.008124670013785362,"112":0.008004543371498585,"113":-0.04092557728290558,"114":-0.16050338745117188,"115":0.1146106868982315,"116":-0.15709665417671204,"117":-0.10568471252918243,"118":0.08700630068778992,"119":-0.03607439622282982,"120":0.17726363241672516,"121":-0.1871892213821411,"122":0.2040603905916214,"123":0.19629842042922974,"124":-0.026205264031887054,"125":-0.06488689035177231,"126":0.12254296243190765,"127":-0.16673894226551056,"128":0.01865837164223194,"129":0.0656471997499466,"130":-0.10951703041791916,"131":-0.06497807055711746,"132":0.04750471189618111,"133":-0.18161724507808685,"134":0.0424739345908165,"135":-0.19191409647464752,"136":0.11087903380393982,"137":0.17177988588809967,"138":0.07089414447546005,"139":0.03249673172831535,"140":0.2024650126695633,"141":0.19287985563278198,"142":-0.1207721158862114,"143":-0.06692734360694885,"144":0.06132717803120613,"145":0.07607989013195038,"146":-0.06547186523675919,"147":0.12667611241340637,"148":0.09264688938856125,"149":-0.11124445497989655,"150":0.01373208500444889,"151":-0.12146922200918198,"152":-0.1145063266158104,"153":0.08824967592954636,"154":0.03837287053465843,"155":-0.13734851777553558,"156":-0.09859348088502884,"157":-0.007784887216985226,"158":0.15324415266513824,"159":0.17289213836193085,"160":-0.03531922772526741,"161":0.18704257905483246,"162":0.11824975907802582,"163":0.171852707862854,"164":-0.14172522723674774,"165":0.07942569255828857,"166":-0.07220872491598129,"167":0.07463626563549042,"168":0.04899333044886589,"169":-0.049183592200279236,"170":-0.07097403705120087,"171":-0.06336212158203125,"172":-0.007640590891242027,"173":0.19019320607185364,"174":0.08311372995376587,"175":0.10127156972885132,"176":-0.1914215087890625,"177":-0.18600024282932281,"178":0.10724100470542908,"179":-0.13632319867610931,"180":0.07711468636989594,"181":-0.1008915975689888,"182":0.175855353474617,"183":-0.05401693657040596,"184":-0.1263284534215927,"185":0.03883548825979233,"186":-0.1511332243680954,"187":-0.14895711839199066,"188":0.044578760862350464,"189":0.16103821992874146,"190":0.06425829976797104,"191":-0.02229679934680462,"192":0.18998031318187714,"193":-0.022921904921531677,"194":0.1761413961648941,"195":-0.027057113125920296,"196":-0.0429924838244915,"197":-0.12822780013084412,"198":-0.14598649740219116,"199":-0.15022675693035126}},"4":{"bias":-0.10540325194597244,"weights":{"0":0.07883351296186447,"1":0.06857602298259735,"2":-0.03671157360076904,"3":0.15836359560489655,"4":-0.18542303144931793,"5":0.11911559104919434,"6":0.07308384776115417,"7":0.18242429196834564,"8":0.193510502576828,"9":0.07516346126794815,"10":0.18216101825237274,"11":0.1301865577697754,"12":0.07302772253751755,"13":-0.10083287209272385,"14":-0.13603104650974274,"15":0.12928275763988495,"16":-0.05624394491314888,"17":0.0029629350174218416,"18":-0.06058179587125778,"19":-0.05210621654987335,"20":0.10362111032009125,"21":0.041331060230731964,"22":-0.17161014676094055,"23":-0.0362345315515995,"24":-0.14191657304763794,"25":0.10882595181465149,"26":-0.1576240360736847,"27":0.06293240189552307,"28":0.03118286281824112,"29":-0.01623694784939289,"30":0.0070429351180791855,"31":0.17009705305099487,"32":0.029021646827459335,"33":-0.023365749046206474,"34":0.13389168679714203,"35":-0.04199555516242981,"36":0.08020848780870438,"37":-0.15106117725372314,"38":-0.1890547275543213,"39":0.0025349026545882225,"40":-0.18493877351284027,"41":-0.12472954392433167,"42":-0.05556262284517288,"43":0.06721258908510208,"44":0.122134730219841,"45":-0.17857374250888824,"46":0.16143010556697845,"47":-0.035446517169475555,"48":0.02249707281589508,"49":0.10475900024175644,"50":-0.08001319319009781,"51":0.07928191125392914,"52":0.10487166792154312,"53":-0.16763845086097717,"54":0.07624249160289764,"55":0.08368443697690964,"56":-0.08579135686159134,"57":0.07357882708311081,"58":0.08143550902605057,"59":-0.041330739855766296,"60":0.05459675192832947,"61":0.18763302266597748,"62":0.07976643741130829,"63":0.04351317510008812,"64":0.1644798070192337,"65":-0.12071111053228378,"66":-0.03258717805147171,"67":-0.12305308878421783,"68":0.12657873332500458,"69":0.016769373789429665,"70":-0.006453823298215866,"71":-0.16062664985656738,"72":0.11947020143270493,"73":-0.11025185137987137,"74":0.017248939722776413,"75":-0.03667646273970604,"76":0.03674948960542679,"77":-0.1120574101805687,"78":-0.20279884338378906,"79":-0.01019565761089325,"80":0.10437637567520142,"81":0.17429709434509277,"82":0.18670397996902466,"83":-0.15882784128189087,"84":-0.13248713314533234,"85":0.05689870938658714,"86":-0.18316031992435455,"87":0.10231097042560577,"88":0.10553325712680817,"89":0.19250376522541046,"90":0.0960075780749321,"91":-0.04817664623260498,"92":-0.14064162969589233,"93":0.15158498287200928,"94":0.0749933049082756,"95":0.1295555680990219,"96":0.12113483995199203,"97":0.19181525707244873,"98":-0.00889219157397747,"99":0.013019997626543045,"100":-0.06806658208370209,"101":-0.005865077022463083,"102":-0.01262892410159111,"103":-0.0468292273581028,"104":-0.06921091675758362,"105":0.07975085824728012,"106":-0.11986318975687027,"107":0.15636837482452393,"108":0.18727371096611023,"109":0.04136807844042778,"110":0.12303299456834793,"111":-0.19708861410617828,"112":-0.1869654357433319,"113":-0.1664823442697525,"114":-0.07545170187950134,"115":-0.0871313288807869,"116":-0.006689438130706549,"117":-0.15472576022148132,"118":-0.05425700917840004,"119":0.1855163425207138,"120":0.04916530102491379,"121":-0.18826594948768616,"122":-0.15523695945739746,"123":0.018345525488257408,"124":0.0010399669408798218,"125":-0.16636289656162262,"126":-0.05399269983172417,"127":-0.08371399343013763,"128":0.009947733022272587,"129":0.062236346304416656,"130":-0.15186063945293427,"131":-0.034557998180389404,"132":0.1463063657283783,"133":-0.031045885756611824,"134":0.05247398093342781,"135":0.09855956584215164,"136":0.03193991258740425,"137":0.134242981672287,"138":0.15215854346752167,"139":0.04178634285926819,"140":0.12455751746892929,"141":-0.03330942988395691,"142":-0.05960114672780037,"143":0.0652751550078392,"144":-0.18188832700252533,"145":0.17182007431983948,"146":-0.03125237300992012,"147":-0.00558773148804903,"148":-0.04226289689540863,"149":-0.09685806930065155,"150":0.10871173441410065,"151":0.08756884187459946,"152":-0.0063767824321985245,"153":0.17638638615608215,"154":-0.19445201754570007,"155":0.1948053538799286,"156":0.1878044158220291,"157":0.14720672369003296,"158":0.0669788047671318,"159":0.14694315195083618,"160":0.11311396211385727,"161":-0.17267486453056335,"162":-0.1124115139245987,"163":0.11993823200464249,"164":0.002865380607545376,"165":-0.0642918199300766,"166":0.10347659140825272,"167":0.04598337411880493,"168":-0.011858176440000534,"169":-0.08643800020217896,"170":-0.13727062940597534,"171":0.14892688393592834,"172":-0.10967492312192917,"173":0.06106281653046608,"174":0.01706414297223091,"175":-0.04427782818675041,"176":0.05817580223083496,"177":0.044244036078453064,"178":-0.09228204190731049,"179":-0.05127396434545517,"180":0.054719336330890656,"181":0.07074907422065735,"182":0.12183006852865219,"183":-0.04144313558936119,"184":0.12303955107927322,"185":0.011765393428504467,"186":-0.09652242064476013,"187":-0.11770831793546677,"188":0.0021218499168753624,"189":-0.1646450012922287,"190":0.004318590741604567,"191":0.012517892755568027,"192":0.1669902503490448,"193":0.1873023957014084,"194":-0.12175092101097107,"195":-0.022641343995928764,"196":-0.011060160584747791,"197":0.018440477550029755,"198":-0.15839509665966034,"199":0.11242055892944336}},"5":{"bias":0.15959344804286957,"weights":{"0":0.03202550485730171,"1":-0.0047667305916547775,"2":-0.18757544457912445,"3":-0.029741890728473663,"4":0.12118130922317505,"5":-0.190974161028862,"6":0.1491660177707672,"7":0.19167569279670715,"8":0.13513019680976868,"9":-0.11547338217496872,"10":-0.06079079210758209,"11":0.08661334216594696,"12":-0.192183256149292,"13":-0.12384459376335144,"14":0.08459846675395966,"15":0.08320405334234238,"16":0.13178642094135284,"17":-0.02112652361392975,"18":-0.12148777395486832,"19":0.05145297572016716,"20":-0.08499719947576523,"21":-0.08868914842605591,"22":-0.01068024430423975,"23":0.11965340375900269,"24":0.14249847829341888,"25":0.1014636680483818,"26":-0.02000586874783039,"27":-0.10903064161539078,"28":0.06956140697002411,"29":0.1829850822687149,"30":0.04480079561471939,"31":0.027327340096235275,"32":0.0340229757130146,"33":-0.04261177405714989,"34":0.06499612331390381,"35":-0.14928454160690308,"36":-0.18887336552143097,"37":0.16905994713306427,"38":0.08724191784858704,"39":0.000960470293648541,"40":0.09676685184240341,"41":-0.14099040627479553,"42":0.1197964996099472,"43":0.1325434297323227,"44":0.1285659372806549,"45":-0.15622469782829285,"46":-0.17392215132713318,"47":-0.15822917222976685,"48":-0.07399608194828033,"49":0.021929820999503136,"50":0.08178408443927765,"51":0.039238836616277695,"52":-0.16390979290008545,"53":-0.18855203688144684,"54":-0.10112976282835007,"55":0.043938107788562775,"56":0.10747946053743362,"57":0.0008384535904042423,"58":-0.19158869981765747,"59":0.018653497099876404,"60":0.0946759283542633,"61":0.02592911198735237,"62":-0.13304170966148376,"63":0.017316052690148354,"64":-0.13615156710147858,"65":0.03398766741156578,"66":0.0778542086482048,"67":-0.06196898594498634,"68":-0.18516042828559875,"69":0.05117977410554886,"70":0.13824883103370667,"71":0.07402677088975906,"72":-0.016454186290502548,"73":-0.10388322919607162,"74":-0.08510510623455048,"75":-0.044290535151958466,"76":-0.12095385044813156,"77":-0.08858849853277206,"78":0.08629288524389267,"79":0.1684429794549942,"80":0.17473801970481873,"81":0.09864643961191177,"82":-0.11324554681777954,"83":-0.037426743656396866,"84":-0.07663800567388535,"85":-0.04709353670477867,"86":0.04295734316110611,"87":-0.1956106275320053,"88":-0.11785572022199631,"89":-0.13418738543987274,"90":-0.021273914724588394,"91":0.06676821410655975,"92":0.1318206489086151,"93":-0.023884553462266922,"94":0.023912621662020683,"95":0.0019247890450060368,"96":-0.10402742773294449,"97":-0.17380401492118835,"98":0.06684929877519608,"99":-0.06791335344314575,"100":0.08826492726802826,"101":-0.045350976288318634,"102":-0.050702694803476334,"103":-0.06436175853013992,"104":0.1323605179786682,"105":0.10087347775697708,"106":-0.008245357312262058,"107":0.12223502993583679,"108":0.18344885110855103,"109":0.035804633051157,"110":0.10098761320114136,"111":-0.11934705078601837,"112":-0.08077902346849442,"113":-0.05102016404271126,"114":-0.039836328476667404,"115":-0.04954476282000542,"116":0.109573595225811,"117":-0.17682234942913055,"118":-0.18881414830684662,"119":0.19147834181785583,"120":-0.040978554636240005,"121":0.07590576261281967,"122":0.018748300150036812,"123":0.1698814481496811,"124":0.08287262916564941,"125":-0.142914280295372,"126":0.14580292999744415,"127":0.01601472869515419,"128":0.19070951640605927,"129":-0.14146430790424347,"130":0.13987186551094055,"131":0.06425359100103378,"132":0.11681860685348511,"133":0.08468108624219894,"134":-0.13141466677188873,"135":-0.051717258989810944,"136":0.12078925967216492,"137":0.15642836689949036,"138":0.027421940118074417,"139":-0.07361967116594315,"140":-0.1246073767542839,"141":-0.02895592898130417,"142":0.031196143478155136,"143":0.03311830759048462,"144":0.12083210051059723,"145":0.10138807445764542,"146":0.17643876373767853,"147":0.19861464202404022,"148":-0.14599068462848663,"149":-0.16207997500896454,"150":-0.19422921538352966,"151":-0.025458548218011856,"152":0.14087337255477905,"153":-0.03599495440721512,"154":0.18367187678813934,"155":-0.028214704245328903,"156":-0.19592317938804626,"157":0.020469767972826958,"158":-0.10407331585884094,"159":-0.19980749487876892,"160":-0.056674811989068985,"161":0.09338466823101044,"162":-0.08842658251523972,"163":0.12625207006931305,"164":-0.016685333102941513,"165":0.1363198310136795,"166":0.058948155492544174,"167":-0.08548561483621597,"168":0.12728014588356018,"169":0.08748698979616165,"170":-0.01689072512090206,"171":-0.0785021036863327,"172":-0.1791432648897171,"173":0.13240309059619904,"174":-0.16683273017406464,"175":0.14792335033416748,"176":-0.005029830150306225,"177":0.09616319835186005,"178":0.0445195734500885,"179":0.08951808512210846,"180":0.021157706156373024,"181":0.18384315073490143,"182":0.07416606694459915,"183":-0.006413453724235296,"184":0.06966828554868698,"185":-0.09974650293588638,"186":-0.010609623976051807,"187":0.0052870833314955235,"188":-0.1190929040312767,"189":0.12121552973985672,"190":0.11290153861045837,"191":0.1665206402540207,"192":0.07130664587020874,"193":-0.1780521273612976,"194":-0.17556850612163544,"195":-0.009358657523989677,"196":0.14679907262325287,"197":-0.07301320880651474,"198":0.06882195919752121,"199":-0.08044827729463577}},"6":{"bias":-0.12546488642692566,"weights":{"0":-0.07504503428936005,"1":0.024976903572678566,"2":-0.09538637101650238,"3":-0.15197622776031494,"4":-0.1280660778284073,"5":0.02310822531580925,"6":-0.12464519590139389,"7":0.12195802479982376,"8":0.07933247834444046,"9":-0.09452753514051437,"10":-0.18030671775341034,"11":0.06841418147087097,"12":0.1921815425157547,"13":0.18010713160037994,"14":0.04326353222131729,"15":-0.0023282435722649097,"16":0.05942073091864586,"17":-0.17777085304260254,"18":-0.07483294606208801,"19":-0.06388597935438156,"20":0.14900167286396027,"21":0.06732817739248276,"22":0.15345896780490875,"23":0.034176986664533615,"24":0.13812774419784546,"25":0.06727918237447739,"26":-0.083406001329422,"27":0.02969350293278694,"28":-0.027891529724001884,"29":0.06854832917451859,"30":0.04860633611679077,"31":-0.13309380412101746,"32":0.0029752335976809263,"33":-0.01908411644399166,"34":-0.11048360913991928,"35":-0.03765769302845001,"36":0.019910583272576332,"37":-0.14289353787899017,"38":0.08905885368585587,"39":0.0817895159125328,"40":-0.07535668462514877,"41":0.1869228333234787,"42":0.032201651483774185,"43":-0.11848584562540054,"44":-0.04197512939572334,"45":0.10936623066663742,"46":-0.11745263636112213,"47":0.011387832462787628,"48":-0.0710570439696312,"49":0.1465143859386444,"50":-0.1006029024720192,"51":-0.11079544574022293,"52":0.14894302189350128,"53":-0.0754605084657669,"54":0.17192721366882324,"55":0.14935046434402466,"56":0.18525131046772003,"57":0.010544457472860813,"58":-0.14415256679058075,"59":0.005892562679946423,"60":0.05053594335913658,"61":-0.03766516223549843,"62":-0.13513721525669098,"63":-0.03419310599565506,"64":0.024844666942954063,"65":-0.027316389605402946,"66":0.16720983386039734,"67":0.02468225173652172,"68":-0.11503337323665619,"69":-0.18535280227661133,"70":0.08495492488145828,"71":-0.011399980634450912,"72":0.05671016499400139,"73":0.11577491462230682,"74":0.10014507919549942,"75":0.18541419506072998,"76":0.028747908771038055,"77":-0.13993005454540253,"78":-0.159760981798172,"79":0.09185782074928284,"80":-0.04189923778176308,"81":0.16785918176174164,"82":0.08147398382425308,"83":0.01464791875332594,"84":0.04504847899079323,"85":0.11537772417068481,"86":0.10877667367458344,"87":0.005167590454220772,"88":0.19892114400863647,"89":-0.004239269997924566,"90":0.13699615001678467,"91":0.010162157006561756,"92":0.05400105565786362,"93":-0.19273468852043152,"94":-0.1838064342737198,"95":0.19011543691158295,"96":0.1014472246170044,"97":0.1677093654870987,"98":0.03166012093424797,"99":-0.06604467332363129,"100":-0.05949174985289574,"101":-0.07584833353757858,"102":-0.16093720495700836,"103":0.05000367388129234,"104":-0.17690713703632355,"105":0.10423371195793152,"106":-0.007992096245288849,"107":0.09973348677158356,"108":-0.1905258148908615,"109":-0.16668641567230225,"110":0.05461735650897026,"111":0.17116813361644745,"112":0.0045287529937922955,"113":-0.13025729358196259,"114":0.06751878559589386,"115":-0.04503572732210159,"116":-0.011472021229565144,"117":-0.13489148020744324,"118":-0.062058743089437485,"119":0.15682905912399292,"120":-0.16159336268901825,"121":-0.10950967669487,"122":-0.13765549659729004,"123":-0.14568598568439484,"124":0.05282622203230858,"125":0.06874433159828186,"126":0.17830756306648254,"127":0.08020724356174469,"128":-0.195845365524292,"129":0.09173233062028885,"130":0.18739129602909088,"131":0.18478988111019135,"132":-0.11965695768594742,"133":0.008833927102386951,"134":-0.11284254491329193,"135":0.14669360220432281,"136":-0.17742863297462463,"137":0.09247846901416779,"138":0.026126857846975327,"139":0.08663880079984665,"140":0.12204203754663467,"141":0.1173434928059578,"142":-0.11914590001106262,"143":0.09831535071134567,"144":-0.19136445224285126,"145":-0.14804880321025848,"146":0.01908741518855095,"147":0.13994184136390686,"148":0.13068200647830963,"149":0.030583525076508522,"150":0.12789486348628998,"151":-0.011435659602284431,"152":0.15624946355819702,"153":-0.01021538581699133,"154":0.18270845711231232,"155":0.04418351128697395,"156":-0.19590385258197784,"157":-0.014071443118155003,"158":0.11103630065917969,"159":0.07462295889854431,"160":0.11650103330612183,"161":-0.11912552267313004,"162":-0.12391036748886108,"163":-0.020783547312021255,"164":0.053292401134967804,"165":-0.022954197600483894,"166":-0.10961685329675674,"167":-0.16243192553520203,"168":0.11591258645057678,"169":-0.13427667319774628,"170":-0.020000964403152466,"171":-0.09662387520074844,"172":0.011044631712138653,"173":0.12108644098043442,"174":0.1662091314792633,"175":-0.010187368839979172,"176":0.01791718229651451,"177":0.05817189812660217,"178":-0.02386360988020897,"179":-0.1629977971315384,"180":0.20225325226783752,"181":-0.05322181060910225,"182":-0.17593327164649963,"183":0.15397308766841888,"184":-0.02768927440047264,"185":0.1405688375234604,"186":-0.12146255373954773,"187":0.08410695195198059,"188":-0.19029922783374786,"189":0.12736329436302185,"190":0.08206506818532944,"191":0.12062564492225647,"192":-0.1165865808725357,"193":-0.08547045290470123,"194":-0.02369672991335392,"195":-0.18170411884784698,"196":0.03536166995763779,"197":-0.06326226145029068,"198":0.19363999366760254,"199":0.11885165423154831}},"7":{"bias":-0.06384622305631638,"weights":{"0":-0.01114831306040287,"1":0.13925501704216003,"2":0.05303805693984032,"3":0.11717784404754639,"4":0.14896829426288605,"5":0.0009701745584607124,"6":-0.17976351082324982,"7":0.15209759771823883,"8":0.11941007524728775,"9":0.1462012380361557,"10":-0.05227947607636452,"11":0.14089053869247437,"12":-0.11208094656467438,"13":0.04248693957924843,"14":0.09554939717054367,"15":0.19996793568134308,"16":-0.0669420138001442,"17":-0.14593739807605743,"18":0.007539421319961548,"19":-0.03550638258457184,"20":0.002749788574874401,"21":-0.1758732944726944,"22":-0.07279013097286224,"23":-0.06421991437673569,"24":0.12290704995393753,"25":-0.012729603797197342,"26":-0.0029899762012064457,"27":-0.18414266407489777,"28":0.08964541554450989,"29":-0.15939176082611084,"30":-0.15417449176311493,"31":-0.07897596061229706,"32":-0.01668975129723549,"33":0.041471272706985474,"34":0.10104546695947647,"35":0.05102179944515228,"36":0.09424739331007004,"37":-0.08765050023794174,"38":-0.05549618601799011,"39":-0.060861069709062576,"40":0.06985146552324295,"41":-0.17664530873298645,"42":-0.11837056279182434,"43":-0.1439419388771057,"44":-0.12550796568393707,"45":-0.16514398157596588,"46":-0.06471216678619385,"47":0.16498516499996185,"48":-0.18745051324367523,"49":-0.13789039850234985,"50":-0.09186841547489166,"51":-0.020868251100182533,"52":-0.048193417489528656,"53":0.021223368123173714,"54":0.1489923745393753,"55":-0.03620248660445213,"56":-0.01772761531174183,"57":0.06893301010131836,"58":-0.10611174255609512,"59":-0.16335536539554596,"60":0.12787997722625732,"61":0.15866491198539734,"62":0.14667341113090515,"63":0.05359559878706932,"64":0.14744120836257935,"65":0.02835024520754814,"66":0.18271629512310028,"67":-0.05462288856506348,"68":-0.17502479255199432,"69":-0.19064314663410187,"70":-0.07623302191495895,"71":-0.06339989602565765,"72":-0.1361360102891922,"73":-0.08412054926156998,"74":0.15553274750709534,"75":-0.18675358593463898,"76":0.0423743762075901,"77":0.18057408928871155,"78":0.059983719140291214,"79":-0.02808409184217453,"80":0.10461362451314926,"81":-0.11998872458934784,"82":0.11914962530136108,"83":0.1404293030500412,"84":0.08671321719884872,"85":0.1430516541004181,"86":-0.08088649809360504,"87":0.18469113111495972,"88":0.15779653191566467,"89":-0.14742077887058258,"90":-0.1133607029914856,"91":-0.060674022883176804,"92":-0.05794978886842728,"93":0.1294591724872589,"94":0.11842571943998337,"95":0.03282708674669266,"96":-0.15937356650829315,"97":0.0745648667216301,"98":0.1801532357931137,"99":0.12569499015808105,"100":0.13233058154582977,"101":0.05924287065863609,"102":-0.025500552728772163,"103":-0.19318674504756927,"104":0.15825994312763214,"105":0.17532974481582642,"106":0.15911489725112915,"107":-0.00786713045090437,"108":0.18255728483200073,"109":-0.07794106006622314,"110":-0.1550661027431488,"111":0.06569651514291763,"112":-0.14009322226047516,"113":-0.16606974601745605,"114":0.17002691328525543,"115":0.10019543766975403,"116":0.11859460175037384,"117":-0.11699902266263962,"118":0.08641022443771362,"119":-0.0454118475317955,"120":0.19648481905460358,"121":0.18437887728214264,"122":0.1587538719177246,"123":0.1302844136953354,"124":-0.10071638971567154,"125":-0.0890711322426796,"126":0.0565599724650383,"127":-0.0023652322124689817,"128":-0.006218359339982271,"129":-0.040174003690481186,"130":0.1857621818780899,"131":0.08707066625356674,"132":0.14980725944042206,"133":0.07855727523565292,"134":0.056344762444496155,"135":-0.06954950094223022,"136":0.1200331449508667,"137":-0.17258228361606598,"138":0.03663928061723709,"139":-0.036064885556697845,"140":0.0763288140296936,"141":0.17558053135871887,"142":-0.13270549476146698,"143":-0.08813109248876572,"144":0.20381291210651398,"145":0.19160939753055573,"146":-0.12638016045093536,"147":0.19532601535320282,"148":-0.051439642906188965,"149":0.09630800038576126,"150":-0.035216573625802994,"151":-0.09917519986629486,"152":-0.050172898918390274,"153":0.05413389205932617,"154":-0.13149163126945496,"155":-0.10343194007873535,"156":-0.09285181015729904,"157":-0.020188966765999794,"158":0.015714339911937714,"159":-0.15529802441596985,"160":0.1117226630449295,"161":-0.004777198191732168,"162":0.11149660497903824,"163":0.07960700243711472,"164":-0.11964709311723709,"165":-0.12997880578041077,"166":0.011193313635885715,"167":-0.07019677758216858,"168":0.09904289990663528,"169":-0.09528293460607529,"170":-0.01841958612203598,"171":0.008492295630276203,"172":0.13817013800144196,"173":0.00769328698515892,"174":0.06512971967458725,"175":0.1615166962146759,"176":-0.14222414791584015,"177":0.19152067601680756,"178":0.04913342744112015,"179":0.162958025932312,"180":-0.046202901750802994,"181":0.12636782228946686,"182":-0.1775975227355957,"183":-0.1528203785419464,"184":0.19629643857479095,"185":-0.14409184455871582,"186":0.05440051481127739,"187":0.07451590150594711,"188":-0.13473770022392273,"189":-0.031066305935382843,"190":-0.11277123540639877,"191":0.03681685030460358,"192":0.013908663764595985,"193":-0.1366138905286789,"194":-0.04863927140831947,"195":-0.18846668303012848,"196":-0.1271483302116394,"197":0.10155245661735535,"198":0.030827617272734642,"199":-0.026339154690504074}},"8":{"bias":0.09494998306035995,"weights":{"0":0.09808769077062607,"1":-0.16173458099365234,"2":0.08967628329992294,"3":-0.10886254161596298,"4":-0.1034444198012352,"5":0.19839181005954742,"6":0.18697263300418854,"7":0.013337058946490288,"8":-0.10329469293355942,"9":-0.1903126835823059,"10":-0.12372536957263947,"11":0.151213139295578,"12":-0.08179247379302979,"13":-0.017144648358225822,"14":-0.0647503137588501,"15":-0.17963907122612,"16":-0.0031614459585398436,"17":0.12380457669496536,"18":0.1787777841091156,"19":0.17708076536655426,"20":-0.16561543941497803,"21":0.10996093600988388,"22":-0.16086803376674652,"23":0.09125794470310211,"24":-0.11758025735616684,"25":-0.07097312062978745,"26":0.19152098894119263,"27":-0.08590662479400635,"28":-0.09595630317926407,"29":-0.05845982953906059,"30":-0.08781842142343521,"31":0.05885166674852371,"32":-0.13241127133369446,"33":0.07913893461227417,"34":-0.12030591815710068,"35":0.1102852076292038,"36":-0.027628153562545776,"37":-0.08291436731815338,"38":0.05578480660915375,"39":-0.19671408832073212,"40":0.04826899990439415,"41":-0.054210513830184937,"42":0.12886640429496765,"43":0.19087259471416473,"44":-0.13054683804512024,"45":0.0697098821401596,"46":-0.07300836592912674,"47":0.02505197748541832,"48":0.15266931056976318,"49":-0.025952238589525223,"50":-0.11983686685562134,"51":0.09599560499191284,"52":0.12099876999855042,"53":0.05090920254588127,"54":-0.06104206666350365,"55":0.06035759299993515,"56":0.19203238189220428,"57":0.1269669383764267,"58":-0.038964953273534775,"59":0.08807022124528885,"60":-0.10170184075832367,"61":0.12357322871685028,"62":0.1070210412144661,"63":0.06822719424962997,"64":0.18803662061691284,"65":-0.06058935075998306,"66":-0.12098927795886993,"67":0.1152360588312149,"68":0.1944623440504074,"69":-0.030542677268385887,"70":-0.13102731108665466,"71":-0.03885384649038315,"72":-0.039256468415260315,"73":0.02489146776497364,"74":0.04903438687324524,"75":0.045814406126737595,"76":-0.159400075674057,"77":0.13318200409412384,"78":0.19496989250183105,"79":-0.13907963037490845,"80":0.10896234214305878,"81":0.17939482629299164,"82":-0.19318586587905884,"83":0.06583195924758911,"84":0.06603669375181198,"85":-0.08975175023078918,"86":-0.1652926653623581,"87":0.0009123821510002017,"88":0.14368683099746704,"89":0.1976265162229538,"90":-0.06803605705499649,"91":-0.1139090433716774,"92":-0.19777970016002655,"93":-0.013022179715335369,"94":-0.055419161915779114,"95":0.13542668521404266,"96":0.06749219447374344,"97":-0.18455272912979126,"98":0.019460629671812057,"99":0.02211572788655758,"100":0.16942961513996124,"101":0.10753422975540161,"102":0.16513203084468842,"103":0.06896346807479858,"104":0.14833086729049683,"105":-0.177871435880661,"106":0.10339473932981491,"107":-0.018609728664159775,"108":-0.040350187569856644,"109":0.030016889795660973,"110":-0.0238534826785326,"111":0.06270065903663635,"112":-0.07737915217876434,"113":0.03367793560028076,"114":-0.1370161473751068,"115":0.030419617891311646,"116":-0.13944512605667114,"117":-0.042502857744693756,"118":0.195529967546463,"119":0.19372767210006714,"120":-0.16756571829319,"121":0.0762905701994896,"122":-0.1234697550535202,"123":0.09416259825229645,"124":-0.047930631786584854,"125":0.16739970445632935,"126":0.07360633462667465,"127":-0.10036084800958633,"128":0.11501035839319229,"129":0.15728595852851868,"130":0.03083258867263794,"131":0.0907660499215126,"132":-0.10393793135881424,"133":-0.06682901084423065,"134":0.16875386238098145,"135":0.17097847163677216,"136":0.00938968826085329,"137":0.18061567842960358,"138":-0.16750887036323547,"139":0.1671151965856552,"140":-0.07461299747228622,"141":0.01031746156513691,"142":-0.08076543360948563,"143":0.07462088018655777,"144":0.02422267012298107,"145":0.0640215128660202,"146":0.07461875677108765,"147":0.062317270785570145,"148":0.023075273260474205,"149":0.01914023421704769,"150":-0.13903255760669708,"151":0.1633729189634323,"152":-0.13413791358470917,"153":0.044929806143045425,"154":0.18409225344657898,"155":-0.11544275283813477,"156":0.05076976493000984,"157":-0.15503430366516113,"158":-0.15041352808475494,"159":-0.10124983638525009,"160":-0.19425007700920105,"161":0.03853587806224823,"162":0.031730666756629944,"163":0.08958064019680023,"164":-0.019405359402298927,"165":-0.19699469208717346,"166":0.16508512198925018,"167":0.1790577918291092,"168":-0.02152722142636776,"169":0.03897763416171074,"170":-0.1158149465918541,"171":0.0024584101047366858,"172":-0.0981602743268013,"173":-0.04135288670659065,"174":-0.0762740820646286,"175":0.1583242416381836,"176":-0.14191991090774536,"177":-0.007469795644283295,"178":0.04654048755764961,"179":0.18356545269489288,"180":0.15484164655208588,"181":-0.023934949189424515,"182":0.011812401935458183,"183":0.03054950386285782,"184":0.02611389383673668,"185":0.13583172857761383,"186":0.08741330355405807,"187":0.01498983521014452,"188":0.15107309818267822,"189":0.09314795583486557,"190":0.06807532906532288,"191":-0.06711625307798386,"192":-0.11857618391513824,"193":-0.16899897158145905,"194":-0.14482156932353973,"195":-0.12631931900978088,"196":0.1157526895403862,"197":0.13060949742794037,"198":0.005598141346126795,"199":0.04642307758331299}},"9":{"bias":-0.09799909591674805,"weights":{"0":0.11365000158548355,"1":-0.0027189922984689474,"2":0.1423647254705429,"3":0.18866071105003357,"4":-0.18520331382751465,"5":0.11653805524110794,"6":0.024951128289103508,"7":0.013760780915617943,"8":-0.0592716746032238,"9":0.04046021029353142,"10":0.1020907610654831,"11":0.10989051312208176,"12":-0.10037831962108612,"13":-0.05598410964012146,"14":0.05326933413743973,"15":0.0859677791595459,"16":0.09001762419939041,"17":-0.008348432369530201,"18":-0.181878924369812,"19":0.08114690333604813,"20":-0.17271430790424347,"21":0.13690237700939178,"22":0.1840035617351532,"23":-0.0054888371378183365,"24":0.1822522133588791,"25":-0.15417039394378662,"26":-0.06643329560756683,"27":0.07665994763374329,"28":0.1984727680683136,"29":-0.1274632066488266,"30":-0.11559786647558212,"31":-0.009074140340089798,"32":0.19862397015094757,"33":0.08565660566091537,"34":0.06806598603725433,"35":0.03172365948557854,"36":0.06887136399745941,"37":0.11298523843288422,"38":0.11776469647884369,"39":-0.07310594618320465,"40":0.12624765932559967,"41":0.016615059226751328,"42":0.19305269420146942,"43":0.10711626708507538,"44":-0.0016221959376707673,"45":0.06657250970602036,"46":-0.12934640049934387,"47":-0.038373857736587524,"48":-0.02135145664215088,"49":0.04215801879763603,"50":0.10303018242120743,"51":-0.16794587671756744,"52":0.18379822373390198,"53":-0.016530659049749374,"54":-0.06840986013412476,"55":-0.026716291904449463,"56":-0.008440210483968258,"57":-0.08935803174972534,"58":0.027898911386728287,"59":-0.16669446229934692,"60":0.06392286717891693,"61":-0.030866649001836777,"62":0.11003270000219345,"63":0.10524879395961761,"64":-0.13291284441947937,"65":-0.15921811759471893,"66":-0.07892315834760666,"67":0.1683109551668167,"68":-0.20041076838970184,"69":0.13398879766464233,"70":-0.16132047772407532,"71":0.18471914529800415,"72":0.059359144419431686,"73":-0.1071535274386406,"74":-0.028305646032094955,"75":0.05845598876476288,"76":0.13121762871742249,"77":0.002035651821643114,"78":-0.0761035829782486,"79":0.18367168307304382,"80":-0.0640493631362915,"81":0.047767579555511475,"82":0.07119599729776382,"83":-0.14582793414592743,"84":0.1360941380262375,"85":-0.054853830486536026,"86":-0.14683303236961365,"87":-0.1506669968366623,"88":-0.1453380584716797,"89":-0.030559055507183075,"90":0.05581017583608627,"91":-0.15618160367012024,"92":0.01496951375156641,"93":0.06823984533548355,"94":0.0687924176454544,"95":-0.15188266336917877,"96":0.17460142076015472,"97":-0.11698240041732788,"98":-0.005656644236296415,"99":0.14716286957263947,"100":0.04375794157385826,"101":0.030148960649967194,"102":0.1959552764892578,"103":0.06870388239622116,"104":-0.053938280791044235,"105":-0.036789339035749435,"106":-0.0034701309632509947,"107":0.17013545334339142,"108":0.02958279848098755,"109":0.10796625912189484,"110":0.022986961528658867,"111":0.06554976105690002,"112":-0.16297794878482819,"113":0.010244391858577728,"114":-0.09996473789215088,"115":-0.13079798221588135,"116":-0.007555186282843351,"117":0.08887439966201782,"118":0.16176334023475647,"119":-0.13620178401470184,"120":0.13386374711990356,"121":-0.12904760241508484,"122":-0.10218587517738342,"123":-0.008774025365710258,"124":-0.15300330519676208,"125":0.1766873449087143,"126":0.1690046787261963,"127":0.18650609254837036,"128":0.035366229712963104,"129":-0.07934260368347168,"130":-0.0617469921708107,"131":-0.19190005958080292,"132":0.11289267987012863,"133":-0.028266167268157005,"134":-0.05551598593592644,"135":0.1989855021238327,"136":0.16837219893932343,"137":0.09910119324922562,"138":0.05564813315868378,"139":-0.0158856101334095,"140":0.14319711923599243,"141":-0.004463530611246824,"142":-0.013838456943631172,"143":-0.061263229697942734,"144":0.0530850887298584,"145":0.016909215599298477,"146":-0.008827505633234978,"147":0.17608489096164703,"148":-0.13406066596508026,"149":0.180211141705513,"150":-0.08388829231262207,"151":0.01737525872886181,"152":-0.1993788331747055,"153":0.005532842595130205,"154":-0.19583453238010406,"155":-0.06128430366516113,"156":0.03465303033590317,"157":0.07334494590759277,"158":-0.05505042150616646,"159":-0.1776271015405655,"160":0.12762561440467834,"161":0.038177259266376495,"162":0.00853883195668459,"163":-0.019368842244148254,"164":-0.08585566282272339,"165":0.011608819477260113,"166":-0.04946085810661316,"167":-0.00931016355752945,"168":0.19364221394062042,"169":0.1668568253517151,"170":0.08132031559944153,"171":-0.015369999222457409,"172":0.19524849951267242,"173":-0.007379497401416302,"174":0.01746852695941925,"175":-0.037937719374895096,"176":0.1138814389705658,"177":0.11441203951835632,"178":-0.10721252113580704,"179":-0.03273311257362366,"180":-0.11649701744318008,"181":-0.0391351617872715,"182":0.1725330799818039,"183":-0.10092981159687042,"184":0.1931595355272293,"185":-0.035115309059619904,"186":0.17153744399547577,"187":0.028940772637724876,"188":-0.1762768030166626,"189":-0.07629357278347015,"190":0.17574775218963623,"191":0.1655346155166626,"192":0.10273698717355728,"193":0.019652128219604492,"194":-0.04730220511555672,"195":0.04289296641945839,"196":-0.18283630907535553,"197":-0.015571823343634605,"198":0.11552237719297409,"199":-0.007912793196737766}},"10":{"bias":-0.02243879996240139,"weights":{"0":-0.03473833203315735,"1":0.04280247911810875,"2":0.18720126152038574,"3":0.014950066804885864,"4":0.1969422698020935,"5":-0.0316743440926075,"6":-0.04901629313826561,"7":0.1973428875207901,"8":0.062432680279016495,"9":0.14418290555477142,"10":-0.19420446455478668,"11":-0.16778622567653656,"12":0.12917017936706543,"13":-0.040593694895505905,"14":-0.04927380010485649,"15":-0.0321662612259388,"16":-0.09632892906665802,"17":-0.027817146852612495,"18":0.18387027084827423,"19":0.032841142266988754,"20":0.15151436626911163,"21":-0.06446591764688492,"22":-0.1704184114933014,"23":0.1405317336320877,"24":0.1553640514612198,"25":0.02358616702258587,"26":0.12404487282037735,"27":-0.0773337110877037,"28":0.1861979365348816,"29":-0.05727085471153259,"30":0.13920935988426208,"31":0.12397415935993195,"32":0.08898352831602097,"33":0.021105222404003143,"34":-0.1941259652376175,"35":0.06645800173282623,"36":0.03931732848286629,"37":0.009672733023762703,"38":0.06397055834531784,"39":0.0943264365196228,"40":0.18932054936885834,"41":-0.14713138341903687,"42":0.18479962646961212,"43":-0.09848390519618988,"44":-0.06060527265071869,"45":-0.017476743087172508,"46":-0.1110454574227333,"47":-0.093305304646492,"48":-0.16579285264015198,"49":-0.09795966744422913,"50":0.07086377590894699,"51":-0.0542590469121933,"52":0.05135194957256317,"53":0.017037466168403625,"54":-0.11033282428979874,"55":-0.15621119737625122,"56":-0.132339745759964,"57":0.004729722160845995,"58":0.01737194135785103,"59":0.028849191963672638,"60":-0.12618042528629303,"61":-0.11462296545505524,"62":-0.10029001533985138,"63":0.010961811989545822,"64":-0.0906720906496048,"65":0.19416795670986176,"66":0.032051973044872284,"67":0.013434765860438347,"68":0.09461189061403275,"69":-0.015174525789916515,"70":-0.17488612234592438,"71":0.14049208164215088,"72":-0.0903594121336937,"73":-0.17991331219673157,"74":0.1645488142967224,"75":0.12999117374420166,"76":-0.024131949990987778,"77":-0.04679315537214279,"78":0.11268923431634903,"79":0.1344747096300125,"80":0.1397724449634552,"81":-0.1557701826095581,"82":-0.14886188507080078,"83":0.1829877346754074,"84":0.1798609495162964,"85":-0.16167199611663818,"86":0.10852304846048355,"87":-0.04739255830645561,"88":-0.10336504131555557,"89":-0.155446857213974,"90":-0.15796944499015808,"91":0.10741298645734787,"92":-0.1951255351305008,"93":0.04184921830892563,"94":0.1761491745710373,"95":0.17371118068695068,"96":0.1559005230665207,"97":0.09717831760644913,"98":-0.19907067716121674,"99":-0.042546920478343964,"100":0.15537884831428528,"101":-0.07302406430244446,"102":0.12026157975196838,"103":0.016045840457081795,"104":-0.042155321687459946,"105":0.15794742107391357,"106":-0.11139120906591415,"107":0.1924269050359726,"108":0.0007057302282191813,"109":0.10844983905553818,"110":0.03058270551264286,"111":0.020809439942240715,"112":0.10368988662958145,"113":0.16480135917663574,"114":0.17629516124725342,"115":-0.10535763949155807,"116":-0.04995515197515488,"117":0.1318410485982895,"118":-0.15034572780132294,"119":-0.04082692787051201,"120":-0.004677890334278345,"121":-0.11519599705934525,"122":-0.12811772525310516,"123":-0.06751677393913269,"124":-0.008760442957282066,"125":0.11315792798995972,"126":0.13941526412963867,"127":-0.12242698669433594,"128":0.02265886217355728,"129":0.18392005562782288,"130":0.10484142601490021,"131":-0.062018655240535736,"132":0.16100767254829407,"133":-0.059369850903749466,"134":-0.025245383381843567,"135":0.06808286905288696,"136":-0.1636245846748352,"137":-0.020442582666873932,"138":0.12985734641551971,"139":0.04294312372803688,"140":-0.13876132667064667,"141":-0.04367770254611969,"142":-0.10003010928630829,"143":0.042746685445308685,"144":0.11299781501293182,"145":-0.1030752956867218,"146":-0.1904023140668869,"147":-0.15328919887542725,"148":0.11765847355127335,"149":-0.15874046087265015,"150":0.03531068190932274,"151":0.17716504633426666,"152":0.016654258593916893,"153":-0.11513008922338486,"154":0.011134704574942589,"155":-0.006731373257935047,"156":-0.17862609028816223,"157":-0.09133072942495346,"158":-0.011510457843542099,"159":-0.08631854504346848,"160":0.00909474864602089,"161":-0.07603035867214203,"162":0.08550620079040527,"163":-0.03552303463220596,"164":0.05804537981748581,"165":0.18192772567272186,"166":-0.03644861280918121,"167":0.140543133020401,"168":0.0841750055551529,"169":-0.1631210595369339,"170":0.09350034594535828,"171":0.16779068112373352,"172":-0.024867553263902664,"173":0.151174858212471,"174":0.0686587542295456,"175":-0.014481215737760067,"176":-0.13817375898361206,"177":-0.11478720605373383,"178":0.18777760863304138,"179":0.14024251699447632,"180":0.1943240761756897,"181":-0.19697117805480957,"182":0.15393124520778656,"183":-0.10643966495990753,"184":-0.14708003401756287,"185":0.07520636916160583,"186":0.08656863868236542,"187":-0.048893265426158905,"188":-0.015441847033798695,"189":0.13922061026096344,"190":-0.17204171419143677,"191":0.1961376667022705,"192":0.19191762804985046,"193":-0.19143538177013397,"194":-0.04185527190566063,"195":-0.18810796737670898,"196":0.04696004465222359,"197":-0.11961007863283157,"198":0.16644731163978577,"199":0.11291757225990295}},"11":{"bias":0.17038492858409882,"weights":{"0":-0.10653062909841537,"1":0.11448140442371368,"2":0.05573529750108719,"3":-0.05618186295032501,"4":0.16962896287441254,"5":0.010898294858634472,"6":0.02597944065928459,"7":0.14909030497074127,"8":0.029056014493107796,"9":0.17129601538181305,"10":0.18132303655147552,"11":-0.18365171551704407,"12":0.08761036396026611,"13":-0.11117168515920639,"14":-0.023867350071668625,"15":0.1227862760424614,"16":0.04848974943161011,"17":-0.09700588881969452,"18":-0.061198893934488297,"19":-0.06451666355133057,"20":0.07452404499053955,"21":0.01800079643726349,"22":0.11245425045490265,"23":-0.19756804406642914,"24":-0.044108130037784576,"25":0.18652403354644775,"26":0.10677357017993927,"27":0.17446652054786682,"28":0.16021065413951874,"29":0.057862065732479095,"30":-0.18026745319366455,"31":-0.10059389472007751,"32":0.06912018358707428,"33":0.005807266104966402,"34":-0.1340087354183197,"35":0.09879662841558456,"36":-0.06887733191251755,"37":-0.008474916219711304,"38":-0.023151850327849388,"39":0.04545348882675171,"40":-0.11242252588272095,"41":-0.002760215662419796,"42":-0.18400558829307556,"43":0.04793783277273178,"44":0.07725252956151962,"45":-0.026952901855111122,"46":0.0031011379323899746,"47":0.16778554022312164,"48":-0.18234893679618835,"49":-0.019989201799035072,"50":0.13642559945583344,"51":0.07765574008226395,"52":-0.13242077827453613,"53":0.04080101475119591,"54":0.12052930146455765,"55":0.09720470011234283,"56":0.05691831186413765,"57":0.129507377743721,"58":0.0029320947360247374,"59":0.1661282330751419,"60":0.03654896467924118,"61":-0.19056804478168488,"62":0.07381154596805573,"63":0.04991060495376587,"64":-0.15635164082050323,"65":0.12106604129076004,"66":-0.10609127581119537,"67":0.006513512227684259,"68":0.022898748517036438,"69":0.01706840842962265,"70":-0.07717131078243256,"71":-0.08566093444824219,"72":-0.043894775211811066,"73":-0.012527331709861755,"74":-0.12563559412956238,"75":0.10295713692903519,"76":0.0938185527920723,"77":-0.15207956731319427,"78":0.05048920959234238,"79":0.15449322760105133,"80":0.031247826293110847,"81":0.09268909692764282,"82":0.06595423072576523,"83":-0.15438932180404663,"84":-0.04935244098305702,"85":-0.14934766292572021,"86":0.0818120613694191,"87":-0.013385128229856491,"88":-0.029416976496577263,"89":-0.18733392655849457,"90":-0.14609727263450623,"91":-0.01904616877436638,"92":-0.09269960969686508,"93":0.041036855429410934,"94":0.12861396372318268,"95":-0.07869362086057663,"96":0.00492648733779788,"97":0.03673297539353371,"98":0.1511421650648117,"99":-0.17935745418071747,"100":-0.13993345201015472,"101":0.07088153809309006,"102":-0.19485333561897278,"103":-0.17522461712360382,"104":0.152792289853096,"105":0.15859243273735046,"106":-0.04616134986281395,"107":-0.01702202297747135,"108":-0.02707495354115963,"109":-0.16345369815826416,"110":0.12603405117988586,"111":-0.003380259033292532,"112":0.011010497808456421,"113":0.15597030520439148,"114":-0.018321236595511436,"115":0.03094528429210186,"116":0.10853305459022522,"117":-0.09985572099685669,"118":0.1675111949443817,"119":-0.1485922932624817,"120":0.16327780485153198,"121":-0.05255241319537163,"122":-0.0958341434597969,"123":-0.15822891891002655,"124":0.1395200490951538,"125":-0.022007405757904053,"126":0.07443223148584366,"127":0.17072021961212158,"128":-0.16631823778152466,"129":0.04633985832333565,"130":0.008489679545164108,"131":0.11221957206726074,"132":-0.09987616539001465,"133":0.1433611959218979,"134":0.18901219964027405,"135":0.19449904561042786,"136":0.10674344003200531,"137":0.06153259053826332,"138":0.003772728145122528,"139":0.1468694806098938,"140":0.1960836946964264,"141":0.0504424013197422,"142":-0.16997030377388,"143":-0.017130430787801743,"144":-0.07550656050443649,"145":-0.19930040836334229,"146":0.08137869834899902,"147":-0.0076286462135612965,"148":-0.07110832631587982,"149":0.14146500825881958,"150":-0.025853438302874565,"151":0.11893782019615173,"152":0.1385989785194397,"153":0.10060565173625946,"154":-0.05397616699337959,"155":0.06668242067098618,"156":0.09939630329608917,"157":-0.17986908555030823,"158":0.08596932142972946,"159":0.03251488879323006,"160":0.07621296495199203,"161":-0.01501101441681385,"162":-0.08807647973299026,"163":0.19075345993041992,"164":-0.09302328526973724,"165":-0.02684883587062359,"166":-0.05093313753604889,"167":0.056237220764160156,"168":-0.03779531270265579,"169":-0.1901744306087494,"170":-0.19373133778572083,"171":-0.176194965839386,"172":-0.13451477885246277,"173":0.1699904054403305,"174":0.12040428817272186,"175":-0.049409665167331696,"176":-0.18698377907276154,"177":-0.006123138591647148,"178":0.04028618335723877,"179":-0.012776434421539307,"180":0.039665598422288895,"181":-0.1615394949913025,"182":-0.062296416610479355,"183":-0.07034643739461899,"184":0.10923172533512115,"185":0.1497948169708252,"186":0.1966840624809265,"187":0.12428614497184753,"188":-0.1652541160583496,"189":-0.16437597572803497,"190":-0.13230915367603302,"191":0.12255731970071793,"192":0.0056787109933793545,"193":-0.12158602476119995,"194":-0.06415154039859772,"195":0.0021094155963510275,"196":-0.08693021535873413,"197":0.1772335171699524,"198":-0.05654803290963173,"199":-0.026408901438117027}},"12":{"bias":0.13590912520885468,"weights":{"0":0.010754319839179516,"1":0.10459543764591217,"2":-0.08550889790058136,"3":-0.14570125937461853,"4":-0.028313029557466507,"5":-0.014649912714958191,"6":-0.14659857749938965,"7":-0.15221033990383148,"8":-0.07927535474300385,"9":-0.19833478331565857,"10":-0.01698652096092701,"11":-0.11550015211105347,"12":-0.0774746984243393,"13":-0.10520429909229279,"14":0.17971988022327423,"15":0.0335138663649559,"16":-0.07326377928256989,"17":-0.14210297167301178,"18":0.16085980832576752,"19":0.19105054438114166,"20":-0.12535302340984344,"21":-0.17303921282291412,"22":-0.07041485607624054,"23":-0.17642444372177124,"24":0.11929012835025787,"25":0.002633993746712804,"26":0.15282467007637024,"27":-0.19793367385864258,"28":0.1514023244380951,"29":0.16261516511440277,"30":0.1739991009235382,"31":0.03200347721576691,"32":-0.11008186638355255,"33":-0.17636914551258087,"34":0.06008501350879669,"35":-0.1438048630952835,"36":0.07783380895853043,"37":0.031664106994867325,"38":-0.04672643169760704,"39":-0.05703200772404671,"40":0.12203571945428848,"41":-0.09340887516736984,"42":-0.12359604239463806,"43":-0.10867875069379807,"44":-0.07895209640264511,"45":0.06430859863758087,"46":0.08598100394010544,"47":0.11086931824684143,"48":0.09306824207305908,"49":0.17554500699043274,"50":0.040038131177425385,"51":-0.02678627148270607,"52":0.08182763308286667,"53":-0.12098430097103119,"54":0.10451186448335648,"55":-0.1932903379201889,"56":0.0008743901271373034,"57":0.07186565548181534,"58":0.018579533323645592,"59":0.008010598830878735,"60":0.12218081206083298,"61":0.1480989009141922,"62":-0.15738198161125183,"63":0.15650178492069244,"64":0.033452462404966354,"65":0.026075763627886772,"66":-0.0695851519703865,"67":0.10035279393196106,"68":0.037380971014499664,"69":0.14951127767562866,"70":0.10157086700201035,"71":-0.008140710182487965,"72":-0.05105450376868248,"73":-0.12197815626859665,"74":-0.18795740604400635,"75":-0.19281423091888428,"76":-0.11715612560510635,"77":0.013932691887021065,"78":-0.17469923198223114,"79":0.10273997485637665,"80":0.16501598060131073,"81":-0.15643426775932312,"82":-0.15526415407657623,"83":-0.11652737855911255,"84":0.14427457749843597,"85":-0.012323741801083088,"86":-0.1559886932373047,"87":0.11434497684240341,"88":0.03283461183309555,"89":-0.0987551212310791,"90":0.17449542880058289,"91":-0.16968050599098206,"92":0.09479508548974991,"93":0.08301965892314911,"94":-0.014773036353290081,"95":-0.11062052100896835,"96":-0.0454038642346859,"97":0.0248976182192564,"98":0.01088569313287735,"99":-0.14633171260356903,"100":-0.017854779958724976,"101":0.04492785781621933,"102":0.19378957152366638,"103":-0.11108947545289993,"104":-0.03177415952086449,"105":0.011571938171982765,"106":-0.13726404309272766,"107":-0.07875979691743851,"108":-0.08120885491371155,"109":0.05901229381561279,"110":0.13207073509693146,"111":-0.12117823958396912,"112":0.14197739958763123,"113":0.005910016596317291,"114":-0.10310475528240204,"115":0.1398056596517563,"116":0.14001576602458954,"117":-0.12305106222629547,"118":-0.002495791995897889,"119":0.13428498804569244,"120":-0.15999577939510345,"121":-0.01635381393134594,"122":0.03855587914586067,"123":0.12708605825901031,"124":-0.08522318303585052,"125":-0.07490070909261703,"126":0.10496779531240463,"127":-0.07813767343759537,"128":-0.13266043365001678,"129":-0.17813853919506073,"130":-0.11833257973194122,"131":0.15824992954730988,"132":-0.19627594947814941,"133":0.0013275316450744867,"134":0.0012209879932925105,"135":0.1953119933605194,"136":-0.1857525259256363,"137":0.13498403131961823,"138":0.1889711320400238,"139":-0.13219720125198364,"140":0.10199572890996933,"141":0.06918953359127045,"142":0.059462856501340866,"143":-0.10159645229578018,"144":0.10357684642076492,"145":-0.17220400273799896,"146":0.04694463312625885,"147":-0.09355778992176056,"148":0.0862530767917633,"149":-0.14289656281471252,"150":0.06492949277162552,"151":-0.14221034944057465,"152":-0.14703311026096344,"153":-0.12134302407503128,"154":-0.04297869652509689,"155":-0.12728378176689148,"156":0.08176450431346893,"157":-0.11165410280227661,"158":0.19114261865615845,"159":0.06716085970401764,"160":-0.12510807812213898,"161":0.0721902847290039,"162":-0.12811383605003357,"163":-0.061942506581544876,"164":0.17913834750652313,"165":-0.04514193907380104,"166":-0.07960918545722961,"167":-0.12259848415851593,"168":0.11629372835159302,"169":0.04082266986370087,"170":0.19149689376354218,"171":0.0899137556552887,"172":-0.1972762942314148,"173":0.018025850877165794,"174":-0.13478486239910126,"175":0.12286593019962311,"176":-0.0021952500101178885,"177":0.103191077709198,"178":0.06513754278421402,"179":0.10730136930942535,"180":0.0140988789498806,"181":0.05489762872457504,"182":0.043416108936071396,"183":0.0247129425406456,"184":-0.12309645116329193,"185":-0.025669826194643974,"186":0.032276563346385956,"187":0.14512097835540771,"188":0.01834266074001789,"189":-0.02649662457406521,"190":0.07919203490018845,"191":0.09757157415151596,"192":-0.0358646921813488,"193":-0.009523482993245125,"194":0.0766482725739479,"195":0.15478724241256714,"196":0.17215877771377563,"197":-0.10740113258361816,"198":0.05725094676017761,"199":-0.15842820703983307}},"13":{"bias":-0.14915989339351654,"weights":{"0":0.07637609541416168,"1":-0.09008537977933884,"2":0.09656026214361191,"3":-0.14494700729846954,"4":-0.11355143785476685,"5":0.13992741703987122,"6":-0.13959942758083344,"7":0.17685596644878387,"8":0.07910811901092529,"9":0.06695375591516495,"10":-0.0861334353685379,"11":-0.14648082852363586,"12":0.1840088814496994,"13":-0.1797790229320526,"14":-0.06498626619577408,"15":-0.02987443096935749,"16":0.16747216880321503,"17":-0.12743805348873138,"18":-0.1867600530385971,"19":-0.02385341003537178,"20":0.12599052488803864,"21":-0.09766562283039093,"22":0.1934737116098404,"23":-0.1901846081018448,"24":-0.08153058588504791,"25":-0.12460951507091522,"26":-0.1056995540857315,"27":-0.10033226758241653,"28":-0.020052658393979073,"29":-0.11760269850492477,"30":-0.07596549391746521,"31":0.14198951423168182,"32":-0.06022088602185249,"33":-0.142494335770607,"34":-0.0003835456445813179,"35":0.17061847448349,"36":0.09837669879198074,"37":0.12743593752384186,"38":-0.00457802414894104,"39":0.07657007873058319,"40":-0.13098406791687012,"41":0.11482465267181396,"42":0.17492498457431793,"43":0.14337868988513947,"44":-0.14363975822925568,"45":-0.005824141204357147,"46":0.030811496078968048,"47":0.05820202827453613,"48":0.12182614207267761,"49":-0.0410596989095211,"50":-0.1079680398106575,"51":0.09143351763486862,"52":-0.10908406227827072,"53":-0.16699276864528656,"54":-0.05795959010720253,"55":0.07271049171686172,"56":0.08636162430047989,"57":-0.1230011135339737,"58":0.02969817817211151,"59":0.19907453656196594,"60":-0.05062231048941612,"61":0.03076948970556259,"62":-0.12401927262544632,"63":0.04556456208229065,"64":-0.04355093091726303,"65":0.10365574806928635,"66":0.1764785349369049,"67":0.139215350151062,"68":0.08795749396085739,"69":-0.01898730732500553,"70":-0.11482645571231842,"71":0.10956552624702454,"72":-0.11460015177726746,"73":0.1653347760438919,"74":-0.11787001043558121,"75":-0.11313151568174362,"76":-0.16172315180301666,"77":0.11511801928281784,"78":0.19069857895374298,"79":0.009425632655620575,"80":-0.11323647946119308,"81":0.0016137477941811085,"82":-0.04383562505245209,"83":-0.11542723327875137,"84":0.03224676847457886,"85":-0.02674200013279915,"86":0.009380893781781197,"87":-0.04363775998353958,"88":0.1812296211719513,"89":-0.19560299813747406,"90":-0.04428011551499367,"91":0.11963450163602829,"92":-0.18653886020183563,"93":0.06965040415525436,"94":0.027093349024653435,"95":-0.15351751446723938,"96":-0.04402453452348709,"97":-0.16911761462688446,"98":0.1398477852344513,"99":0.16931980848312378,"100":0.12406707555055618,"101":0.14484767615795135,"102":0.13953199982643127,"103":-0.1771780401468277,"104":-0.12919321656227112,"105":0.02766464836895466,"106":0.07588740438222885,"107":-0.12249904870986938,"108":0.11388122290372849,"109":-0.13049083948135376,"110":-0.14822456240653992,"111":0.008970177732408047,"112":0.010458490811288357,"113":0.19782589375972748,"114":-0.082306407392025,"115":-0.1252983957529068,"116":-0.07982093095779419,"117":0.18517464399337769,"118":0.015315878205001354,"119":-0.04139385372400284,"120":-0.11648832261562347,"121":-0.19600912928581238,"122":0.17001023888587952,"123":0.1522941142320633,"124":-0.17324213683605194,"125":0.06717368960380554,"126":0.07662442326545715,"127":0.11903318017721176,"128":-0.05961669981479645,"129":0.06771572679281235,"130":0.015069777145981789,"131":-0.17567895352840424,"132":-0.19489149749279022,"133":-0.11974561959505081,"134":0.004520092625170946,"135":0.09668918699026108,"136":-0.09241168200969696,"137":-0.11387281864881516,"138":0.06369338184595108,"139":-0.19787906110286713,"140":-0.14402343332767487,"141":0.019665086641907692,"142":-0.06400017440319061,"143":-0.023525793105363846,"144":-0.10994499176740646,"145":0.16722896695137024,"146":0.0013169925659894943,"147":0.1416526585817337,"148":0.06410788744688034,"149":0.12593694031238556,"150":-0.07318133860826492,"151":0.14294640719890594,"152":0.06085796654224396,"153":0.025040457025170326,"154":-0.03676443547010422,"155":-0.18821464478969574,"156":0.1197894886136055,"157":0.17821261286735535,"158":-0.04325244575738907,"159":0.06349838525056839,"160":-0.13682417571544647,"161":0.15609349310398102,"162":-0.05638302490115166,"163":0.1173977181315422,"164":0.09777037054300308,"165":-0.07034626603126526,"166":0.06239413470029831,"167":-0.02866516448557377,"168":-0.0013108846032992005,"169":-0.07427965104579926,"170":-0.03213438764214516,"171":-0.16872093081474304,"172":-0.0682469829916954,"173":0.07240864634513855,"174":-0.08385419845581055,"175":0.13667899370193481,"176":0.1075596883893013,"177":0.1858297884464264,"178":0.10431496053934097,"179":0.053051579743623734,"180":0.18132682144641876,"181":-0.19004863500595093,"182":-0.06911252439022064,"183":0.12333330512046814,"184":-0.01603081449866295,"185":0.06421882659196854,"186":0.18910185992717743,"187":0.13774602115154266,"188":-0.01975994184613228,"189":-0.1282671093940735,"190":0.0010426988592371345,"191":0.03838137164711952,"192":0.17972208559513092,"193":0.037233978509902954,"194":0.14095371961593628,"195":0.17270076274871826,"196":0.14247535169124603,"197":-0.025597605854272842,"198":0.018599046394228935,"199":0.0544242337346077}},"14":{"bias":-0.020624373108148575,"weights":{"0":-0.0048447600565850735,"1":-0.15336573123931885,"2":-0.05104735866189003,"3":-0.1767137050628662,"4":0.16978882253170013,"5":-0.16751323640346527,"6":0.11479423195123672,"7":-0.1094546988606453,"8":-0.13473348319530487,"9":-0.028581539168953896,"10":0.06772557646036148,"11":0.034271009266376495,"12":0.17080354690551758,"13":-0.020004495978355408,"14":0.1445726752281189,"15":0.12320727109909058,"16":-0.08373823016881943,"17":0.09192562848329544,"18":0.004537889268249273,"19":-0.1024298444390297,"20":0.09569163620471954,"21":-0.11406366527080536,"22":-0.19429700076580048,"23":-0.0982624888420105,"24":0.15149769186973572,"25":0.04072744771838188,"26":-0.07777338474988937,"27":-0.09298590570688248,"28":0.18787086009979248,"29":0.08165283501148224,"30":-0.15607348084449768,"31":0.005282444413751364,"32":-0.16429613530635834,"33":0.1435324102640152,"34":-0.09082906693220139,"35":0.09982769936323166,"36":0.0017349376576021314,"37":0.15993642807006836,"38":0.06473727524280548,"39":0.020764635875821114,"40":0.14544782042503357,"41":0.19580064713954926,"42":0.060777079313993454,"43":-0.06541814655065536,"44":0.1829434186220169,"45":0.08358348160982132,"46":0.0349053293466568,"47":-0.033385179936885834,"48":0.10142181813716888,"49":-0.128958061337471,"50":0.05626939609646797,"51":0.13448703289031982,"52":-0.04242090508341789,"53":0.060523003339767456,"54":0.10566786676645279,"55":-0.03859672695398331,"56":0.1422497034072876,"57":0.09298254549503326,"58":-0.09385513514280319,"59":-0.09916092455387115,"60":-0.0806322768330574,"61":-0.06375780701637268,"62":-0.03572595492005348,"63":-0.07615616172552109,"64":-0.1551947146654129,"65":0.12641224265098572,"66":0.190977543592453,"67":0.04553311690688133,"68":0.17015142738819122,"69":0.10826180875301361,"70":0.1628018170595169,"71":0.19602851569652557,"72":-0.027987318113446236,"73":-0.10476300865411758,"74":0.047811590135097504,"75":0.08391928672790527,"76":0.16360914707183838,"77":-0.1204845979809761,"78":-0.1645626574754715,"79":-0.09794675558805466,"80":-0.05827204883098602,"81":0.027676761150360107,"82":-0.11603835225105286,"83":-0.17892572283744812,"84":-0.1844537854194641,"85":-0.13363803923130035,"86":0.16657447814941406,"87":-0.1271720826625824,"88":-0.045041900128126144,"89":-0.02516600675880909,"90":0.08913319557905197,"91":0.13111162185668945,"92":0.13789531588554382,"93":0.08503623306751251,"94":-0.176641047000885,"95":-0.16881446540355682,"96":-0.09141101688146591,"97":-0.12172386050224304,"98":-0.015439484268426895,"99":-0.161873459815979,"100":-0.09157810360193253,"101":-0.10655657202005386,"102":-0.03296930342912674,"103":0.016715912148356438,"104":-0.11877104640007019,"105":-0.17798861861228943,"106":0.11413886398077011,"107":-0.08829957246780396,"108":0.005796981975436211,"109":0.0834445208311081,"110":0.19083812832832336,"111":0.12617714703083038,"112":0.18236856162548065,"113":0.0076479222625494,"114":-0.19601385295391083,"115":-0.049599748104810715,"116":-0.17641092836856842,"117":0.10600094497203827,"118":-0.015741772949695587,"119":-0.16400068998336792,"120":-0.08468535542488098,"121":-0.10364841669797897,"122":0.17256365716457367,"123":-0.055816106498241425,"124":0.022703180089592934,"125":-0.13159510493278503,"126":-0.08616767078638077,"127":-0.15785111486911774,"128":0.16634564101696014,"129":-0.007278940640389919,"130":0.17223982512950897,"131":-0.15026415884494781,"132":0.02104887180030346,"133":-0.13488803803920746,"134":-0.2005200833082199,"135":0.14204934239387512,"136":0.18373365700244904,"137":0.1075487956404686,"138":0.15549390017986298,"139":-0.07883714884519577,"140":0.1630801558494568,"141":0.11840138584375381,"142":0.02460876666009426,"143":0.16913120448589325,"144":-0.18963371217250824,"145":-0.1827562004327774,"146":-0.014174693264067173,"147":-0.16381193697452545,"148":0.08477742224931717,"149":-0.18461675941944122,"150":-0.1788087785243988,"151":0.11253370344638824,"152":0.0488731786608696,"153":-0.19256117939949036,"154":0.0317932553589344,"155":-0.014821411110460758,"156":-0.14636650681495667,"157":0.19389338791370392,"158":-0.02964419312775135,"159":0.061126451939344406,"160":0.07339160144329071,"161":0.09223677217960358,"162":0.10764449089765549,"163":-0.00523537490516901,"164":0.1890033334493637,"165":0.007955292239785194,"166":-0.01961565762758255,"167":0.07739200443029404,"168":0.050054024904966354,"169":-0.047436248511075974,"170":-0.18907049298286438,"171":0.037104953080415726,"172":-0.02889365516602993,"173":-0.17841480672359467,"174":-0.027642713859677315,"175":0.18670497834682465,"176":0.03297694772481918,"177":-0.1948760747909546,"178":-0.0488191694021225,"179":0.04159867763519287,"180":0.04315764829516411,"181":0.18537524342536926,"182":0.09181900322437286,"183":0.13969838619232178,"184":-0.0711686909198761,"185":0.0353209525346756,"186":-0.12882734835147858,"187":0.14506301283836365,"188":0.018071994185447693,"189":0.114821657538414,"190":0.16661915183067322,"191":0.14956946671009064,"192":-0.016445035114884377,"193":0.0071405041962862015,"194":0.11602708697319031,"195":-0.10709187388420105,"196":-0.08884470909833908,"197":-0.09950829297304153,"198":-0.07853253185749054,"199":-0.07062862068414688}},"15":{"bias":-0.116794653236866,"weights":{"0":0.09969468414783478,"1":-0.01115707028657198,"2":0.11582678556442261,"3":0.059729430824518204,"4":-0.1765560507774353,"5":0.16167046129703522,"6":-0.07187198847532272,"7":-0.07756485790014267,"8":-0.173450767993927,"9":-0.020642239600419998,"10":0.19623926281929016,"11":-0.08627372980117798,"12":0.13413189351558685,"13":0.033647920936346054,"14":-0.14311900734901428,"15":-0.17907750606536865,"16":-0.04051410034298897,"17":0.04420213773846626,"18":0.026448698714375496,"19":0.1843540370464325,"20":0.11892435699701309,"21":0.0708848387002945,"22":-0.06248260289430618,"23":0.13973112404346466,"24":-0.15420204401016235,"25":0.17562194168567657,"26":0.013668464496731758,"27":-0.08549396693706512,"28":0.11671147495508194,"29":0.09575996547937393,"30":-0.01210225559771061,"31":-0.11102747917175293,"32":0.03419976681470871,"33":-0.12072663754224777,"34":-0.15436600148677826,"35":-0.051581010222435,"36":0.043461889028549194,"37":-0.1704089492559433,"38":-0.20058488845825195,"39":-0.12491854280233383,"40":0.022035544738173485,"41":0.15474291145801544,"42":0.10367674380540848,"43":0.09010250121355057,"44":-0.19354021549224854,"45":0.07985521107912064,"46":-0.16685433685779572,"47":0.09526042640209198,"48":-0.01187122706323862,"49":0.052157361060380936,"50":0.09888575971126556,"51":-0.118075892329216,"52":-0.007661297917366028,"53":0.18001805245876312,"54":0.044825877994298935,"55":0.1334797441959381,"56":-0.1475355178117752,"57":-0.10649359971284866,"58":0.007583203259855509,"59":-0.0008199958829209208,"60":-0.052785858511924744,"61":0.10323511064052582,"62":0.02198142558336258,"63":0.04257255792617798,"64":-0.1822952926158905,"65":-0.1618453562259674,"66":0.05549510195851326,"67":0.14281459152698517,"68":0.15670864284038544,"69":-0.01761787384748459,"70":0.16207408905029297,"71":-0.062036238610744476,"72":-0.11898065358400345,"73":-0.027443373575806618,"74":-0.02352217771112919,"75":0.04035446047782898,"76":0.06303415447473526,"77":-0.16325536370277405,"78":-0.19783642888069153,"79":-0.20060677826404572,"80":-0.13699375092983246,"81":-0.008992710150778294,"82":0.09829770028591156,"83":0.009092006832361221,"84":0.14894196391105652,"85":0.005700147710740566,"86":-0.17156678438186646,"87":-0.038520168513059616,"88":-0.042089179158210754,"89":-0.0965159684419632,"90":0.04315004125237465,"91":-0.06641867011785507,"92":0.07913720607757568,"93":0.029757797718048096,"94":0.18420901894569397,"95":0.04297327250242233,"96":-0.16349099576473236,"97":0.060476068407297134,"98":-0.14326122403144836,"99":0.08629361540079117,"100":0.12081688642501831,"101":-0.001046561636030674,"102":-0.1389664262533188,"103":-0.11790421605110168,"104":0.11804226040840149,"105":0.07106940448284149,"106":0.16557127237319946,"107":-0.14612245559692383,"108":0.07458316534757614,"109":-0.07514093071222305,"110":0.02494020387530327,"111":0.02129574865102768,"112":-0.08480245620012283,"113":0.13943850994110107,"114":0.04699265584349632,"115":-0.06938830018043518,"116":-0.05524557828903198,"117":0.08102837949991226,"118":0.07335074245929718,"119":0.029774487018585205,"120":-0.03942093998193741,"121":-0.17532877624034882,"122":-0.14569440484046936,"123":-0.0947260707616806,"124":-0.1892261654138565,"125":0.191022127866745,"126":-0.03176433965563774,"127":0.08714229613542557,"128":-0.07568451762199402,"129":-0.19397898018360138,"130":-0.14644765853881836,"131":-0.1347483992576599,"132":0.07999732345342636,"133":-0.19533199071884155,"134":0.16211818158626556,"135":-0.051932696253061295,"136":-0.19863642752170563,"137":-0.1564459502696991,"138":-0.1893751323223114,"139":-0.09373296797275543,"140":-0.00486194621771574,"141":-0.014422389678657055,"142":0.12891067564487457,"143":0.15706609189510345,"144":-0.15520769357681274,"145":-0.18309660255908966,"146":0.18330508470535278,"147":0.042150966823101044,"148":0.008612877689301968,"149":-0.024735810235142708,"150":0.06625568866729736,"151":-0.1907956451177597,"152":-0.20237433910369873,"153":-0.03568693622946739,"154":0.058705996721982956,"155":-0.17946118116378784,"156":-0.016162527725100517,"157":0.0839470624923706,"158":0.18918563425540924,"159":-0.09859457612037659,"160":-0.1119980663061142,"161":-0.19385257363319397,"162":-0.10731017589569092,"163":-0.09384962916374207,"164":-0.03769887983798981,"165":0.18486133217811584,"166":0.1491781771183014,"167":0.17278291285037994,"168":-0.013521477580070496,"169":-0.03901785984635353,"170":0.1822318583726883,"171":-0.027747342362999916,"172":0.10975459963083267,"173":-0.16843320429325104,"174":0.18552714586257935,"175":0.11158988624811172,"176":0.11116842180490494,"177":0.007146497722715139,"178":0.07129313796758652,"179":-0.02611139602959156,"180":0.051676567643880844,"181":-0.13482029736042023,"182":-0.18217429518699646,"183":0.03224257752299309,"184":-0.14407172799110413,"185":-0.006811225786805153,"186":-0.11075356602668762,"187":0.0575699508190155,"188":-0.15417134761810303,"189":0.029788577929139137,"190":0.0717906802892685,"191":0.09553666412830353,"192":0.19434058666229248,"193":0.06306992471218109,"194":0.03515491634607315,"195":-0.07192109525203705,"196":0.05817751958966255,"197":0.11539284884929657,"198":0.1259378343820572,"199":-0.1278412938117981}},"16":{"bias":-0.14271582663059235,"weights":{"0":0.017835086211562157,"1":0.12523089349269867,"2":-0.11875010281801224,"3":0.13449986279010773,"4":0.12170127034187317,"5":0.10544368624687195,"6":0.03879666328430176,"7":-0.042457420378923416,"8":-0.062112659215927124,"9":-0.029603470116853714,"10":-0.10919930785894394,"11":0.05967671051621437,"12":-0.1833432912826538,"13":-0.16770371794700623,"14":0.024493398144841194,"15":-0.1637936383485794,"16":0.07912811636924744,"17":-0.18796290457248688,"18":-0.1416148841381073,"19":0.044651150703430176,"20":0.13412319123744965,"21":0.19094747304916382,"22":0.14605002105236053,"23":0.033782027661800385,"24":-0.024127060547471046,"25":-0.09737610071897507,"26":0.17326520383358002,"27":-0.062393587082624435,"28":0.13386280834674835,"29":0.0009878617711365223,"30":-0.14059850573539734,"31":-0.08530547469854355,"32":0.17776189744472504,"33":0.03085366263985634,"34":0.014825930818915367,"35":0.11376821994781494,"36":-0.11721110343933105,"37":0.10643861442804337,"38":0.09306696802377701,"39":0.17974241077899933,"40":0.11007758975028992,"41":0.037240978330373764,"42":0.007237146608531475,"43":0.09866373986005783,"44":-0.1810959279537201,"45":0.010520556941628456,"46":0.08302893489599228,"47":-0.03420783206820488,"48":0.16963353753089905,"49":-0.02056167833507061,"50":-0.19508874416351318,"51":0.19586195051670074,"52":-0.010920966975390911,"53":-0.09878447651863098,"54":0.06406691670417786,"55":0.028454739600419998,"56":-0.043942876160144806,"57":-0.06327690929174423,"58":0.11014484614133835,"59":0.1762545257806778,"60":-0.07224492728710175,"61":0.12404785305261612,"62":-0.10988270491361618,"63":0.06954014301300049,"64":-0.07561296224594116,"65":-0.025979818776249886,"66":0.0316915400326252,"67":0.07589741051197052,"68":-0.06876422464847565,"69":0.08827998489141464,"70":-0.08225912600755692,"71":0.013691021129488945,"72":0.16175006330013275,"73":-0.18358543515205383,"74":-0.1275157779455185,"75":0.026470856741070747,"76":0.199818417429924,"77":0.017247289419174194,"78":-0.06326811760663986,"79":-0.12308181077241898,"80":-0.07366156578063965,"81":0.002830985700711608,"82":0.10566003620624542,"83":0.07049652934074402,"84":0.1783733069896698,"85":0.07478981465101242,"86":-0.010468398220837116,"87":0.00021157659648451954,"88":0.14825525879859924,"89":0.07297832518815994,"90":0.02584071084856987,"91":-0.15294364094734192,"92":-0.1604338437318802,"93":-0.19476042687892914,"94":-0.06663693487644196,"95":-0.08353330194950104,"96":0.06189454346895218,"97":-0.1695602387189865,"98":0.13702909648418427,"99":-0.07220073789358139,"100":0.04727600887417793,"101":0.1511446088552475,"102":0.13289624452590942,"103":-0.1143496111035347,"104":0.06664196401834488,"105":-0.07340560853481293,"106":0.1416797637939453,"107":0.1701255589723587,"108":0.09325186163187027,"109":-0.0007261774153448641,"110":-0.06221049651503563,"111":0.17799893021583557,"112":0.08791454881429672,"113":-0.12376172840595245,"114":-0.04869009554386139,"115":0.1836683452129364,"116":-0.09559836983680725,"117":-0.06522036343812943,"118":0.1546616107225418,"119":0.18915002048015594,"120":0.14810742437839508,"121":0.09620162099599838,"122":0.07844795286655426,"123":0.06844528019428253,"124":-0.08149397373199463,"125":-0.060178499668836594,"126":0.06989075243473053,"127":0.13836833834648132,"128":-0.15915223956108093,"129":0.0037639960646629333,"130":0.056814637035131454,"131":0.05446948856115341,"132":0.03175355866551399,"133":0.17189259827136993,"134":0.013167953118681908,"135":-0.09052915126085281,"136":0.05313541740179062,"137":0.10610157996416092,"138":-0.17200276255607605,"139":0.0906328484416008,"140":-0.07144193351268768,"141":0.11758920550346375,"142":0.08498898148536682,"143":0.15945078432559967,"144":0.12146379053592682,"145":-0.04009043052792549,"146":-0.10505298525094986,"147":0.10789091885089874,"148":0.12129024416208267,"149":0.13355578482151031,"150":-0.17829354107379913,"151":0.11099177598953247,"152":-0.01016191765666008,"153":-0.16386671364307404,"154":0.17970609664916992,"155":0.005628084298223257,"156":-0.0077864727936685085,"157":-0.12151896208524704,"158":0.04679371044039726,"159":0.1065385639667511,"160":0.11757905781269073,"161":0.06208755448460579,"162":0.12247540056705475,"163":-0.13478586077690125,"164":0.15911388397216797,"165":-0.0201632808893919,"166":0.16030268371105194,"167":-0.06881669163703918,"168":-0.003391430713236332,"169":-0.12507882714271545,"170":0.04010968282818794,"171":-0.12255393713712692,"172":0.15443873405456543,"173":-0.16332343220710754,"174":0.17067362368106842,"175":-0.10466159135103226,"176":-0.18091726303100586,"177":-0.17155581712722778,"178":0.010893873870372772,"179":0.0045759850181639194,"180":-0.0025847030337899923,"181":0.14349187910556793,"182":0.1537611037492752,"183":-0.08979813754558563,"184":0.02785327099263668,"185":-0.09975381940603256,"186":0.16580094397068024,"187":0.20044709742069244,"188":0.14738257229328156,"189":0.08008795976638794,"190":-0.06102978065609932,"191":-0.042498327791690826,"192":0.19719305634498596,"193":-0.14910347759723663,"194":-0.12183456867933273,"195":0.06664614379405975,"196":-0.009532933123409748,"197":-0.004918922204524279,"198":0.10398551821708679,"199":-0.09224914014339447}},"17":{"bias":-0.13004140555858612,"weights":{"0":0.10446497797966003,"1":-0.11986783891916275,"2":-0.11228706687688828,"3":0.029261624440550804,"4":-0.18951797485351562,"5":-0.15640488266944885,"6":0.1330031454563141,"7":-0.03599562868475914,"8":0.0010979847284033895,"9":-0.06983928382396698,"10":-0.03228962793946266,"11":0.050605449825525284,"12":-0.042276836931705475,"13":0.15030191838741302,"14":0.05555292218923569,"15":-0.08894073218107224,"16":0.06765080988407135,"17":-0.18275921046733856,"18":0.11724605411291122,"19":-0.030909918248653412,"20":-0.1620880365371704,"21":0.09873192757368088,"22":-0.0018416987732052803,"23":0.0269627682864666,"24":-0.12816958129405975,"25":0.11539672315120697,"26":0.08869283646345139,"27":-0.05210057646036148,"28":-0.07090852409601212,"29":-0.12134873867034912,"30":-0.0391390435397625,"31":-0.16904425621032715,"32":-0.14650703966617584,"33":-0.17231886088848114,"34":-0.02209535613656044,"35":-0.06461518257856369,"36":0.16256952285766602,"37":0.000843179237563163,"38":0.05544694513082504,"39":-0.01511685736477375,"40":-0.14886631071567535,"41":0.018335234373807907,"42":-0.005086550023406744,"43":-0.15860088169574738,"44":-0.169647216796875,"45":-0.19380635023117065,"46":0.05054092034697533,"47":0.05647049844264984,"48":0.017676008865237236,"49":-0.14161883294582367,"50":0.0974891185760498,"51":-0.16927607357501984,"52":-0.10617594420909882,"53":0.12307935208082199,"54":0.04240985959768295,"55":-0.11989166587591171,"56":0.15243686735630035,"57":0.11006592959165573,"58":0.09295060485601425,"59":0.07496102154254913,"60":0.06598658859729767,"61":0.19522200524806976,"62":0.11298397928476334,"63":-0.10521064698696136,"64":-0.12169886380434036,"65":0.09474429488182068,"66":-0.047048717737197876,"67":-0.155127614736557,"68":-0.1924634873867035,"69":-0.14653955399990082,"70":0.021421650424599648,"71":0.0765385702252388,"72":-0.04294237866997719,"73":-0.056312233209609985,"74":0.20295748114585876,"75":-0.17845141887664795,"76":-0.058694493025541306,"77":0.0996299684047699,"78":0.10009147971868515,"79":-0.18438100814819336,"80":0.06779429316520691,"81":0.10376370698213577,"82":0.1353394240140915,"83":0.005952813662588596,"84":0.15512244403362274,"85":-0.054096806794404984,"86":0.04427618533372879,"87":-0.027780743315815926,"88":-0.14545266330242157,"89":0.13640053570270538,"90":0.12738779187202454,"91":0.08790287375450134,"92":0.1411609947681427,"93":-0.18529464304447174,"94":0.031479086726903915,"95":0.09961383789777756,"96":0.18274104595184326,"97":0.06706298887729645,"98":0.17447733879089355,"99":-0.05482696369290352,"100":0.10028938949108124,"101":0.16862772405147552,"102":0.0416574627161026,"103":0.12009087204933167,"104":0.012783012352883816,"105":0.13572575151920319,"106":0.055567722767591476,"107":0.1304417997598648,"108":-0.10165124386548996,"109":-0.15726588666439056,"110":0.11554288119077682,"111":0.19908107817173004,"112":-0.1481342315673828,"113":-0.18614763021469116,"114":0.10923382639884949,"115":0.0057193441316485405,"116":0.1778295934200287,"117":0.04955803602933884,"118":-0.0691087618470192,"119":0.09379711002111435,"120":0.0005528309848159552,"121":0.11850471049547195,"122":0.03479086980223656,"123":-0.11089146137237549,"124":0.19591842591762543,"125":0.027518339455127716,"126":0.003768920199945569,"127":0.2000541388988495,"128":0.10040639340877533,"129":-0.06680615991353989,"130":-0.11542998254299164,"131":-0.038345810025930405,"132":-0.03095163218677044,"133":0.07914914190769196,"134":0.037025827914476395,"135":0.03108655847609043,"136":0.05065871402621269,"137":0.023436149582266808,"138":0.020771855488419533,"139":-0.12288781255483627,"140":0.0624343641102314,"141":-0.1882864385843277,"142":0.12394725531339645,"143":0.17222875356674194,"144":-0.09204652905464172,"145":0.04783756658434868,"146":-0.15835203230381012,"147":0.06818526983261108,"148":-0.10276951640844345,"149":-0.05385645478963852,"150":-0.09607027471065521,"151":0.047487035393714905,"152":0.11110073328018188,"153":0.05549062043428421,"154":-0.08688046783208847,"155":0.09381789714097977,"156":0.15831463038921356,"157":-0.033863723278045654,"158":0.20398640632629395,"159":0.03710334375500679,"160":-0.1700994074344635,"161":-0.1953323632478714,"162":-0.1475880742073059,"163":-0.008381035178899765,"164":-0.015328695997595787,"165":-0.10004230588674545,"166":0.16265767812728882,"167":-0.06505982577800751,"168":0.07758626341819763,"169":0.0208156555891037,"170":-0.17747291922569275,"171":-0.10733243823051453,"172":0.0644093006849289,"173":-0.1363123655319214,"174":-0.1445223093032837,"175":0.2012922316789627,"176":-0.053777795284986496,"177":0.17627182602882385,"178":0.18627235293388367,"179":0.14775726199150085,"180":-0.18558193743228912,"181":0.05938901752233505,"182":-0.16483920812606812,"183":0.13461923599243164,"184":0.19821056723594666,"185":0.1076454371213913,"186":-0.024187492206692696,"187":0.05519487336277962,"188":-0.16878968477249146,"189":-0.0015150083927437663,"190":0.10674479603767395,"191":0.09329410642385483,"192":0.20474815368652344,"193":0.18917445838451385,"194":0.0023496602661907673,"195":-0.14507931470870972,"196":0.08494014292955399,"197":-0.0610329806804657,"198":-0.14758265018463135,"199":0.0010073812445625663}},"18":{"bias":0.1410444974899292,"weights":{"0":-0.14448319375514984,"1":-0.014951731078326702,"2":0.16998060047626495,"3":0.1578553169965744,"4":0.1006864532828331,"5":0.19921715557575226,"6":-0.004541856702417135,"7":-0.13494139909744263,"8":-0.09730149805545807,"9":-0.01998894475400448,"10":-0.18601840734481812,"11":0.16557946801185608,"12":0.1843557357788086,"13":-0.034677255898714066,"14":-0.035688310861587524,"15":-0.17126022279262543,"16":-0.11298508942127228,"17":-0.17880398035049438,"18":0.03172029182314873,"19":0.18300655484199524,"20":0.05454473942518234,"21":-0.01547183096408844,"22":0.010802285745739937,"23":0.19267749786376953,"24":0.07807441800832748,"25":0.11524470150470734,"26":-0.19370760023593903,"27":0.15201736986637115,"28":0.04640796780586243,"29":-0.10216415673494339,"30":-0.0030359248630702496,"31":0.1085394024848938,"32":0.11330260336399078,"33":0.06294254958629608,"34":-0.12118685245513916,"35":0.08858053386211395,"36":0.20158535242080688,"37":0.1984364092350006,"38":-0.04083772376179695,"39":-0.01369958184659481,"40":-0.14045672118663788,"41":0.2014656364917755,"42":0.11868835240602493,"43":0.15071189403533936,"44":-0.054812852293252945,"45":-0.11970557272434235,"46":0.08863788098096848,"47":-0.1595686376094818,"48":-0.11592847853899002,"49":-0.09817162901163101,"50":0.07163538783788681,"51":-0.07871859520673752,"52":0.12035573273897171,"53":0.18949691951274872,"54":0.18639276921749115,"55":-0.09781861305236816,"56":-0.06358306854963303,"57":-0.1034490317106247,"58":-0.04295501485466957,"59":0.08003535866737366,"60":0.018450981006026268,"61":0.09329735487699509,"62":0.09874250739812851,"63":-0.1497233510017395,"64":0.1190512478351593,"65":0.036607518792152405,"66":-0.02376008778810501,"67":0.09351160377264023,"68":0.1727537214756012,"69":-0.05741157382726669,"70":0.16214580833911896,"71":0.12955692410469055,"72":-0.14250445365905762,"73":0.11076866090297699,"74":0.1623803973197937,"75":0.158725306391716,"76":0.05483995005488396,"77":-0.17193546891212463,"78":0.018741825595498085,"79":-0.09621953219175339,"80":0.1677711457014084,"81":-0.12712429463863373,"82":-0.11645253747701645,"83":-0.08242486417293549,"84":0.0005635236739180982,"85":0.05504847690463066,"86":-0.10289478302001953,"87":-0.15735171735286713,"88":0.08631464838981628,"89":0.03381379321217537,"90":0.1455046534538269,"91":-0.014182190410792828,"92":-0.13587813079357147,"93":-0.04708839952945709,"94":-0.09187058359384537,"95":0.04850630462169647,"96":0.08427128940820694,"97":0.17435050010681152,"98":0.053131360560655594,"99":-0.0191490575671196,"100":-0.05058309808373451,"101":-0.15204867720603943,"102":-0.10650531947612762,"103":-0.10870139300823212,"104":0.039833955466747284,"105":-0.14325065910816193,"106":-0.02058817818760872,"107":-0.04514290764927864,"108":0.20220309495925903,"109":-0.03051377274096012,"110":0.07222143560647964,"111":-0.1911619007587433,"112":0.08079211413860321,"113":0.07998254895210266,"114":0.0790567621588707,"115":0.12454590946435928,"116":0.16341334581375122,"117":0.013459398411214352,"118":0.19202139973640442,"119":-0.1640356332063675,"120":0.11050623655319214,"121":-0.05157167464494705,"122":-0.14525626599788666,"123":0.11909777671098709,"124":0.17899391055107117,"125":-0.09023299813270569,"126":-0.03760126233100891,"127":0.12436673790216446,"128":0.1668141633272171,"129":0.0840168297290802,"130":0.056483134627342224,"131":0.07846823334693909,"132":0.06972188502550125,"133":-0.16940616071224213,"134":0.00254232925362885,"135":0.14732375741004944,"136":-0.1421283334493637,"137":0.05234239622950554,"138":-0.12859907746315002,"139":-0.14911985397338867,"140":-0.19310298562049866,"141":0.08544677495956421,"142":-0.1122630164027214,"143":0.1257898211479187,"144":-0.19270643591880798,"145":-0.07974474877119064,"146":0.044653598219156265,"147":-0.142271488904953,"148":0.10115319490432739,"149":0.12644679844379425,"150":-0.18729612231254578,"151":-0.15075941383838654,"152":0.07889144122600555,"153":0.0873970240354538,