{"sizes":[50,100,10,2],"layers":[{"0":{},"1":{},"2":{},"3":{},"4":{},"5":{},"6":{},"7":{},"8":{},"9":{},"10":{},"11":{},"12":{},"13":{},"14":{},"15":{},"16":{},"17":{},"18":{},"19":{},"20":{},"21":{},"22":{},"23":{},"24":{},"25":{},"26":{},"27":{},"28":{},"29":{},"30":{},"31":{},"32":{},"33":{},"34":{},"35":{},"36":{},"37":{},"38":{},"39":{},"40":{},"41":{},"42":{},"43":{},"44":{},"45":{},"46":{},"47":{},"48":{},"49":{}},{"0":{"bias":-0.13962207734584808,"weights":{"0":-0.10542432218790054,"1":-0.21928662061691284,"2":0.1462799310684204,"3":-0.036754269152879715,"4":-0.2108229398727417,"5":-0.09273290634155273,"6":-0.015708602964878082,"7":0.05177553370594978,"8":0.0931200236082077,"9":-0.0633568987250328,"10":0.02573515847325325,"11":-0.07888571918010712,"12":0.0874764621257782,"13":-0.05412010848522186,"14":0.11378559470176697,"15":-0.12087536603212357,"16":0.17800727486610413,"17":-0.2145608812570572,"18":0.13443872332572937,"19":0.1222478523850441,"20":-0.05813059210777283,"21":0.026127846911549568,"22":-0.08774656802415848,"23":-0.1759559065103531,"24":0.082832470536232,"25":0.1219090148806572,"26":-0.015451180748641491,"27":-0.1453464776277542,"28":-0.00993451289832592,"29":-0.069487564265728,"30":-0.11673704534769058,"31":-0.05318451300263405,"32":0.05168765038251877,"33":0.14882850646972656,"34":0.02610122598707676,"35":-0.012956826016306877,"36":0.06744565069675446,"37":-0.018251031637191772,"38":0.1084134578704834,"39":-0.07034849375486374,"40":-0.09706585854291916,"41":-0.14330005645751953,"42":0.18436473608016968,"43":0.08623874187469482,"44":0.19831545650959015,"45":-0.10892444849014282,"46":-0.08081581443548203,"47":-0.10471659153699875,"48":0.21918286383152008,"49":0.30521002411842346}},"1":{"bias":-0.1806623935699463,"weights":{"0":0.045197416096925735,"1":-0.21127068996429443,"2":0.00018669023120310158,"3":-0.16188552975654602,"4":-0.21875450015068054,"5":-0.14490611851215363,"6":-0.04225916415452957,"7":0.10678300261497498,"8":0.15373697876930237,"9":0.05872703343629837,"10":-0.1505071520805359,"11":-0.22323039174079895,"12":-0.006889714393764734,"13":0.06088082492351532,"14":0.06174053996801376,"15":-0.19597753882408142,"16":-0.0616956390440464,"17":-0.11530126631259918,"18":0.06380222737789154,"19":-0.17400148510932922,"20":-0.05906086415052414,"21":0.1402718722820282,"22":0.0983806774020195,"23":0.17198306322097778,"24":0.06886124610900879,"25":0.1732964962720871,"26":0.08223479241132736,"27":-0.03366994485259056,"28":-0.1509682536125183,"29":0.012874148786067963,"30":-0.028979985043406487,"31":-0.14424121379852295,"32":0.13230082392692566,"33":-0.169660747051239,"34":-0.0547751784324646,"35":0.18113160133361816,"36":0.02692478522658348,"37":-0.027949843555688858,"38":0.20554816722869873,"39":0.005966096185147762,"40":0.14570805430412292,"41":-0.22173672914505005,"42":-0.042685892432928085,"43":0.04129725694656372,"44":-0.007646226789802313,"45":-0.06572869420051575,"46":0.1892058402299881,"47":0.11340764164924622,"48":0.06201636418700218,"49":-0.07479285448789597}},"2":{"bias":-0.08784910291433334,"weights":{"0":-0.07275517284870148,"1":-0.2011290341615677,"2":-0.10889033228158951,"3":-0.06440453231334686,"4":-0.15689198672771454,"5":-0.16076672077178955,"6":-0.09252148866653442,"7":-0.08574903756380081,"8":-0.1656692624092102,"9":-0.26321178674697876,"10":0.08830907195806503,"11":0.1375971883535385,"12":0.03022119216620922,"13":-0.18609867990016937,"14":0.0939529612660408,"15":-0.03418777510523796,"16":-0.1935981661081314,"17":0.057210322469472885,"18":-0.08146896958351135,"19":0.08580940216779709,"20":-0.14338712394237518,"21":-0.06326128542423248,"22":0.037584174424409866,"23":0.036234527826309204,"24":0.19296099245548248,"25":0.22346901893615723,"26":-0.13487640023231506,"27":0.1932188868522644,"28":-0.020737122744321823,"29":-0.10055288672447205,"30":-0.04014451056718826,"31":0.03373170271515846,"32":0.029055822640657425,"33":-0.13834643363952637,"34":-0.03618529811501503,"35":0.023326752707362175,"36":-0.09434861689805984,"37":0.22724296152591705,"38":0.3523090183734894,"39":0.21313272416591644,"40":0.08073614537715912,"41":-0.13683317601680756,"42":-0.22334736585617065,"43":-0.07201004773378372,"44":-0.053619276732206345,"45":-0.15183678269386292,"46":0.06777249276638031,"47":0.21481329202651978,"48":0.006907360628247261,"49":-0.0340215340256691}},"3":{"bias":-0.2136702537536621,"weights":{"0":-0.19929136335849762,"1":-0.12588900327682495,"2":-0.10199758410453796,"3":0.025895364582538605,"4":0.00772979948669672,"5":-0.24975813925266266,"6":-0.05608921870589256,"7":-0.23509855568408966,"8":0.07885011285543442,"9":-0.01662963628768921,"10":0.10250730067491531,"11":-0.13950100541114807,"12":0.10124444216489792,"13":-0.2233923226594925,"14":0.032109446823596954,"15":-0.08301263302564621,"16":-0.1943933218717575,"17":0.040509000420570374,"18":-0.09084717929363251,"19":-0.11200332641601562,"20":-0.1651449054479599,"21":0.014992275275290012,"22":0.12299168854951859,"23":0.15792419016361237,"24":0.022666320204734802,"25":0.002530808560550213,"26":0.04568096995353699,"27":0.11688148230314255,"28":0.19771398603916168,"29":0.0505199208855629,"30":-0.09130899608135223,"31":-0.13074716925621033,"32":0.1413443237543106,"33":-0.11511892825365067,"34":0.13799208402633667,"35":0.03383246064186096,"36":-0.12534195184707642,"37":0.16532805562019348,"38":0.1806790679693222,"39":-0.007610783446580172,"40":-0.13498538732528687,"41":-0.08271324634552002,"42":-0.1359136551618576,"43":-0.044871777296066284,"44":0.24986504018306732,"45":0.0482039637863636,"46":0.03578351438045502,"47":0.23792575299739838,"48":0.09241707623004913,"49":0.10829365253448486}},"4":{"bias":-0.3174491822719574,"weights":{"0":0.13151367008686066,"1":-0.1703454554080963,"2":-0.3115590214729309,"3":-0.24223794043064117,"4":-0.03607046976685524,"5":-0.14165161550045013,"6":-0.008890165016055107,"7":-0.23490740358829498,"8":-0.09164952486753464,"9":-0.025116441771388054,"10":-0.05115645006299019,"11":-0.03261786326766014,"12":-0.05702110007405281,"13":-0.08354127407073975,"14":-0.14291688799858093,"15":-0.1857551485300064,"16":-0.2622612714767456,"17":0.00819527916610241,"18":0.04308830946683884,"19":0.04335908591747284,"20":-0.11440587788820267,"21":0.007641711737960577,"22":-0.052698299288749695,"23":-0.14944948256015778,"24":0.0670403316617012,"25":-0.15652267634868622,"26":-0.04132062569260597,"27":-0.16788731515407562,"28":0.19967307150363922,"29":0.2582879662513733,"30":0.2445550113916397,"31":-0.1298983097076416,"32":-0.11783314496278763,"33":-0.027705367654561996,"34":-0.12708160281181335,"35":0.0912395790219307,"36":-0.1992904096841812,"37":-0.183161199092865,"38":-0.25013476610183716,"39":-0.02785526029765606,"40":0.03133784234523773,"41":0.26013413071632385,"42":0.21306830644607544,"43":0.15881706774234772,"44":0.17756547033786774,"45":0.15740211308002472,"46":0.4671824872493744,"47":0.10838595777750015,"48":0.237397700548172,"49":0.25260916352272034}},"5":{"bias":-0.27375906705856323,"weights":{"0":-0.10203514993190765,"1":0.021385667845606804,"2":-0.25364965200424194,"3":0.10124574601650238,"4":0.13243040442466736,"5":-0.08238858729600906,"6":-0.12247135490179062,"7":-0.1921573430299759,"8":-0.099587082862854,"9":0.10068514943122864,"10":0.1698087900876999,"11":-0.062373366206884384,"12":0.047199200838804245,"13":-0.12653692066669464,"14":-0.15538974106311798,"15":-0.1255037486553192,"16":-0.2124100923538208,"17":-0.22308708727359772,"18":-0.002344192937016487,"19":0.07139720767736435,"20":0.11958907544612885,"21":-0.09498613327741623,"22":-0.18446588516235352,"23":-0.0496983677148819,"24":-0.019845962524414062,"25":-0.1662052571773529,"26":-0.11517347395420074,"27":0.030674608424305916,"28":0.04586976394057274,"29":0.017725462093949318,"30":-0.1230936124920845,"31":-0.15471577644348145,"32":0.034371379762887955,"33":0.06734786927700043,"34":-0.1368921846151352,"35":-0.06701228767633438,"36":-0.14290016889572144,"37":-0.036627549678087234,"38":0.08327190577983856,"39":-0.1813967078924179,"40":-0.027079038321971893,"41":-0.01794522814452648,"42":0.038615960627794266,"43":-0.05317951738834381,"44":0.09449320286512375,"45":0.3200222849845886,"46":0.2982759177684784,"47":0.322692334651947,"48":-0.0012446031905710697,"49":0.20014847815036774}},"6":{"bias":-0.1438555121421814,"weights":{"0":-0.13527484238147736,"1":0.05821441859006882,"2":0.044040899723768234,"3":-0.1279526650905609,"4":0.0072055091150105,"5":0.11413665115833282,"6":-0.24717888236045837,"7":0.1294170469045639,"8":0.06628020107746124,"9":0.08034832030534744,"10":0.15948335826396942,"11":-0.011992105282843113,"12":-0.05366477370262146,"13":0.1517263948917389,"14":-0.09152833372354507,"15":-0.09242118149995804,"16":-0.16295263171195984,"17":0.03325660154223442,"18":-0.12572139501571655,"19":0.07638578861951828,"20":-0.09571019560098648,"21":-0.019251544028520584,"22":-0.08207731693983078,"23":-0.143228679895401,"24":0.06545935571193695,"25":0.16280849277973175,"26":-0.001050072256475687,"27":-0.1938641369342804,"28":0.17937734723091125,"29":0.17349815368652344,"30":0.031010806560516357,"31":0.0859660729765892,"32":-0.01190437562763691,"33":-0.039489392191171646,"34":0.04381826892495155,"35":0.1635407656431198,"36":-0.06395258754491806,"37":-0.1609283685684204,"38":-0.08833357691764832,"39":-0.014964459463953972,"40":0.1196102425456047,"41":-0.08146431297063828,"42":0.14593751728534698,"43":0.11191732436418533,"44":-0.12211556732654572,"45":-0.0650048479437828,"46":0.20726242661476135,"47":0.031122567132115364,"48":0.029428541660308838,"49":0.2079426795244217}},"7":{"bias":-0.28477999567985535,"weights":{"0":-0.05017638951539993,"1":-0.08026234060525894,"2":0.12167802453041077,"3":-0.2082853615283966,"4":-0.19710350036621094,"5":0.035405829548835754,"6":-0.1215536817908287,"7":-0.0552242249250412,"8":0.15900291502475739,"9":0.0015917441342025995,"10":0.1635369211435318,"11":0.14740663766860962,"12":0.03447655960917473,"13":-0.1377558708190918,"14":0.111881323158741,"15":-0.06276403367519379,"16":0.1019010841846466,"17":-0.038329608738422394,"18":-0.03773895651102066,"19":-0.025487160310149193,"20":-0.14016608893871307,"21":-0.22518876194953918,"22":-0.21951286494731903,"23":-0.08891282975673676,"24":0.06506490707397461,"25":0.138624370098114,"26":0.09636231511831284,"27":-0.12199850380420685,"28":-0.1379009187221527,"29":0.05323627591133118,"30":0.1366158127784729,"31":0.14338339865207672,"32":-0.1231718584895134,"33":-0.08661562949419022,"34":-0.05695598945021629,"35":0.06296145915985107,"36":-0.06647789478302002,"37":-0.07925471663475037,"38":0.039435192942619324,"39":0.009295168332755566,"40":-0.14792467653751373,"41":-0.011059406213462353,"42":-0.1557215452194214,"43":-0.1690567284822464,"44":0.15943507850170135,"45":-0.025511354207992554,"46":0.11002814769744873,"47":-0.10321307182312012,"48":0.044222068041563034,"49":-0.10433647781610489}},"8":{"bias":-0.11537869274616241,"weights":{"0":-0.20996026694774628,"1":-0.010235266759991646,"2":0.16758203506469727,"3":-0.028682420030236244,"4":0.011360738426446915,"5":-0.1553267240524292,"6":0.041490357369184494,"7":-0.22049009799957275,"8":-0.12071443349123001,"9":-0.04673478752374649,"10":0.13428035378456116,"11":-0.0428151935338974,"12":-0.020766161382198334,"13":0.14117543399333954,"14":-0.06755499541759491,"15":-0.14049726724624634,"16":-0.04635332524776459,"17":-0.08457964658737183,"18":-0.07901271432638168,"19":0.1462736278772354,"20":-0.18485087156295776,"21":-0.19377295672893524,"22":-0.20712830126285553,"23":0.1184927448630333,"24":-0.0038272119127213955,"25":0.058013152331113815,"26":-0.09362777322530746,"27":-0.009270650334656239,"28":-0.05985506623983383,"29":-0.14928987622261047,"30":-0.11336950212717056,"31":0.11389189213514328,"32":-0.11668408662080765,"33":-0.10469476133584976,"34":-0.1442612111568451,"35":0.019716262817382812,"36":0.14891697466373444,"37":0.17616043984889984,"38":-0.012329227291047573,"39":0.25676804780960083,"40":-0.056000422686338425,"41":0.11430682241916656,"42":0.11571381241083145,"43":0.14704543352127075,"44":-0.06550896912813187,"45":-0.13063423335552216,"46":-0.09276822954416275,"47":-0.14226198196411133,"48":0.21936087310314178,"49":0.13173821568489075}},"9":{"bias":-0.06611820310354233,"weights":{"0":-0.20348507165908813,"1":0.10220048576593399,"2":-0.08343034237623215,"3":0.0007217396632768214,"4":-0.16924546658992767,"5":-0.010520301759243011,"6":-0.15269748866558075,"7":-0.09931672364473343,"8":0.049078185111284256,"9":-0.07830964773893356,"10":-0.13242225348949432,"11":0.17691615223884583,"12":-0.0441407673060894,"13":-0.012090635485947132,"14":-0.06033683940768242,"15":-0.028845712542533875,"16":0.008316789753735065,"17":-0.04719989374279976,"18":0.034452177584171295,"19":-0.1295642852783203,"20":-0.1328359693288803,"21":0.022458836436271667,"22":-0.08870594203472137,"23":-0.06726774573326111,"24":-0.07062534242868423,"25":-0.0825587809085846,"26":0.048582177609205246,"27":-0.04518431797623634,"28":0.2416943907737732,"29":0.24469691514968872,"30":-0.025269465520977974,"31":0.05124902352690697,"32":0.2091572880744934,"33":0.1665651500225067,"34":0.19172410666942596,"35":0.0950864925980568,"36":-0.041882000863552094,"37":-0.1483568251132965,"38":-0.02866247110068798,"39":0.14318397641181946,"40":-0.1987335979938507,"41":-0.011197738349437714,"42":0.022776128724217415,"43":0.15775716304779053,"44":0.1952405422925949,"45":0.07386811822652817,"46":0.161018967628479,"47":0.1355525106191635,"48":0.00006831673090346158,"49":0.04710124060511589}},"10":{"bias":-0.33870404958724976,"weights":{"0":0.011248743161559105,"1":0.05856715142726898,"2":0.09020346403121948,"3":-0.08597267419099808,"4":0.09446027129888535,"5":-0.17139370739459991,"6":-0.2332918494939804,"7":-0.10266026109457016,"8":-0.005355709698051214,"9":-0.05168190971016884,"10":0.06341427564620972,"11":0.14136473834514618,"12":0.03269818052649498,"13":0.1095275804400444,"14":0.03628458455204964,"15":0.12145533412694931,"16":-0.05958577245473862,"17":0.05767350271344185,"18":0.09815633296966553,"19":-0.053084928542375565,"20":0.02668038383126259,"21":0.04185550659894943,"22":-0.12391724437475204,"23":0.004733789246529341,"24":-0.03217526152729988,"25":0.08757104724645615,"26":0.22369606792926788,"27":0.08515628427267075,"28":0.026646597310900688,"29":-0.03638964146375656,"30":-0.08326698839664459,"31":0.09122131019830704,"32":0.0926026925444603,"33":0.19917605817317963,"34":0.09691093862056732,"35":0.20808260142803192,"36":0.12840597331523895,"37":0.29623308777809143,"38":0.3256013095378876,"39":-0.05389004573225975,"40":-0.14937080442905426,"41":0.15377500653266907,"42":0.1291564404964447,"43":-0.06775613129138947,"44":-0.0994640588760376,"45":0.04708244279026985,"46":0.167989119887352,"47":0.19169355928897858,"48":0.06761457026004791,"49":0.13774316012859344}},"11":{"bias":-0.0972493588924408,"weights":{"0":0.03691220283508301,"1":-0.07418357580900192,"2":-0.17040018737316132,"3":-0.3473556339740753,"4":-0.14867103099822998,"5":-0.3242185711860657,"6":-0.33306536078453064,"7":-0.1128770112991333,"8":-0.09224331378936768,"9":-0.1866094470024109,"10":0.0010067373514175415,"11":-0.16406501829624176,"12":-0.03978734090924263,"13":-0.15658549964427948,"14":-0.15743981301784515,"15":-0.23188671469688416,"16":-0.04260775446891785,"17":-0.13120578229427338,"18":-0.24893836677074432,"19":-0.0044617801904678345,"20":-0.0842214897274971,"21":-0.01239851862192154,"22":-0.08357537537813187,"23":-0.08057141304016113,"24":-0.2567099332809448,"25":-0.3550757169723511,"26":-0.017834849655628204,"27":-0.1381170153617859,"28":-0.025818442925810814,"29":0.20331528782844543,"30":0.31694772839546204,"31":-0.03104034624993801,"32":-0.012897194363176823,"33":0.03484133258461952,"34":0.172071635723114,"35":0.2410741150379181,"36":-0.08743993937969208,"37":-0.27120310068130493,"38":-0.13629376888275146,"39":-0.09551525115966797,"40":0.004424726124852896,"41":0.2868201732635498,"42":0.2595313489437103,"43":0.17423191666603088,"44":0.3131072521209717,"45":0.4004146158695221,"46":0.25144344568252563,"47":0.24532482028007507,"48":0.1771446168422699,"49":0.29919639229774475}},"12":{"bias":-0.1101875826716423,"weights":{"0":-0.10143984854221344,"1":-0.11684665828943253,"2":-0.04109928384423256,"3":-0.19677911698818207,"4":-0.020457353442907333,"5":-0.056340914219617844,"6":0.026781190186738968,"7":-0.010509692132472992,"8":0.011652108281850815,"9":0.11709460616111755,"10":-0.2264985889196396,"11":-0.05559089779853821,"12":0.045059509575366974,"13":-0.05498424172401428,"14":0.1127091646194458,"15":0.09518542140722275,"16":0.14042355120182037,"17":-0.0916391909122467,"18":-0.20757098495960236,"19":0.1259365826845169,"20":-0.08080334216356277,"21":0.1302262246608734,"22":-0.17840436100959778,"23":0.0437396764755249,"24":-0.08234274387359619,"25":0.10776124149560928,"26":-0.1415170282125473,"27":-0.08186252415180206,"28":0.11024320125579834,"29":-0.22080561518669128,"30":0.052421290427446365,"31":-0.011232933960855007,"32":0.03068435750901699,"33":0.010297844186425209,"34":-0.07064186781644821,"35":-0.17737925052642822,"36":0.0015773216728121042,"37":0.2397615611553192,"38":0.2765467166900635,"39":-0.04125957190990448,"40":-0.06237386539578438,"41":-0.029599729925394058,"42":0.08279676735401154,"43":0.0687388926744461,"44":-0.12012887001037598,"45":-0.004006269387900829,"46":-0.11089229583740234,"47":0.05786501616239548,"48":0.08751049637794495,"49":0.2646648585796356}},"13":{"bias":-0.27558577060699463,"weights":{"0":-0.09049726277589798,"1":-0.08633861690759659,"2":-0.0717468112707138,"3":-0.02686041034758091,"4":-0.23478803038597107,"5":-0.0978098139166832,"6":-0.030172931030392647,"7":-0.36757609248161316,"8":0.024908116087317467,"9":-0.1023210659623146,"10":-0.1347302347421646,"11":0.21491669118404388,"12":0.140586718916893,"13":-0.05433622747659683,"14":-0.14308400452136993,"15":0.003890799358487129,"16":-0.2968512773513794,"17":-0.011113536544144154,"18":-0.07015826553106308,"19":-0.14821931719779968,"20":-0.13427852094173431,"21":0.07100766897201538,"22":0.18293528258800507,"23":0.22662758827209473,"24":-0.037917960435152054,"25":-0.09439248591661453,"26":-0.20193009078502655,"27":-0.20124803483486176,"28":0.35322847962379456,"29":0.45560935139656067,"30":0.1696273535490036,"31":0.00465779285877943,"32":-0.13794097304344177,"33":-0.044877249747514725,"34":-0.011844449676573277,"35":-0.12998518347740173,"36":-0.2724912762641907,"37":-0.16331064701080322,"38":-0.21202220022678375,"39":-0.13283854722976685,"40":-0.08194324374198914,"41":0.0066549819894135,"42":0.2284717708826065,"43":0.0753348246216774,"44":0.24307353794574738,"45":0.3144758939743042,"46":0.4368191659450531,"47":0.5214123725891113,"48":0.46236157417297363,"49":0.17134079337120056}},"14":{"bias":-0.14617390930652618,"weights":{"0":0.08374256640672684,"1":-0.28095686435699463,"2":-0.14626222848892212,"3":-0.10238727927207947,"4":-0.2932718098163605,"5":-0.2191624492406845,"6":-0.02650201879441738,"7":-0.14689213037490845,"8":0.03733266517519951,"9":-0.0007038639159873128,"10":0.1258545070886612,"11":-0.10229956358671188,"12":-0.08262337744235992,"13":-0.01568010449409485,"14":-0.1298074871301651,"15":0.00990671943873167,"16":-0.021676963195204735,"17":-0.21128085255622864,"18":-0.2540307939052582,"19":0.10371813178062439,"20":0.13937827944755554,"21":-0.17413729429244995,"22":-0.11531997472047806,"23":0.05560363829135895,"24":-0.016421856358647346,"25":0.028132857754826546,"26":-0.3322838246822357,"27":-0.21064195036888123,"28":0.2972075045108795,"29":0.39879143238067627,"30":0.339368999004364,"31":-0.060581009835004807,"32":-0.13401763141155243,"33":0.18665987253189087,"34":0.23636779189109802,"35":0.019383423030376434,"36":-0.19275754690170288,"37":-0.0411660261452198,"38":-0.21726694703102112,"39":-0.35193222761154175,"40":-0.00987793318927288,"41":0.25539207458496094,"42":-0.02813779190182686,"43":0.030891118571162224,"44":0.2085486501455307,"45":0.23170652985572815,"46":0.35241514444351196,"47":0.25856253504753113,"48":0.3568646311759949,"49":0.17542946338653564}},"15":{"bias":-0.14206364750862122,"weights":{"0":0.005063208751380444,"1":-0.01461821235716343,"2":0.029281320050358772,"3":-0.07751956582069397,"4":-0.26558026671409607,"5":-0.11087344586849213,"6":-0.11572926491498947,"7":-0.21094927191734314,"8":-0.014727415516972542,"9":-0.06605260819196701,"10":-0.11278369277715683,"11":-0.03973602131009102,"12":-0.01315218210220337,"13":0.024048665538430214,"14":-0.04679266735911369,"15":-0.03777322173118591,"16":-0.009092637337744236,"17":-0.048280272632837296,"18":0.13966213166713715,"19":-0.00008389311551582068,"20":-0.027781687676906586,"21":0.04190831258893013,"22":0.1888565868139267,"23":0.002051897346973419,"24":-0.10152009129524231,"25":-0.19964203238487244,"26":0.012018213979899883,"27":0.18313351273536682,"28":-0.15521393716335297,"29":-0.03036612831056118,"30":0.04884589463472366,"31":-0.038053713738918304,"32":0.17518767714500427,"33":-0.10536093264818192,"34":0.1542443484067917,"35":-0.07187183201313019,"36":-0.11551214009523392,"37":0.03701307997107506,"38":0.11853602528572083,"39":0.23924840986728668,"40":0.0013513144804164767,"41":-0.15010645985603333,"42":0.02760952152311802,"43":-0.11905830353498459,"44":0.20106226205825806,"45":0.03073766641318798,"46":-0.09595241397619247,"47":0.23646456003189087,"48":0.21435511112213135,"49":0.005268021486699581}},"16":{"bias":-0.20618893206119537,"weights":{"0":0.07650057226419449,"1":-0.11328636854887009,"2":-0.036513544619083405,"3":0.014018585905432701,"4":0.0081807104870677,"5":-0.177512526512146,"6":-0.058777011930942535,"7":0.1635419875383377,"8":-0.04886702075600624,"9":0.061589304357767105,"10":-0.16760356724262238,"11":0.1260666698217392,"12":-0.06833566725254059,"13":-0.061253152787685394,"14":0.12877795100212097,"15":-0.08917681872844696,"16":-0.14806868135929108,"17":0.029237568378448486,"18":0.1170223131775856,"19":0.14042332768440247,"20":-0.11433784663677216,"21":0.02485848031938076,"22":0.083891361951828,"23":-0.12600605189800262,"24":-0.013439852744340897,"25":0.23771409690380096,"26":0.07098500430583954,"27":0.08496427536010742,"28":-0.13024382293224335,"29":0.025846095755696297,"30":0.06173646077513695,"31":0.09158975630998611,"32":0.1390601098537445,"33":-0.15260644257068634,"34":-0.15013131499290466,"35":-0.11120986193418503,"36":-0.056331150233745575,"37":0.4317992627620697,"38":0.0943305715918541,"39":0.3074027895927429,"40":0.0669105052947998,"41":-0.005269893445074558,"42":-0.06827398389577866,"43":-0.13424114882946014,"44":-0.11815929412841797,"45":-0.19727031886577606,"46":-0.07499475032091141,"47":-0.11335111409425735,"48":0.07943729311227798,"49":0.17575041949748993}},"17":{"bias":-0.11986171454191208,"weights":{"0":0.04880688712000847,"1":-0.23232795298099518,"2":0.0472656711935997,"3":0.04575303569436073,"4":-0.20690013468265533,"5":-0.06904996931552887,"6":0.06004573032259941,"7":-0.201625257730484,"8":-0.22459983825683594,"9":-0.020150629803538322,"10":0.14651979506015778,"11":0.10488911718130112,"12":-0.22387349605560303,"13":-0.01947573758661747,"14":0.16339723765850067,"15":-0.19371066987514496,"16":0.04800429567694664,"17":-0.05419274419546127,"18":-0.13417655229568481,"19":-0.1959448903799057,"20":0.030573472380638123,"21":-0.04787283390760422,"22":-0.07950524985790253,"23":0.1276649534702301,"24":0.029816759750247,"25":0.08623648434877396,"26":0.15392610430717468,"27":0.17677085101604462,"28":0.16843512654304504,"29":0.12480398267507553,"30":0.0646752268075943,"31":0.16761544346809387,"32":0.09835229814052582,"33":-0.0513327457010746,"34":0.1377137452363968,"35":-0.11509960889816284,"36":-0.0027633688878268003,"37":0.23333755135536194,"38":-0.012945083901286125,"39":0.14688192307949066,"40":0.19148559868335724,"41":0.1977796107530594,"42":0.1829732358455658,"43":0.08000992983579636,"44":-0.02080713026225567,"45":-0.011744401417672634,"46":0.11417996138334274,"47":0.09762601554393768,"48":0.12603949010372162,"49":0.022975169122219086}},"18":{"bias":-0.23683586716651917,"weights":{"0":-0.03563208132982254,"1":-0.09151817113161087,"2":-0.23928764462471008,"3":0.09860183298587799,"4":-0.06641265004873276,"5":-0.0820503905415535,"6":-0.14850088953971863,"7":0.09921207278966904,"8":0.05080418288707733,"9":0.05183487385511398,"10":-0.07069607079029083,"11":0.1606607586145401,"12":0.16602012515068054,"13":0.06569595634937286,"14":0.023707259446382523,"15":-0.16142426431179047,"16":-0.16491447389125824,"17":-0.12725508213043213,"18":-0.19020581245422363,"19":-0.1504260152578354,"20":0.11084417253732681,"21":0.18109674751758575,"22":0.04545843228697777,"23":0.1576671600341797,"24":-0.13526305556297302,"25":-0.037987466901540756,"26":-0.2442583292722702,"27":-0.20987141132354736,"28":0.20988719165325165,"29":0.27572867274284363,"30":0.22644582390785217,"31":-0.05204944312572479,"32":-0.06494470685720444,"33":-0.02881864458322525,"34":0.08719584345817566,"35":0.12125153839588165,"36":0.03403814509510994,"37":-0.2032119482755661,"38":-0.023250076919794083,"39":-0.1855190545320511,"40":0.11363097280263901,"41":0.008677598088979721,"42":-0.06714732199907303,"43":0.13094529509544373,"44":0.06632468104362488,"45":0.14492915570735931,"46":0.10301639884710312,"47":-0.002041666302829981,"48":0.006274414714425802,"49":-0.04666120931506157}},"19":{"bias":-0.016450433060526848,"weights":{"0":0.03900473192334175,"1":-0.1494431048631668,"2":0.05090424045920372,"3":0.01147995050996542,"4":-0.13588355481624603,"5":0.13755673170089722,"6":-0.12704728543758392,"7":-0.07802821695804596,"8":-0.09214739501476288,"9":0.11152547597885132,"10":0.1478642374277115,"11":-0.028347192332148552,"12":0.1504533588886261,"13":-0.04044891148805618,"14":-0.03287871927022934,"15":0.18528057634830475,"16":0.10260679572820663,"17":0.09403570741415024,"18":-0.024777844548225403,"19":-0.07648035883903503,"20":-0.10851360112428665,"21":-0.12553630769252777,"22":0.12044226378202438,"23":-0.08485151082277298,"24":0.12813414633274078,"25":-0.02915961481630802,"26":-0.11275198310613632,"27":0.004316924139857292,"28":-0.1426212340593338,"29":0.03078552521765232,"30":0.0416426919400692,"31":0.210719034075737,"32":-0.16254295408725739,"33":0.029179759323596954,"34":-0.20832572877407074,"35":-0.08935430645942688,"36":-0.05890420079231262,"37":0.011197973974049091,"38":0.10385018587112427,"39":0.0665426030755043,"40":0.13784059882164001,"41":-0.14278165996074677,"42":-0.12658464908599854,"43":-0.17534174025058746,"44":-0.05214827135205269,"45":0.23612184822559357,"46":-0.07134924829006195,"47":0.2151721566915512,"48":-0.07356420159339905,"49":0.018804902210831642}},"20":{"bias":-0.08617577701807022,"weights":{"0":0.037470102310180664,"1":-0.27710312604904175,"2":-0.2794296145439148,"3":-0.003399824956431985,"4":-0.02173694036900997,"5":-0.332711398601532,"6":0.0016125738620758057,"7":-0.14084361493587494,"8":-0.26463183760643005,"9":0.04326266050338745,"10":0.06279822438955307,"11":0.025219686329364777,"12":0.12094665318727493,"13":-0.011841772124171257,"14":-0.000056660337577341124,"15":-0.17952010035514832,"16":-0.15707609057426453,"17":-0.21966253221035004,"18":-0.2283513844013214,"19":-0.008973607793450356,"20":-0.04336019977927208,"21":-0.02148330770432949,"22":0.17454102635383606,"23":-0.0789458304643631,"24":-0.11415260285139084,"25":-0.17423221468925476,"26":-0.24403584003448486,"27":-0.08340682089328766,"28":0.3875280022621155,"29":0.2707824409008026,"30":0.10691481083631516,"31":0.04229486733675003,"32":-0.16158635914325714,"33":0.10672350227832794,"34":0.1969287395477295,"35":-0.05425986275076866,"36":0.08247987926006317,"37":-0.45724067091941833,"38":-0.4112405478954315,"39":-0.25035881996154785,"40":-0.12167971581220627,"41":0.24847276508808136,"42":0.18864542245864868,"43":0.33033639192581177,"44":0.1524174064397812,"45":0.32624131441116333,"46":0.18209801614284515,"47":0.4065319001674652,"48":0.0686752200126648,"49":0.35339829325675964}},"21":{"bias":-0.07906457781791687,"weights":{"0":-0.0222551841288805,"1":-0.07122376561164856,"2":0.19817392528057098,"3":-0.08577167242765427,"4":-0.11475563049316406,"5":0.026686403900384903,"6":-0.0789903849363327,"7":-0.17177079617977142,"8":-0.21466226875782013,"9":-0.07198816537857056,"10":0.07404401153326035,"11":0.0645519495010376,"12":-0.11228189617395401,"13":-0.044446419924497604,"14":0.05781162530183792,"15":0.02294965647161007,"16":0.037208955734968185,"17":0.039554111659526825,"18":0.025200607255101204,"19":0.051142510026693344,"20":0.07803735882043839,"21":-0.14649270474910736,"22":-0.19006547331809998,"23":0.029355762526392937,"24":0.2016707956790924,"25":0.1345733255147934,"26":-0.04433561488986015,"27":0.22142630815505981,"28":0.005952260922640562,"29":-0.04019469767808914,"30":-0.1359746754169464,"31":-0.16672725975513458,"32":0.07545828074216843,"33":-0.21039707958698273,"34":-0.17195402085781097,"35":0.03600367531180382,"36":0.3005344271659851,"37":0.4225018322467804,"38":0.5354058146476746,"39":0.1863691359758377,"40":-0.10845981538295746,"41":0.01513272151350975,"42":-0.148855522274971,"43":-0.10820215940475464,"44":-0.05566823482513428,"45":0.09768866002559662,"46":-0.17811961472034454,"47":-0.2001180499792099,"48":-0.030238809064030647,"49":-0.0767875462770462}},"22":{"bias":-0.18685291707515717,"weights":{"0":-0.03186009079217911,"1":-0.01565275527536869,"2":-0.09759790450334549,"3":-0.2134343683719635,"4":0.04996021091938019,"5":-0.2735447585582733,"6":-0.2438879758119583,"7":-0.28388530015945435,"8":-0.19940726459026337,"9":-0.10365623235702515,"10":-0.18303778767585754,"11":-0.17797857522964478,"12":0.019538311287760735,"13":-0.019430775195360184,"14":-0.12583211064338684,"15":-0.1545397788286209,"16":-0.26654887199401855,"17":-0.11392930150032043,"18":-0.041789840906858444,"19":-0.11626778542995453,"20":-0.1331460326910019,"21":0.12979987263679504,"22":-0.16554436087608337,"23":-0.13338038325309753,"24":-0.14812612533569336,"25":-0.15347859263420105,"26":-0.223355233669281,"27":-0.15693533420562744,"28":0.20518416166305542,"29":0.2643998861312866,"30":0.14142315089702606,"31":-0.1570790857076645,"32":-0.12767808139324188,"33":-0.022985493764281273,"34":-0.1505940705537796,"35":0.13081952929496765,"36":0.06737104803323746,"37":-0.0743117406964302,"38":-0.20179139077663422,"39":0.03507967293262482,"40":0.06424392014741898,"41":0.18851540982723236,"42":-0.04490227624773979,"43":-0.04152475669980049,"44":0.24571983516216278,"45":0.08629373461008072,"46":0.02944459393620491,"47":0.15270796418190002,"48":0.006114168558269739,"49":-0.035439807921648026}},"23":{"bias":-0.28293535113334656,"weights":{"0":-0.19669115543365479,"1":0.08596023172140121,"2":0.024187389761209488,"3":0.11943723261356354,"4":-0.0028736430685967207,"5":-0.01877138577401638,"6":-0.14729757606983185,"7":0.07561563700437546,"8":-0.162344291806221,"9":0.0017771577695384622,"10":-0.072311632335186,"11":-0.06731365621089935,"12":0.007035697344690561,"13":-0.13401754200458527,"14":-0.19532322883605957,"15":-0.12442579865455627,"16":0.09541158378124237,"17":-0.2374250590801239,"18":0.03030695579946041,"19":-0.047040022909641266,"20":-0.0570887066423893,"21":0.1120227724313736,"22":-0.11519482731819153,"23":0.10552338510751724,"24":0.08798686414957047,"25":0.10567999631166458,"26":-0.058646753430366516,"27":0.04161326587200165,"28":-0.05286669731140137,"29":-0.14069846272468567,"30":-0.06971308588981628,"31":0.11109756678342819,"32":-0.15537214279174805,"33":-0.09103787690401077,"34":0.010313867591321468,"35":0.031002841889858246,"36":-0.15927283465862274,"37":-0.10312528163194656,"38":-0.1057734563946724,"39":0.005930796265602112,"40":-0.08645704388618469,"41":0.027207111939787865,"42":0.10707858949899673,"43":0.02323884144425392,"44":0.10715688765048981,"45":0.08281329274177551,"46":-0.026509851217269897,"47":0.2405320554971695,"48":-0.024994507431983948,"49":0.24999357759952545}},"24":{"bias":-0.343576580286026,"weights":{"0":-0.10328420251607895,"1":-0.07342949509620667,"2":0.06645341962575912,"3":0.0018339242087677121,"4":0.12386251240968704,"5":-0.23839673399925232,"6":0.0321858674287796,"7":0.02793843112885952,"8":0.07788997888565063,"9":0.1110600084066391,"10":-0.16218410432338715,"11":0.15863414108753204,"12":0.024355953559279442,"13":-0.17857879400253296,"14":0.08518503606319427,"15":-0.08722012490034103,"16":-0.2182711809873581,"17":-0.05413505434989929,"18":-0.10313089191913605,"19":-0.03430582210421562,"20":-0.1719532310962677,"21":-0.14037276804447174,"22":-0.01845858432352543,"23":0.200904980301857,"24":-0.03425641730427742,"25":-0.10691052675247192,"26":-0.2341993749141693,"27":0.06488936394453049,"28":0.19537082314491272,"29":-0.03426062688231468,"30":-0.07047680020332336,"31":0.20528069138526917,"32":0.09616989642381668,"33":-0.015338428318500519,"34":-0.011230272240936756,"35":0.043461285531520844,"36":-0.196388840675354,"37":-0.14227068424224854,"38":0.12208015471696854,"39":0.0013124756515026093,"40":-0.12975358963012695,"41":-0.003569253021851182,"42":-0.13929928839206696,"43":0.1313554346561432,"44":0.15306346118450165,"45":0.2827429175376892,"46":0.34200718998908997,"47":0.2980528473854065,"48":0.04331177845597267,"49":-0.015988502651453018}},"25":{"bias":-0.03957684710621834,"weights":{"0":0.10025381296873093,"1":0.06804577261209488,"2":0.14059655368328094,"3":-0.14438176155090332,"4":-0.19014598429203033,"5":0.18194690346717834,"6":0.09418346732854843,"7":0.09370589256286621,"8":0.04054735600948334,"9":-0.08131702244281769,"10":-0.13946764171123505,"11":-0.044456176459789276,"12":-0.04023558273911476,"13":-0.08707743883132935,"14":0.035947397351264954,"15":-0.05348183587193489,"16":0.06044979766011238,"17":0.1696244776248932,"18":-0.17900444567203522,"19":0.13542132079601288,"20":-0.10894649475812912,"21":-0.13147510588169098,"22":-0.22919420897960663,"23":-0.05086984112858772,"24":-0.08761294931173325,"25":0.2512025833129883,"26":0.1822115033864975,"27":0.13151414692401886,"28":-0.3554026484489441,"29":-0.2705627381801605,"30":-0.2170696258544922,"31":0.05682248994708061,"32":0.18626700341701508,"33":0.011177127249538898,"34":0.057020045816898346,"35":-0.09260088950395584,"36":0.19940033555030823,"37":0.6776443123817444,"38":0.5522798895835876,"39":0.5335166454315186,"40":-0.09747550636529922,"41":-0.1688283383846283,"42":-0.18006597459316254,"43":-0.11378127336502075,"44":-0.3237737715244293,"45":-0.3665675222873688,"46":-0.3443836569786072,"47":-0.25297972559928894,"48":-0.04316582903265953,"49":-0.09163719415664673}},"26":{"bias":-0.07380463182926178,"weights":{"0":-0.23560720682144165,"1":-0.2791130542755127,"2":-0.026014016941189766,"3":-0.07585505396127701,"4":-0.2515929341316223,"5":-0.05218026414513588,"6":-0.31957805156707764,"7":-0.21533013880252838,"8":0.010803300887346268,"9":-0.22625650465488434,"10":0.14273472130298615,"11":-0.03885837271809578,"12":-0.005231985356658697,"13":0.17417946457862854,"14":-0.20362736284732819,"15":-0.24952039122581482,"16":-0.26466313004493713,"17":-0.014779983088374138,"18":-0.05390302836894989,"19":0.08173982053995132,"20":-0.06953484565019608,"21":-0.15081043541431427,"22":0.11816998571157455,"23":-0.15993356704711914,"24":-0.20733223855495453,"25":0.007133798208087683,"26":0.05704192444682121,"27":0.01799144595861435,"28":0.016385087743401527,"29":0.031935594975948334,"30":-0.03504576161503792,"31":0.17422576248645782,"32":0.0792769342660904,"33":-0.038945168256759644,"34":0.15152396261692047,"35":0.16638386249542236,"36":0.16981835663318634,"37":-0.15890246629714966,"38":-0.16481275856494904,"39":0.10217912495136261,"40":0.0477227047085762,"41":0.09844590723514557,"42":0.14969325065612793,"43":0.2658527195453644,"44":0.30199089646339417,"45":0.03157540783286095,"46":0.4256875216960907,"47":0.05151204764842987,"48":0.057348817586898804,"49":0.023851029574871063}},"27":{"bias":-0.3707622289657593,"weights":{"0":0.12600083649158478,"1":-0.0810927301645279,"2":-0.09675966948270798,"3":-0.1739945113658905,"4":-0.005127035081386566,"5":0.09804494678974152,"6":-0.2974802553653717,"7":-0.19655418395996094,"8":-0.014242110773921013,"9":-0.10707827657461166,"10":0.09626173228025436,"11":0.08662108331918716,"12":-0.02498077042400837,"13":-0.07859446853399277,"14":-0.10581327974796295,"15":0.14095060527324677,"16":-0.07293768972158432,"17":0.05194972828030586,"18":-0.16068129241466522,"19":-0.16332648694515228,"20":0.14014703035354614,"21":-0.0496177151799202,"22":0.11878857761621475,"23":-0.06808783859014511,"24":0.11334390938282013,"25":-0.12179375439882278,"26":0.08970005065202713,"27":-0.21342913806438446,"28":0.18268439173698425,"29":0.2070527821779251,"30":-0.09981630742549896,"31":0.10602348297834396,"32":0.035500362515449524,"33":0.11987043172121048,"34":0.1444343626499176,"35":-0.16780324280261993,"36":-0.10431672632694244,"37":-0.11443793028593063,"38":-0.31003671884536743,"39":-0.14585599303245544,"40":-0.1426364779472351,"41":-0.1025116890668869,"42":-0.017095815390348434,"43":0.24687741696834564,"44":-0.007198200095444918,"45":0.08556047081947327,"46":0.022952474653720856,"47":0.2945169508457184,"48":0.34812498092651367,"49":0.2153041958808899}},"28":{"bias":-0.12138164043426514,"weights":{"0":-0.2260318398475647,"1":-0.05818130820989609,"2":0.03171088919043541,"3":-0.0031870328821241856,"4":-0.17052745819091797,"5":-0.04178011789917946,"6":-0.03021704964339733,"7":-0.05172593519091606,"8":-0.18871688842773438,"9":-0.09751128405332565,"10":-0.16001176834106445,"11":-0.12090332806110382,"12":-0.13208161294460297,"13":-0.10153432935476303,"14":-0.1266709268093109,"15":0.06078871712088585,"16":-0.039937932044267654,"17":-0.008982731960713863,"18":-0.21614529192447662,"19":0.1426907181739807,"20":0.034591156989336014,"21":-0.19073566794395447,"22":0.0954645574092865,"23":-0.14576494693756104,"24":0.1452028602361679,"25":-0.023214474320411682,"26":-0.24444910883903503,"27":-0.09620948135852814,"28":0.024445483461022377,"29":0.2905857264995575,"30":-0.09251753985881805,"31":0.023497560992836952,"32":0.14141294360160828,"33":-0.03229483217000961,"34":-0.020805664360523224,"35":0.03145328909158707,"36":-0.09377407282590866,"37":-0.09207770228385925,"38":-0.0859491378068924,"39":0.013435142114758492,"40":0.07437339425086975,"41":-0.15717813372612,"42":-0.09487280249595642,"43":0.245742529630661,"44":0.13489583134651184,"45":0.2014358937740326,"46":0.3057745695114136,"47":0.1911778301000595,"48":0.30698269605636597,"49":-0.0071627297438681126}},"29":{"bias":0.036950647830963135,"weights":{"0":-0.3112591803073883,"1":-0.1568267047405243,"2":-0.3466014862060547,"3":-0.23763680458068848,"4":-0.2503466010093689,"5":-0.37345537543296814,"6":-0.24177086353302002,"7":-0.2727242410182953,"8":-0.20504793524742126,"9":-0.009829646907746792,"10":-0.1602216213941574,"11":0.0627700462937355,"12":-0.04463062435388565,"13":-0.17714834213256836,"14":0.11336800456047058,"15":-0.20695734024047852,"16":-0.1585143506526947,"17":-0.0741240605711937,"18":-0.25827765464782715,"19":-0.0826190635561943,"20":0.030563246458768845,"21":-0.1899651736021042,"22":0.23923176527023315,"23":0.11308164149522781,"24":0.01135663315653801,"25":-0.031050410121679306,"26":-0.11774762719869614,"27":0.07877462357282639,"28":0.22190842032432556,"29":0.2612001299858093,"30":0.3897428810596466,"31":0.09678337723016739,"32":0.0317806676030159,"33":-0.01952628791332245,"34":-0.020618649199604988,"35":0.018852779641747475,"36":0.03585433587431908,"37":-0.25276854634284973,"38":-0.490979939699173,"39":-0.2198280692100525,"40":0.1272684782743454,"41":0.23755094408988953,"42":0.23587791621685028,"43":0.23388512432575226,"44":0.14581093192100525,"45":0.5364905595779419,"46":0.38788041472435,"47":0.46561652421951294,"48":0.3129003643989563,"49":0.30854520201683044}},"30":{"bias":-0.252581387758255,"weights":{"0":-0.23771712183952332,"1":-0.3173017203807831,"2":0.013168210163712502,"3":-0.15141884982585907,"4":-0.2666122317314148,"5":-0.11436466127634048,"6":-0.36028188467025757,"7":-0.21855366230010986,"8":-0.20714858174324036,"9":-0.21027423441410065,"10":0.06057506054639816,"11":0.19666904211044312,"12":-0.01050244364887476,"13":0.027012541890144348,"14":-0.17056193947792053,"15":-0.2219054102897644,"16":0.014779235236346722,"17":-0.06366671621799469,"18":0.06916778534650803,"19":-0.0005847418215125799,"20":-0.03300971910357475,"21":-0.11949124932289124,"22":0.027341213077306747,"23":0.09322132915258408,"24":-0.05558103322982788,"25":-0.08517810702323914,"26":-0.35135719180107117,"27":0.0472697950899601,"28":0.17538882791996002,"29":0.045192696154117584,"30":0.02853740006685257,"31":0.2175990492105484,"32":-0.0684727355837822,"33":0.0757635235786438,"34":-0.08866485208272934,"35":-0.02626887895166874,"36":0.005367454141378403,"37":-0.19200736284255981,"38":-0.4644489884376526,"39":-0.17903731763362885,"40":0.050073400139808655,"41":-0.011964420787990093,"42":0.2971864640712738,"43":0.1501971036195755,"44":0.06580717861652374,"45":0.396837443113327,"46":0.3028126657009125,"47":0.36773356795310974,"48":0.20457929372787476,"49":0.12916238605976105}},"31":{"bias":-0.1524398773908615,"weights":{"0":-0.1854383647441864,"1":-0.06129654496908188,"2":-0.14537052810192108,"3":0.06896209716796875,"4":-0.04870422184467316,"5":-0.051333390176296234,"6":-0.13409823179244995,"7":-0.14734970033168793,"8":-0.2528195083141327,"9":-0.16713349521160126,"10":0.16858646273612976,"11":0.15668343007564545,"12":0.12497630715370178,"13":0.1599998027086258,"14":0.15963463485240936,"15":-0.2344028651714325,"16":-0.13721436262130737,"17":0.048966456204652786,"18":-0.11377841234207153,"19":-0.03254351764917374,"20":-0.06636319309473038,"21":0.19383494555950165,"22":0.16403262317180634,"23":-0.021092960610985756,"24":0.010486113838851452,"25":-0.25450167059898376,"26":-0.013426469638943672,"27":-0.012747161090373993,"28":0.14821448922157288,"29":0.15110450983047485,"30":0.3179936707019806,"31":0.06012240797281265,"32":-0.06520012766122818,"33":0.12476855516433716,"34":0.2325340211391449,"35":0.09102574735879898,"36":0.07162488251924515,"37":-0.17192555963993073,"38":-0.05353282392024994,"39":-0.3116670250892639,"40":-0.024645676836371422,"41":0.08071006089448929,"42":-0.039113301783800125,"43":0.3013698160648346,"44":0.3544872999191284,"45":0.05571461468935013,"46":0.30251359939575195,"47":0.3984825611114502,"48":0.02628634311258793,"49":-0.0012598574394360185}},"32":{"bias":-0.1231745034456253,"weights":{"0":0.040934570133686066,"1":-0.08477204293012619,"2":0.09795980155467987,"3":-0.0017375221941620111,"4":-0.17370326817035675,"5":0.07004140317440033,"6":-0.21675854921340942,"7":-0.04321131110191345,"8":0.04727606475353241,"9":0.09713627398014069,"10":-0.07508637011051178,"11":-0.007113740313798189,"12":-0.1991918981075287,"13":-0.18389520049095154,"14":-0.19565735757350922,"15":0.07320539653301239,"16":0.04353921115398407,"17":-0.15609005093574524,"18":0.07444607466459274,"19":0.1349090337753296,"20":-0.07641489058732986,"21":-0.15224497020244598,"22":0.1790493279695511,"23":-0.13693857192993164,"24":0.16170890629291534,"25":0.07734143733978271,"26":0.009103495627641678,"27":0.0853622630238533,"28":0.017724663019180298,"29":-0.027818795293569565,"30":0.06327622383832932,"31":0.15770097076892853,"32":0.18879173696041107,"33":-0.008765988051891327,"34":0.1846451610326767,"35":0.21568597853183746,"36":-0.1099781021475792,"37":0.2401331514120102,"38":0.08989877253770828,"39":-0.1218910664319992,"40":0.0074579776264727116,"41":0.12444937974214554,"42":-0.05489952862262726,"43":-0.11663791537284851,"44":-0.012532699853181839,"45":-0.08741592615842819,"46":0.23733669519424438,"47":0.1310279816389084,"48":-0.007103205192834139,"49":0.017065953463315964}},"33":{"bias":-0.12090015411376953,"weights":{"0":-0.04454008862376213,"1":-0.045921601355075836,"2":0.0009600309422239661,"3":0.12598170340061188,"4":0.015400467440485954,"5":0.14364050328731537,"6":-0.14001139998435974,"7":0.12750528752803802,"8":0.11224090307950974,"9":-0.11063625663518906,"10":0.20322777330875397,"11":-0.05957403779029846,"12":-0.1612190455198288,"13":0.174916073679924,"14":0.09189371019601822,"15":-0.21033811569213867,"16":0.10328996926546097,"17":-0.1709822565317154,"18":-0.18067607283592224,"19":-0.193081334233284,"20":-0.160350501537323,"21":-0.028441330417990685,"22":0.028564319014549255,"23":-0.19626611471176147,"24":-0.08024261891841888,"25":0.12531840801239014,"26":0.014820420183241367,"27":0.14296025037765503,"28":0.011355992406606674,"29":0.029838554561138153,"30":-0.02847069315612316,"31":0.14807987213134766,"32":0.04759177193045616,"33":0.005244203377515078,"34":0.0667739138007164,"35":0.14113999903202057,"36":0.06710445880889893,"37":0.060276784002780914,"38":-0.09573959559202194,"39":-0.13294582068920135,"40":0.06518273800611496,"41":0.043015189468860626,"42":0.14110371470451355,"43":0.1270202100276947,"44":0.03381481394171715,"45":0.2582373023033142,"46":0.2111239731311798,"47":0.13472312688827515,"48":0.2720983624458313,"49":0.2687080204486847}},"34":{"bias":-0.21759825944900513,"weights":{"0":-0.11290536820888519,"1":-0.1059359461069107,"2":0.01456534955650568,"3":0.024896547198295593,"4":0.026150675490498543,"5":-0.17131614685058594,"6":0.1247379407286644,"7":-0.14260032773017883,"8":0.060311175882816315,"9":-0.1988993138074875,"10":0.06368665397167206,"11":-0.02185344137251377,"12":0.03998255729675293,"13":-0.20292767882347107,"14":-0.203225776553154,"15":-0.08848981559276581,"16":0.1558988094329834,"17":0.004020353313535452,"18":-0.06267745792865753,"19":0.01297809462994337,"20":-0.1825803965330124,"21":-0.09298860281705856,"22":-0.16557571291923523,"23":0.10413020849227905,"24":-0.21740368008613586,"25":-0.11727003008127213,"26":0.08435048907995224,"27":0.17405472695827484,"28":-0.05342869088053703,"29":0.19042962789535522,"30":-0.13986359536647797,"31":-0.18735532462596893,"32":-0.19958631694316864,"33":-0.011298987083137035,"34":0.0046220263466238976,"35":0.015904134139418602,"36":0.18267838656902313,"37":-0.12367867678403854,"38":0.04573169723153114,"39":-0.05663666874170303,"40":-0.18748654425144196,"41":0.008074893616139889,"42":0.12903720140457153,"43":-0.10379300266504288,"44":0.11549114435911179,"45":0.002472404856234789,"46":0.1728668212890625,"47":0.22466082870960236,"48":0.20142634212970734,"49":0.21836170554161072}},"35":{"bias":-0.12631018459796906,"weights":{"0":-0.1942172795534134,"1":-0.030163750052452087,"2":-0.0782129168510437,"3":-0.1119401752948761,"4":-0.030425330623984337,"5":-0.1617141216993332,"6":-0.1759241223335266,"7":-0.24964261054992676,"8":-0.2317160665988922,"9":0.15069009363651276,"10":-0.04502201825380325,"11":-0.0025063627399504185,"12":-0.02301638200879097,"13":0.05363715812563896,"14":0.09522043168544769,"15":-0.047461096197366714,"16":0.05245073884725571,"17":-0.017154064029455185,"18":0.0017377405893057585,"19":-0.1232939064502716,"20":-0.16677023470401764,"21":0.15092884004116058,"22":0.18643467128276825,"23":0.08558399975299835,"24":0.15036523342132568,"25":-0.15693031251430511,"26":-0.13674399256706238,"27":0.06805863976478577,"28":0.16740047931671143,"29":0.13389304280281067,"30":0.1205323338508606,"31":0.06146267056465149,"32":0.0544140450656414,"33":-0.03170483559370041,"34":0.09210054576396942,"35":-0.06559522449970245,"36":-0.13532455265522003,"37":0.0733463317155838,"38":-0.17319859564304352,"39":-0.20501859486103058,"40":-0.1641191691160202,"41":-0.04791153222322464,"42":0.25474825501441956,"43":0.07676859200000763,"44":-0.02983350120484829,"45":0.2782405912876129,"46":0.2425607442855835,"47":0.12172327935695648,"48":0.04803551360964775,"49":0.11903538554906845}},"36":{"bias":-0.2393662929534912,"weights":{"0":0.002444592537358403,"1":0.06493395566940308,"2":0.06975878775119781,"3":0.018718574196100235,"4":0.06097375229001045,"5":0.0681615024805069,"6":-0.05718351528048515,"7":0.049164749681949615,"8":-0.22048504650592804,"9":0.12966309487819672,"10":-0.04435329511761665,"11":-0.12861451506614685,"12":0.1042976826429367,"13":-0.18491746485233307,"14":0.027394812554121017,"15":-0.17566153407096863,"16":-0.2599892020225525,"17":0.12286344170570374,"18":-0.1494448035955429,"19":-0.23069658875465393,"20":-0.00016141492233145982,"21":-0.09696006774902344,"22":-0.1345234215259552,"23":0.16761083900928497,"24":0.011423327028751373,"25":-0.14430375397205353,"26":-0.15130244195461273,"27":-0.01989508606493473,"28":0.2544052302837372,"29":0.15442948043346405,"30":-0.039169635623693466,"31":-0.10969718545675278,"32":-0.15083417296409607,"33":0.20448483526706696,"34":0.21909363567829132,"35":-0.037131417542696,"36":-0.10517822206020355,"37":0.1174827441573143,"38":-0.08474454283714294,"39":-0.20340073108673096,"40":0.18800438940525055,"41":0.06317944079637527,"42":0.06659018993377686,"43":0.1249309629201889,"44":0.30209651589393616,"45":0.2422337830066681,"46":0.16988930106163025,"47":0.24881398677825928,"48":0.010939786210656166,"49":-0.00708739273250103}},"37":{"bias":-0.06279971450567245,"weights":{"0":-0.0963415578007698,"1":-0.1144755557179451,"2":-0.012849951162934303,"3":-0.29916122555732727,"4":-0.2797618508338928,"5":-0.27633026242256165,"6":-0.05717891827225685,"7":-0.04871053248643875,"8":-0.24713459610939026,"9":-0.0404331311583519,"10":0.11025640368461609,"11":-0.028662340715527534,"12":-0.07214801758527756,"13":-0.04639742150902748,"14":0.15286830067634583,"15":-0.06796672195196152,"16":-0.2650863230228424,"17":-0.02447904273867607,"18":0.10429565608501434,"19":-0.12606912851333618,"20":-0.04930819943547249,"21":-0.1328933984041214,"22":-0.10683035850524902,"23":0.18156036734580994,"24":-0.1377495676279068,"25":-0.09383554756641388,"26":-0.2103920727968216,"27":-0.1625879555940628,"28":0.14907364547252655,"29":0.2562532126903534,"30":0.16618148982524872,"31":0.1271408498287201,"32":-0.14845941960811615,"33":0.11524748802185059,"34":-0.11703795194625854,"35":0.08742017298936844,"36":-0.22168953716754913,"37":-0.16712041199207306,"38":0.059835467487573624,"39":-0.23801052570343018,"40":-0.193866565823555,"41":0.10505029559135437,"42":0.15254105627536774,"43":0.1699470579624176,"44":0.11361118406057358,"45":0.11496466398239136,"46":0.27981317043304443,"47":0.01870783232152462,"48":-0.01627805270254612,"49":0.32315585017204285}},"38":{"bias":-0.0343719944357872,"weights":{"0":-0.19495254755020142,"1":-0.12611642479896545,"2":-0.13981269299983978,"3":-0.13186655938625336,"4":-0.25661998987197876,"5":0.11301569640636444,"6":-0.26194268465042114,"7":-0.2478824257850647,"8":0.14099471271038055,"9":-0.019883090630173683,"10":-0.016879582777619362,"11":0.06020365282893181,"12":0.1950589120388031,"13":-0.02309049293398857,"14":0.16646312177181244,"15":-0.2164096087217331,"16":-0.20554043352603912,"17":-0.18274185061454773,"18":-0.21758025884628296,"19":-0.21731850504875183,"20":0.12407905608415604,"21":0.0830223560333252,"22":0.0356362909078598,"23":-0.1216825544834137,"24":0.03153261914849281,"25":0.004679125268012285,"26":0.03697380796074867,"27":0.021062331274151802,"28":0.09123070538043976,"29":0.18915113806724548,"30":0.0631711408495903,"31":0.19099025428295135,"32":0.002231051679700613,"33":0.08658664673566818,"34":0.21429450809955597,"35":-0.07868129760026932,"36":0.17535452544689178,"37":-0.10448729991912842,"38":0.09302986413240433,"39":0.01759323850274086,"40":0.05631916597485542,"41":0.12037460505962372,"42":0.2320491224527359,"43":0.030771169811487198,"44":0.30598798394203186,"45":0.19968989491462708,"46":0.07589767873287201,"47":0.153500035405159,"48":0.14200691878795624,"49":0.1836174726486206}},"39":{"bias":0.006593997590243816,"weights":{"0":0.012916618958115578,"1":-0.023916207253932953,"2":0.13066686689853668,"3":0.0831160619854927,"4":-0.061193156987428665,"5":-0.027763431891798973,"6":-0.11701474338769913,"7":0.18641766905784607,"8":-0.24002577364444733,"9":-0.22703200578689575,"10":-0.286954402923584,"11":-0.09542277455329895,"12":-0.10001625865697861,"13":-0.04942161217331886,"14":-0.20190808176994324,"15":0.11537516862154007,"16":0.07818524539470673,"17":0.13073253631591797,"18":0.15549543499946594,"19":-0.20586124062538147,"20":0.11556460708379745,"21":-0.04003715142607689,"22":-0.06984354555606842,"23":-0.1464124470949173,"24":0.2240237146615982,"25":0.149066761136055,"26":0.09321893751621246,"27":-0.041135020554065704,"28":-0.2695204019546509,"29":-0.12350375950336456,"30":-0.29641759395599365,"31":-0.035791877657175064,"32":0.2059900462627411,"33":-0.1145252212882042,"34":0.10853775590658188,"35":0.2144538313150406,"36":0.18963247537612915,"37":0.5622648596763611,"38":0.6094892024993896,"39":0.30970385670661926,"40":-0.08516980707645416,"41":-0.25445690751075745,"42":-0.31699177622795105,"43":-0.28915250301361084,"44":-0.026668192818760872,"45":-0.12249987572431564,"46":-0.06732247769832611,"47":0.03704812005162239,"48":-0.10319387167692184,"49":-0.1287427395582199}},"40":{"bias":0.009622490033507347,"weights":{"0":-0.06391829252243042,"1":-0.29804727435112,"2":-0.37247464060783386,"3":-0.3562345802783966,"4":-0.3312586843967438,"5":-0.34463736414909363,"6":-0.294761598110199,"7":-0.1959945410490036,"8":-0.3120005428791046,"9":0.10384783893823624,"10":0.10443245619535446,"11":0.03100855089724064,"12":0.13309428095817566,"13":-0.07179965078830719,"14":-0.09200980514287949,"15":-0.14113092422485352,"16":-0.14185108244419098,"17":-0.02931414730846882,"18":-0.0639079213142395,"19":0.07565388083457947,"20":-0.03556491434574127,"21":-0.18606382608413696,"22":-0.019636720418930054,"23":0.04697589948773384,"24":-0.02666224166750908,"25":-0.05928795412182808,"26":-0.07654042541980743,"27":0.014725198037922382,"28":0.16211700439453125,"29":0.3892100155353546,"30":0.1516883373260498,"31":-0.06080484762787819,"32":0.047679293900728226,"33":0.05327610671520233,"34":0.20614048838615417,"35":-0.007167435251176357,"36":0.0809568390250206,"37":-0.43669623136520386,"38":-0.22680142521858215,"39":-0.035033099353313446,"40":0.06569137424230576,"41":0.22374360263347626,"42":0.25091177225112915,"43":0.28223976492881775,"44":0.17628425359725952,"45":0.3028801381587982,"46":0.5324664115905762,"47":0.1932983547449112,"48":0.32863953709602356,"49":0.3639009892940521}},"41":{"bias":-0.16444031894207,"weights":{"0":-0.053068213164806366,"1":-0.03648762404918671,"2":0.04376382380723953,"3":0.11166448891162872,"4":0.09941505640745163,"5":-0.18732614815235138,"6":-0.06775406002998352,"7":-0.0376533605158329,"8":0.1028408333659172,"9":-0.20650151371955872,"10":-0.1412430852651596,"11":-0.21584300696849823,"12":-0.017904622480273247,"13":-0.061334505677223206,"14":-0.031909871846437454,"15":0.13403449952602386,"16":-0.02503935992717743,"17":-0.10927440971136093,"18":-0.07061240077018738,"19":0.0861065611243248,"20":-0.21291841566562653,"21":-0.19658468663692474,"22":-0.18362757563591003,"23":-0.19265803694725037,"24":-0.1282934695482254,"25":0.09042805433273315,"26":0.16787749528884888,"27":-0.18132826685905457,"28":0.03931933641433716,"29":-0.0025363443419337273,"30":-0.08825153112411499,"31":-0.1198609322309494,"32":0.21161270141601562,"33":0.13670207560062408,"34":-0.08849379420280457,"35":0.12581580877304077,"36":0.12467177212238312,"37":0.16131964325904846,"38":0.4005569815635681,"39":0.08866509050130844,"40":-0.023704050108790398,"41":-0.14161549508571625,"42":-0.05021141096949577,"43":0.08000686019659042,"44":-0.15291449427604675,"45":-0.035468485206365585,"46":-0.0557628832757473,"47":-0.15489497780799866,"48":-0.08078234642744064,"49":0.04592086374759674}},"42":{"bias":-0.2765503227710724,"weights":{"0":0.07231923192739487,"1":0.0591624453663826,"2":-0.15128040313720703,"3":-0.2150556743144989,"4":0.11096260696649551,"5":0.0095881512388587,"6":-0.10562893748283386,"7":-0.16205962002277374,"8":0.09788335859775543,"9":0.11361615359783173,"10":0.15448486804962158,"11":-0.18287217617034912,"12":-0.030673785135149956,"13":-0.15425360202789307,"14":0.11476947367191315,"15":-0.17599420249462128,"16":-0.1603315770626068,"17":-0.14347945153713226,"18":0.046584293246269226,"19":-0.09546440094709396,"20":0.12480229139328003,"21":0.1872432976961136,"22":0.08604099601507187,"23":0.10464886575937271,"24":-0.12976770102977753,"25":-0.13218794763088226,"26":-0.11125793308019638,"27":0.17687520384788513,"28":0.179538294672966,"29":-0.04199409857392311,"30":-0.056867972016334534,"31":0.055053263902664185,"32":0.08406965434551239,"33":0.07933883368968964,"34":-0.10291969031095505,"35":0.11365191638469696,"36":0.04992511868476868,"37":0.027666013687849045,"38":0.017596159130334854,"39":0.12220419198274612,"40":0.05523437634110451,"41":-0.04944663122296333,"42":-0.13564100861549377,"43":-0.09420362114906311,"44":-0.13030728697776794,"45":0.23754622042179108,"46":0.08693061769008636,"47":-0.026271356269717216,"48":0.1375472992658615,"49":0.270948588848114}},"43":{"bias":-0.3167586028575897,"weights":{"0":0.10620157420635223,"1":-0.07744373381137848,"2":0.08799872547388077,"3":0.007526851259171963,"4":-0.2226976454257965,"5":0.1040712520480156,"6":0.08490874618291855,"7":-0.009399614296853542,"8":0.01609089970588684,"9":0.08552926778793335,"10":-0.22048833966255188,"11":0.012330994009971619,"12":-0.17716924846172333,"13":0.01804610714316368,"14":0.00009581172344041988,"15":0.033522263169288635,"16":-0.18185563385486603,"17":0.14862459897994995,"18":-0.19389525055885315,"19":-0.04152809455990791,"20":-0.19313810765743256,"21":-0.13102607429027557,"22":-0.13763727247714996,"23":0.0701715275645256,"24":-0.1510024219751358,"25":-0.04053129628300667,"26":-0.022761965170502663,"27":0.20537574589252472,"28":-0.017840415239334106,"29":0.07428335398435593,"30":0.010160737670958042,"31":-0.011721103452146053,"32":-0.08362094312906265,"33":0.04425381124019623,"34":0.14672315120697021,"35":0.21724994480609894,"36":0.2179846316576004,"37":-0.005246670916676521,"38":0.2936784625053406,"39":0.08875646442174911,"40":0.19570419192314148,"41":0.07400976121425629,"42":-0.1774064004421234,"43":-0.0977446660399437,"44":0.0051900530233979225,"45":0.09807984530925751,"46":-0.13976337015628815,"47":-0.02377961575984955,"48":0.24065867066383362,"49":-0.09303972870111465}},"44":{"bias":-0.2683238387107849,"weights":{"0":-0.217668816447258,"1":0.034498970955610275,"2":-0.27021563053131104,"3":-0.11959247291088104,"4":-0.10880061984062195,"5":-0.06910108774900436,"6":0.023093493655323982,"7":-0.20358829200267792,"8":0.09889160096645355,"9":0.056065648794174194,"10":0.11726262420415878,"11":-0.07942333072423935,"12":-0.0714346319437027,"13":-0.15622994303703308,"14":-0.0012185409432277083,"15":-0.1607169508934021,"16":-0.14329132437705994,"17":-0.09758894145488739,"18":0.06959018111228943,"19":0.05664443224668503,"20":0.022592952474951744,"21":0.020846862345933914,"22":0.07194885611534119,"23":-0.16799813508987427,"24":-0.20994535088539124,"25":-0.3270525634288788,"26":-0.306901216506958,"27":-0.021399423480033875,"28":0.24774116277694702,"29":0.14059729874134064,"30":0.27359697222709656,"31":0.17440588772296906,"32":0.013462968170642853,"33":-0.008038082160055637,"34":0.0333174504339695,"35":0.1337619125843048,"36":0.13567271828651428,"37":-0.00022780810832045972,"38":-0.3805582523345947,"39":-0.16399459540843964,"40":0.13717444241046906,"41":0.016435302793979645,"42":0.0972791537642479,"43":0.05229699984192848,"44":0.2531341016292572,"45":0.20078280568122864,"46":0.18699540197849274,"47":0.05692809447646141,"48":0.3494092524051666,"49":0.29848477244377136}},"45":{"bias":-0.17951460182666779,"weights":{"0":0.0686734989285469,"1":0.1088109016418457,"2":0.1525644212961197,"3":0.1151081919670105,"4":-0.09671121835708618,"5":0.03429171070456505,"6":-0.033276163041591644,"7":0.05153903365135193,"8":-0.026030274108052254,"9":-0.139804869890213,"10":-0.26104503870010376,"11":0.04592650756239891,"12":-0.0859970673918724,"13":-0.13075627386569977,"14":-0.13655611872673035,"15":0.010888634249567986,"16":-0.10424157232046127,"17":0.0032057256903499365,"18":-0.018276549875736237,"19":0.0400962196290493,"20":0.07866328209638596,"21":-0.1647164225578308,"22":-0.24382978677749634,"23":-0.0493832565844059,"24":-0.1750866025686264,"25":0.030326977372169495,"26":-0.001467874855734408,"27":-0.004460465628653765,"28":-0.18376344442367554,"29":-0.2619653046131134,"30":0.11572883278131485,"31":-0.16436420381069183,"32":-0.09152717143297195,"33":0.12229705601930618,"34":0.05508137866854668,"35":0.026800626888871193,"36":0.10653276741504669,"37":0.17163465917110443,"38":0.4459690749645233,"39":0.045001521706581116,"40":0.15777553617954254,"41":-0.11995308846235275,"42":-0.12393227219581604,"43":-0.11870507895946503,"44":-0.12483247369527817,"45":0.034532781690359116,"46":-0.1070508360862732,"47":-0.16204814612865448,"48":0.10508465766906738,"49":0.20997771620750427}},"46":{"bias":-0.3605445623397827,"weights":{"0":-0.08317465335130692,"1":-0.19736754894256592,"2":-0.24614505469799042,"3":-0.038622114807367325,"4":-0.13746429979801178,"5":-0.2326444536447525,"6":-0.10122519731521606,"7":-0.14307287335395813,"8":-0.03551239147782326,"9":0.08212423324584961,"10":0.1158955991268158,"11":0.11587711423635483,"12":-0.12788450717926025,"13":-0.17422837018966675,"14":0.13869459927082062,"15":0.1180054321885109,"16":-0.2534354627132416,"17":-0.20619948208332062,"18":-0.17114245891571045,"19":0.07005742937326431,"20":-0.060695063322782516,"21":0.11298301815986633,"22":0.14114417135715485,"23":-0.1356172263622284,"24":-0.0012607680400833488,"25":0.0887991338968277,"26":0.14039859175682068,"27":-0.08748515695333481,"28":-0.0561998151242733,"29":-0.0444905124604702,"30":0.13470499217510223,"31":-0.03298310562968254,"32":-0.020088301971554756,"33":0.06003984808921814,"34":-0.025712909176945686,"35":0.051625289022922516,"36":-0.18475010991096497,"37":0.14266908168792725,"38":0.0364542119204998,"39":-0.020841285586357117,"40":-0.06690581142902374,"41":-0.06005275249481201,"42":0.0658341497182846,"43":-0.008729363791644573,"44":0.2946324646472931,"45":0.29429224133491516,"46":0.04526721313595772,"47":0.1592099368572235,"48":0.04067075252532959,"49":0.03034353442490101}},"47":{"bias":-0.26170584559440613,"weights":{"0":0.10988502949476242,"1":0.0918809249997139,"2":-0.28530287742614746,"3":-0.28870075941085815,"4":-0.27055931091308594,"5":-0.17409342527389526,"6":-0.12054387480020523,"7":-0.015287168323993683,"8":0.04533132165670395,"9":0.093309685587883,"10":0.13288389146327972,"11":0.13019640743732452,"12":0.04983120039105415,"13":0.050789978355169296,"14":-0.10857534408569336,"15":-0.21885941922664642,"16":-0.2668932378292084,"17":-0.14400558173656464,"18":0.02289021946489811,"19":0.018371280282735825,"20":0.04707935452461243,"21":-0.04462737590074539,"22":0.17469316720962524,"23":-0.15226149559020996,"24":0.08695204555988312,"25":-0.044603534042835236,"26":-0.2941248416900635,"27":-0.1152166873216629,"28":0.001029156381264329,"29":0.22834840416908264,"30":0.06253300607204437,"31":0.12303590029478073,"32":-0.19487865269184113,"33":-0.14168022572994232,"34":-0.06520283967256546,"35":-0.04599060118198395,"36":-0.011909889988601208,"37":-0.19517183303833008,"38":0.009796160273253918,"39":-0.07575912028551102,"40":0.111954465508461,"41":0.24441096186637878,"42":0.13063256442546844,"43":0.1540316939353943,"44":0.051901087164878845,"45":0.13481645286083221,"46":0.11506775766611099,"47":0.1542123705148697,"48":0.41222304105758667,"49":0.3069756329059601}},"48":{"bias":-0.2025860846042633,"weights":{"0":0.1494235396385193,"1":-0.21268869936466217,"2":0.1669144481420517,"3":-0.19422291219234467,"4":-0.21968954801559448,"5":0.006657357327640057,"6":-0.05050554871559143,"7":-0.06545151770114899,"8":0.16212278604507446,"9":-0.1270858645439148,"10":-0.15351389348506927,"11":-0.023812172934412956,"12":0.0010038266191259027,"13":0.07695413380861282,"14":0.13963371515274048,"15":-0.027273889631032944,"16":-0.1692933887243271,"17":-0.03516336530447006,"18":-0.15026047825813293,"19":0.15817277133464813,"20":-0.05327035114169121,"21":0.047206856310367584,"22":-0.07275810092687607,"23":0.005910244770348072,"24":0.01450967974960804,"25":0.22202830016613007,"26":-0.1546349972486496,"27":-0.16246943175792694,"28":-0.1348760575056076,"29":-0.0207735113799572,"30":-0.005613212939351797,"31":-0.0019556486513465643,"32":-0.09146904200315475,"33":-0.15634047985076904,"34":-0.023061800748109818,"35":0.15320199728012085,"36":-0.05556892603635788,"37":-0.06858742982149124,"38":0.2665404677391052,"39":0.07213551551103592,"40":-0.13742847740650177,"41":-0.07294373959302902,"42":0.019545340910553932,"43":-0.040418680757284164,"44":0.015569852665066719,"45":-0.07747077196836472,"46":0.012629806995391846,"47":0.024725794792175293,"48":-0.04169169068336487,"49":0.21955238282680511}},"49":{"bias":-0.1968996226787567,"weights":{"0":-0.196989968419075,"1":0.0018288014689460397,"2":0.15468083322048187,"3":-0.14026983082294464,"4":0.12498653680086136,"5":0.1852753758430481,"6":-0.05328047648072243,"7":0.1511516571044922,"8":-0.02323119342327118,"9":-0.04102690517902374,"10":0.06779734790325165,"11":-0.0814128965139389,"12":0.08994946628808975,"13":0.04991651326417923,"14":0.1328725665807724,"15":0.03191981837153435,"16":0.15211200714111328,"17":0.1304035484790802,"18":0.12645721435546875,"19":-0.007821235805749893,"20":0.07402198016643524,"21":0.0038244992028921843,"22":-0.2868010103702545,"23":-0.0353502556681633,"24":-0.03544117510318756,"25":0.15681777894496918,"26":0.06529614329338074,"27":-0.1100945770740509,"28":-0.07058065384626389,"29":-0.3662746548652649,"30":-0.18453580141067505,"31":-0.02907002717256546,"32":0.1935461014509201,"33":-0.12072209268808365,"34":-0.21584023535251617,"35":-0.07019589096307755,"36":0.3633098006248474,"37":0.4201905131340027,"38":0.2943994700908661,"39":0.2618594467639923,"40":0.18043075501918793,"41":-0.014352845959365368,"42":0.05584349483251572,"43":0.01397362258285284,"44":0.04131723567843437,"45":-0.03547085449099541,"46":-0.0915665253996849,"47":-0.22383902966976166,"48":0.05414845794439316,"49":-0.15679915249347687}},"50":{"bias":-0.2829939126968384,"weights":{"0":-0.12383449077606201,"1":0.06936182081699371,"2":-0.027301939204335213,"3":-0.17275641858577728,"4":-0.0839017778635025,"5":-0.1551676094532013,"6":-0.1505560278892517,"7":-0.23376072943210602,"8":-0.1101931780576706,"9":0.1817997395992279,"10":0.08365345001220703,"11":0.20940345525741577,"12":0.025904595851898193,"13":0.04179076477885246,"14":-0.09651889652013779,"15":0.09270121157169342,"16":-0.14682094752788544,"17":-0.13728228211402893,"18":-0.015562928281724453,"19":-0.021221036091446877,"20":-0.015493148937821388,"21":0.09121236205101013,"22":0.017209399491548538,"23":0.20590165257453918,"24":0.11369998008012772,"25":0.022845828905701637,"26":-0.2492985725402832,"27":-0.11120885610580444,"28":0.003460436128079891,"29":0.25998926162719727,"30":0.11089802533388138,"31":-0.12674786150455475,"32":-0.2048410326242447,"33":-0.1852942705154419,"34":0.20121514797210693,"35":0.147724911570549,"36":-0.18970970809459686,"37":0.08470296114683151,"38":-0.2854144871234894,"39":0.002106109634041786,"40":-0.15196837484836578,"41":-0.11705492436885834,"42":0.12909650802612305,"43":0.13991980254650116,"44":-0.027839994058012962,"45":0.1984073668718338,"46":0.15760910511016846,"47":-0.053985632956027985,"48":0.059123445302248,"49":0.16345417499542236}},"51":{"bias":-0.22856730222702026,"weights":{"0":-0.01582539640367031,"1":0.003988227341324091,"2":-0.2214377075433731,"3":-0.10322696715593338,"4":-0.07650928199291229,"5":-0.14391575753688812,"6":0.09843131899833679,"7":-0.23397105932235718,"8":0.13742978870868683,"9":-0.08588575571775436,"10":-0.016388697549700737,"11":0.00080424192128703,"12":0.17371580004692078,"13":-0.17012321949005127,"14":-0.012794236652553082,"15":0.11211279779672623,"16":-0.10910212248563766,"17":-0.00587501423433423,"18":-0.0014900296228006482,"19":-0.15145321190357208,"20":0.10869424045085907,"21":-0.01961628347635269,"22":0.15781623125076294,"23":0.014822956174612045,"24":0.03603440895676613,"25":0.10734628885984421,"26":0.1250719428062439,"27":-0.03987349942326546,"28":0.01311835553497076,"29":0.00751138012856245,"30":-0.00888251792639494,"31":0.20854096114635468,"32":0.001749300747178495,"33":-0.1861523687839508,"34":0.1699768304824829,"35":0.1495300680398941,"36":0.17595593631267548,"37":0.06399808079004288,"38":-0.18526622653007507,"39":-0.19081638753414154,"40":0.05657681077718735,"41":-0.17095980048179626,"42":0.20186075568199158,"43":0.2709083557128906,"44":-0.05423000454902649,"45":0.024469459429383278,"46":0.32709211111068726,"47":0.16865190863609314,"48":0.2655717134475708,"49":0.2079702913761139}},"52":{"bias":0.019748449325561523,"weights":{"0":-0.18513496220111847,"1":-0.07903698831796646,"2":-0.19948460161685944,"3":-0.190145805478096,"4":-0.20807331800460815,"5":-0.2377616912126541,"6":-0.05462171137332916,"7":-0.12008374184370041,"8":0.07966648042201996,"9":0.05646023526787758,"10":-0.2512131333351135,"11":-0.10997457802295685,"12":-0.04875260591506958,"13":-0.09525799006223679,"14":0.001655370695516467,"15":0.10075078159570694,"16":-0.17488868534564972,"17":-0.19676856696605682,"18":0.14373815059661865,"19":-0.06214470788836479,"20":0.01776237227022648,"21":-0.1773238331079483,"22":-0.11052808165550232,"23":0.09404873102903366,"24":-0.118923619389534,"25":0.06254428625106812,"26":-0.06163397431373596,"27":-0.08534084260463715,"28":-0.05064094811677933,"29":-0.09740594774484634,"30":-0.2307286411523819,"31":0.013153554871678352,"32":-0.045382965356111526,"33":-0.060937974601984024,"34":-0.027333157137036324,"35":-0.1200571060180664,"36":-0.02198210172355175,"37":0.36262911558151245,"38":0.3502790629863739,"39":0.07061011344194412,"40":0.17707180976867676,"41":-0.11492463946342468,"42":0.024886908009648323,"43":-0.10991869121789932,"44":-0.1563325971364975,"45":-0.12085416167974472,"46":-0.18528473377227783,"47":-0.07891203463077545,"48":0.14808222651481628,"49":-0.028036009520292282}},"53":{"bias":-0.24734701216220856,"weights":{"0":-0.12359590828418732,"1":-0.21817682683467865,"2":0.0475100614130497,"3":0.09802377969026566,"4":0.12621302902698517,"5":-0.1898021101951599,"6":-0.16847239434719086,"7":0.10301719605922699,"8":-0.02172899805009365,"9":0.14048980176448822,"10":0.04304739460349083,"11":0.07173173129558563,"12":0.10048868507146835,"13":0.13410866260528564,"14":-0.024913065135478973,"15":0.05941304937005043,"16":-0.17009250819683075,"17":-0.0757727175951004,"18":-0.0717213824391365,"19":0.04819227010011673,"20":-0.1585310846567154,"21":0.07978709042072296,"22":-0.2040494829416275,"23":0.09748506546020508,"24":-0.006275225430727005,"25":0.17287100851535797,"26":0.010489321313798428,"27":0.09717843681573868,"28":0.060763224959373474,"29":0.11160293221473694,"30":-0.18662519752979279,"31":0.15241996943950653,"32":0.03078782930970192,"33":-0.13783752918243408,"34":-0.0894545242190361,"35":-0.03322752192616463,"36":0.1062186062335968,"37":0.013125119730830193,"38":-0.019373606890439987,"39":-0.10261517763137817,"40":-0.0003123462083749473,"41":0.002925658831372857,"42":-0.04659659415483475,"43":0.16262933611869812,"44":0.2104966938495636,"45":-0.0959896519780159,"46":0.038344308733940125,"47":-0.053775664418935776,"48":0.24341298639774323,"49":0.002011719858273864}},"54":{"bias":-0.2520483732223511,"weights":{"0":0.029438864439725876,"1":-0.15298320353031158,"2":-0.020085575059056282,"3":0.13029050827026367,"4":0.053229138255119324,"5":0.1560876965522766,"6":-0.17075416445732117,"7":0.010168617591261864,"8":0.12279029935598373,"9":0.04090156778693199,"10":-0.09686136990785599,"11":0.08575162291526794,"12":-0.1747310608625412,"13":-0.0313207246363163,"14":0.046649135649204254,"15":0.14842286705970764,"16":0.07064859569072723,"17":0.15917891263961792,"18":-0.19503353536128998,"19":-0.02154426835477352,"20":-0.14022038877010345,"21":0.10624877363443375,"22":-0.1891191452741623,"23":-0.06569235771894455,"24":0.12089839577674866,"25":-0.018129924312233925,"26":0.00212972448207438,"27":-0.03299373760819435,"28":0.05350477993488312,"29":-0.08343508839607239,"30":0.10505685210227966,"31":-0.026534685865044594,"32":0.10845541208982468,"33":0.053701288998126984,"34":-0.10906911641359329,"35":0.14174290001392365,"36":0.00018695683684200048,"37":0.06354465335607529,"38":0.04053790867328644,"39":0.28913262486457825,"40":0.11926715075969696,"41":0.0381314717233181,"42":0.09086953103542328,"43":-0.15572500228881836,"44":0.1614641398191452,"45":-0.07174482196569443,"46":-0.15257075428962708,"47":-0.025842832401394844,"48":-0.18450891971588135,"49":0.13203400373458862}},"55":{"bias":-0.1162116602063179,"weights":{"0":0.06809747964143753,"1":0.0737612396478653,"2":-0.13701266050338745,"3":0.07838702201843262,"4":0.07289259135723114,"5":0.12322051078081131,"6":-0.19372443854808807,"7":0.03926420956850052,"8":-0.2243226170539856,"9":-0.1735522747039795,"10":-0.02530592866241932,"11":0.00013009834219701588,"12":0.0038584668654948473,"13":-0.2549738883972168,"14":0.005837318487465382,"15":0.005071552935987711,"16":0.12208390980958939,"17":-0.20279237627983093,"18":-0.030233725905418396,"19":-0.07307074964046478,"20":-0.1677025407552719,"21":0.009756159037351608,"22":-0.014703716151416302,"23":0.12231346219778061,"24":-0.04364105686545372,"25":0.14704720675945282,"26":0.014551771804690361,"27":0.04365783557295799,"28":-0.02402707189321518,"29":-0.1140521913766861,"30":0.15274673700332642,"31":-0.03616546094417572,"32":0.09209207445383072,"33":-0.10648079216480255,"34":0.061092182993888855,"35":-0.14830662310123444,"36":0.02302476391196251,"37":0.30736279487609863,"38":0.2789246737957001,"39":0.24020244181156158,"40":-0.06383223831653595,"41":-0.015303102321922779,"42":0.09941601008176804,"43":-0.08530598133802414,"44":-0.005725102499127388,"45":0.18427924811840057,"46":-0.10100723803043365,"47":-0.043870698660612106,"48":-0.022396087646484375,"49":-0.04057731479406357}},"56":{"bias":-0.16089403629302979,"weights":{"0":0.07571371644735336,"1":0.1107204481959343,"2":-0.08419205248355865,"3":-0.15175770223140717,"4":-0.039547041058540344,"5":0.14487382769584656,"6":0.08401019871234894,"7":0.07378537952899933,"8":0.15757034718990326,"9":-0.05096885934472084,"10":-0.06451380252838135,"11":0.08507740497589111,"12":-0.17071737349033356,"13":0.08514349907636642,"14":-0.21467173099517822,"15":-0.14397679269313812,"16":0.07832331210374832,"17":0.1431322544813156,"18":-0.10559065639972687,"19":-0.11708912253379822,"20":-0.13066095113754272,"21":0.16223065555095673,"22":0.13156695663928986,"23":-0.04664168134331703,"24":-0.054060716181993484,"25":0.20871511101722717,"26":0.2888932228088379,"27":-0.10175558179616928,"28":-0.17656460404396057,"29":0.0013499121414497495,"30":-0.12381359934806824,"31":0.09749125689268112,"32":0.1451903134584427,"33":-0.06312362849712372,"34":0.004316343460232019,"35":0.07510248571634293,"36":0.11763151735067368,"37":0.42522379755973816,"38":0.19282135367393494,"39":0.3753296136856079,"40":0.1316240131855011,"41":0.051395054906606674,"42":-0.04007881134748459,"43":-0.18033993244171143,"44":-0.03811859339475632,"45":0.17000709474086761,"46":-0.0680382251739502,"47":-0.17148366570472717,"48":-0.10427962243556976,"49":0.0486154668033123}},"57":{"bias":-0.22196024656295776,"weights":{"0":0.03621846064925194,"1":-0.11134982854127884,"2":0.03024172969162464,"3":0.021790636703372,"4":-0.06125543639063835,"5":0.07714932411909103,"6":-0.21754291653633118,"7":-0.23037630319595337,"8":0.08821628242731094,"9":-0.24939429759979248,"10":0.09656092524528503,"11":0.008988885208964348,"12":-0.19291448593139648,"13":-0.2238035500049591,"14":0.0532551184296608,"15":-0.11689595878124237,"16":-0.13432037830352783,"17":-0.1373710185289383,"18":0.045244380831718445,"19":0.08943936228752136,"20":0.15236033499240875,"21":0.08785358816385269,"22":-0.010385828092694283,"23":0.15145865082740784,"24":-0.10221581161022186,"25":0.11057533323764801,"26":-0.0968729704618454,"27":-0.16854409873485565,"28":-0.21825243532657623,"29":-0.028544796630740166,"30":-0.11656119674444199,"31":0.13228049874305725,"32":-0.18511056900024414,"33":-0.06420087814331055,"34":0.13762837648391724,"35":0.2207489013671875,"36":0.06298747658729553,"37":0.1275695562362671,"38":0.17005008459091187,"39":0.010951978154480457,"40":0.14822816848754883,"41":0.06600114703178406,"42":-0.09652841091156006,"43":0.004824187606573105,"44":-0.03822784870862961,"45":0.08774468302726746,"46":-0.008830294944345951,"47":0.06825600564479828,"48":0.04187355935573578,"49":-0.05165610834956169}},"58":{"bias":-0.29266357421875,"weights":{"0":0.02516975998878479,"1":-0.17914292216300964,"2":-0.055586423724889755,"3":-0.13210362195968628,"4":-0.030203726142644882,"5":-0.1782563477754593,"6":-0.25109240412712097,"7":-0.22436875104904175,"8":-0.12692822515964508,"9":-0.15704990923404694,"10":0.07024325430393219,"11":-0.2117009162902832,"12":-0.06267019361257553,"13":-0.11004745215177536,"14":0.12118833512067795,"15":0.1570625603199005,"16":-0.0014852120075374842,"17":-0.04369647800922394,"18":-0.08341825753450394,"19":-0.11058000475168228,"20":0.09909343719482422,"21":0.09156735241413116,"22":-0.18694348633289337,"23":0.012519607320427895,"24":-0.024945830926299095,"25":-0.03679247573018074,"26":-0.002302833367139101,"27":-0.12121090292930603,"28":-0.04009987413883209,"29":0.05894295126199722,"30":0.18840864300727844,"31":-0.06010923162102699,"32":0.16228148341178894,"33":-0.08300869911909103,"34":-0.0264536514878273,"35":0.1384514719247818,"36":0.033090103417634964,"37":0.21083220839500427,"38":-0.09444908797740936,"39":0.1787215918302536,"40":-0.1620083451271057,"41":-0.1756417602300644,"42":-0.17408262193202972,"43":-0.10403424501419067,"44":0.22876475751399994,"45":0.07611463963985443,"46":-0.03728536143898964,"47":-0.04031377285718918,"48":0.12143336236476898,"49":0.25520840287208557}},"59":{"bias":-0.14651602506637573,"weights":{"0":-0.22524020075798035,"1":0.048243630677461624,"2":-0.07584234327077866,"3":-0.17599038779735565,"4":-0.07224917411804199,"5":-0.12816345691680908,"6":-0.10344493389129639,"7":0.031923163682222366,"8":0.00384717364795506,"9":-0.2240523397922516,"10":-0.1939694583415985,"11":-0.14327238500118256,"12":-0.07642584294080734,"13":0.10336079448461533,"14":-0.07472650706768036,"15":-0.12397616356611252,"16":0.1732146441936493,"17":-0.14293213188648224,"18":0.0007492047152481973,"19":-0.026705170050263405,"20":-0.12511885166168213,"21":-0.19235265254974365,"22":-0.18102051317691803,"23":-0.16097700595855713,"24":-0.06494872272014618,"25":-0.1683061420917511,"26":0.017584286630153656,"27":0.12493304908275604,"28":-0.13773894309997559,"29":0.10602589696645737,"30":0.07520393282175064,"31":0.05906456708908081,"32":-0.047796785831451416,"33":0.06765486299991608,"34":-0.16284121572971344,"35":0.13428744673728943,"36":0.1268395334482193,"37":0.295877605676651,"38":0.23172937333583832,"39":0.03911999985575676,"40":0.025079505518078804,"41":0.09746820479631424,"42":0.1667272299528122,"43":0.15107260644435883,"44":-0.029198814183473587,"45":-0.04893609881401062,"46":0.15629464387893677,"47":-0.11224623769521713,"48":0.14805732667446136,"49":0.09011591970920563}},"60":{"bias":-0.06635631620883942,"weights":{"0":0.03820391744375229,"1":-0.08543696999549866,"2":-0.1668514907360077,"3":-0.014265036210417747,"4":-0.06991644203662872,"5":-0.07309223711490631,"6":-0.010374791920185089,"7":0.15325923264026642,"8":0.026195483282208443,"9":0.0705467015504837,"10":-0.03850846365094185,"11":0.12174993008375168,"12":-0.11775264889001846,"13":0.11211959272623062,"14":-0.07382404804229736,"15":0.10394848138093948,"16":0.0871160626411438,"17":-0.05059725046157837,"18":-0.03632827475667,"19":-0.20155787467956543,"20":-0.1384456902742386,"21":-0.12538562715053558,"22":-0.2186090350151062,"23":0.1594868153333664,"24":0.014980001375079155,"25":0.16166795790195465,"26":0.1924607902765274,"27":-0.02106955088675022,"28":0.09626704454421997,"29":0.022579098120331764,"30":-0.1855413019657135,"31":-0.02294609323143959,"32":0.16841961443424225,"33":0.15873602032661438,"34":0.05644093453884125,"35":0.14779889583587646,"36":0.017340298742055893,"37":0.3226221203804016,"38":0.31881508231163025,"39":0.0417623370885849,"40":-0.1000727042555809,"41":-0.09402130544185638,"42":-0.14892980456352234,"43":-0.012612049467861652,"44":0.18314601480960846,"45":-0.1626291275024414,"46":-0.10759053379297256,"47":0.11216555535793304,"48":0.23757539689540863,"49":0.1501430720090866}},"61":{"bias":-0.12238113582134247,"weights":{"0":0.008286278694868088,"1":-0.20880451798439026,"2":-0.010120327584445477,"3":0.08384645730257034,"4":-0.08551689237356186,"5":-0.19225367903709412,"6":0.07799845933914185,"7":0.18209046125411987,"8":-0.24238838255405426,"9":-0.082831010222435,"10":-0.2578534483909607,"11":-0.14400137960910797,"12":-0.2787233591079712,"13":0.047661881893873215,"14":-0.12996092438697815,"15":0.006355901248753071,"16":0.07464640587568283,"17":-0.013053747825324535,"18":0.17523346841335297,"19":-0.19941666722297668,"20":-0.1278914362192154,"21":-0.1267901360988617,"22":0.07998070120811462,"23":0.041347675025463104,"24":0.11321435123682022,"25":0.24134588241577148,"26":0.33995023369789124,"27":-0.019322043284773827,"28":-0.2824249267578125,"29":-0.3001353442668915,"30":-0.3041592538356781,"31":0.17835520207881927,"32":0.17426082491874695,"33":0.1412079930305481,"34":-0.0671735629439354,"35":0.0042466395534574986,"36":0.09502203017473221,"37":0.4889821410179138,"38":0.5659467577934265,"39":0.14132556319236755,"40":-0.009382341057062149,"41":0.0041092801839113235,"42":0.02439131774008274,"43":-0.04188103601336479,"44":-0.2406427562236786,"45":-0.20057258009910583,"46":-0.19769197702407837,"47":-0.11606273800134659,"48":-0.017139174044132233,"49":0.19717425107955933}},"62":{"bias":-0.15209922194480896,"weights":{"0":-0.07091076672077179,"1":-0.0631011351943016,"2":0.014110828749835491,"3":0.05967153236269951,"4":-0.08037352561950684,"5":0.06229810044169426,"6":-0.05404847115278244,"7":-0.29204055666923523,"8":0.09131168574094772,"9":-0.028888138011097908,"10":0.11345254629850388,"11":-0.13116106390953064,"12":-0.055989447981119156,"13":-0.03414074704051018,"14":-0.05335036665201187,"15":-0.10590983182191849,"16":-0.047397080808877945,"17":0.13305017352104187,"18":-0.1590135395526886,"19":-0.044692933559417725,"20":0.0968058854341507,"21":0.16791796684265137,"22":-0.17218410968780518,"23":-0.07540580630302429,"24":-0.1958448886871338,"25":-0.23668372631072998,"26":-0.07515081763267517,"27":-0.171322762966156,"28":0.16194473206996918,"29":0.2628861367702484,"30":0.25043603777885437,"31":-0.029723066836595535,"32":0.12206116318702698,"33":0.07648777216672897,"34":0.14932401478290558,"35":0.20064039528369904,"36":0.07341746985912323,"37":-0.07622425258159637,"38":0.022054435685276985,"39":-0.015313996002078056,"40":0.04458374157547951,"41":0.016920650377869606,"42":0.10241112112998962,"43":0.13261497020721436,"44":-0.0258012842386961,"45":0.024962736293673515,"46":0.03685415908694267,"47":0.07751664519309998,"48":0.2428407073020935,"49":-0.013027670793235302}},"63":{"bias":-0.2555832266807556,"weights":{"0":0.0655001625418663,"1":0.049387600272893906,"2":-0.16520090401172638,"3":-0.25947895646095276,"4":-0.2357047200202942,"5":-0.2999226748943329,"6":-0.2236795872449875,"7":-0.25320103764533997,"8":-0.10082457214593887,"9":-0.18763761222362518,"10":0.05464847758412361,"11":0.0420149601995945,"12":0.09674564003944397,"13":-0.18325231969356537,"14":-0.1908753365278244,"15":-0.19174382090568542,"16":-0.03613385930657387,"17":-0.2264288067817688,"18":-0.016314031556248665,"19":-0.07112808525562286,"20":-0.18896518647670746,"21":0.12815694510936737,"22":-0.04346615448594093,"23":0.06653627753257751,"24":-0.17107783257961273,"25":-0.2812599539756775,"26":0.10741482675075531,"27":-0.15778902173042297,"28":0.2093990594148636,"29":0.020983861759305,"30":0.18906183540821075,"31":-0.0019395403796806931,"32":-0.01663690246641636,"33":-0.13315531611442566,"34":0.10476897656917572,"35":-0.15841034054756165,"36":0.10959184914827347,"37":0.10961095243692398,"38":0.0806010290980339,"39":0.10254178196191788,"40":0.14507290720939636,"41":-0.10417620837688446,"42":-0.024361740797758102,"43":0.23812636733055115,"44":0.011265585198998451,"45":0.2165512889623642,"46":0.09102676063776016,"47":0.2174714356660843,"48":0.0946095809340477,"49":0.043406642973423004}},"64":{"bias":-0.31839561462402344,"weights":{"0":-0.23090249300003052,"1":-0.0909087285399437,"2":-0.05659284442663193,"3":-0.23005390167236328,"4":-0.05231829732656479,"5":-0.24022839963436127,"6":-0.09040703624486923,"7":-0.05973516032099724,"8":0.11978934705257416,"9":0.025411132723093033,"10":-0.13460673391819,"11":0.08453809469938278,"12":0.012758704833686352,"13":0.17582416534423828,"14":0.07535247504711151,"15":0.10171980410814285,"16":-0.2584158182144165,"17":-0.18614543974399567,"18":0.008088338188827038,"19":0.03601692244410515,"20":-0.22465188801288605,"21":-0.1687297224998474,"22":0.11163682490587234,"23":-0.02711741253733635,"24":-0.193484827876091,"25":-0.23101866245269775,"26":-0.22980350255966187,"27":-0.14267775416374207,"28":0.04748784378170967,"29":0.03490498661994934,"30":0.18889091908931732,"31":-0.19326110184192657,"32":0.04455888271331787,"33":-0.2129567265510559,"34":-0.0729484111070633,"35":0.09085915237665176,"36":0.04448189586400986,"37":-0.18269625306129456,"38":-0.055506519973278046,"39":0.07835627347230911,"40":0.11304771155118942,"41":0.09642324596643448,"42":-0.07368747144937515,"43":-0.07691645622253418,"44":0.010434231720864773,"45":0.2706913948059082,"46":0.2861725986003876,"47":0.1743936985731125,"48":0.06144269183278084,"49":0.09043528884649277}},"65":{"bias":-0.18432117998600006,"weights":{"0":-0.19209088385105133,"1":-0.052884891629219055,"2":-0.15803943574428558,"3":-0.20061832666397095,"4":-0.07608901709318161,"5":-0.06020975485444069,"6":-0.0035851742140948772,"7":-0.2621884047985077,"8":-0.04011257365345955,"9":-0.21777141094207764,"10":0.16283024847507477,"11":0.1744321584701538,"12":0.1723279356956482,"13":-0.05349674075841904,"14":-0.1865452378988266,"15":0.11573880910873413,"16":-0.008482358418405056,"17":0.11352387070655823,"18":-0.14614471793174744,"19":0.03158518671989441,"20":-0.08246859163045883,"21":-0.19069363176822662,"22":0.16393515467643738,"23":-0.005605094134807587,"24":-0.1806834489107132,"25":-0.26961442828178406,"26":-0.08040351420640945,"27":0.040811486542224884,"28":0.14814503490924835,"29":0.14644812047481537,"30":-0.03850662335753441,"31":-0.07887441664934158,"32":-0.04206540063023567,"33":-0.093973807990551,"34":-0.07695111632347107,"35":0.10322020947933197,"36":0.16772763431072235,"37":0.04780961573123932,"38":0.03610038757324219,"39":-0.17968085408210754,"40":0.06890162080526352,"41":0.18733325600624084,"42":0.12745128571987152,"43":-0.030701493844389915,"44":-0.03485647588968277,"45":0.23803254961967468,"46":0.32787808775901794,"47":0.27365273237228394,"48":0.08756304532289505,"49":-0.021571854129433632}},"66":{"bias":-0.3318755626678467,"weights":{"0":-0.02246711403131485,"1":-0.12145910412073135,"2":-0.15970201790332794,"3":-0.1532679945230484,"4":0.07160767167806625,"5":0.01756264828145504,"6":-0.1672338843345642,"7":-0.08989439159631729,"8":-0.26011934876441956,"9":0.14622890949249268,"10":0.055225878953933716,"11":-0.05029972642660141,"12":0.09416934847831726,"13":-0.022360648959875107,"14":-0.13923129439353943,"15":-0.04492869973182678,"16":-0.007377048023045063,"17":0.028491823002696037,"18":-0.04113880544900894,"19":0.040248334407806396,"20":0.0005109885241836309,"21":0.05509934201836586,"22":0.08236277103424072,"23":-0.07038913667201996,"24":-0.21739017963409424,"25":-0.2916020452976227,"26":-0.10164497792720795,"27":0.017673136666417122,"28":0.2977202832698822,"29":0.2856549620628357,"30":0.2632272243499756,"31":0.07351242005825043,"32":0.06959367543458939,"33":0.05376424267888069,"34":-0.1335848569869995,"35":0.07470132410526276,"36":0.0940554216504097,"37":-0.30204543471336365,"38":-0.1600252091884613,"39":-0.1203729435801506,"40":0.011793394573032856,"41":0.19502705335617065,"42":0.2873189151287079,"43":0.2850354015827179,"44":0.057203508913517,"45":0.10184118151664734,"46":0.43035009503364563,"47":0.17315419018268585,"48":0.29640993475914,"49":0.07412868738174438}},"67":{"bias":-0.3155698776245117,"weights":{"0":0.02423194795846939,"1":-0.07293949276208878,"2":0.10061861574649811,"3":0.2805861830711365,"4":0.07584039866924286,"5":0.12990105152130127,"6":0.21041792631149292,"7":0.25351911783218384,"8":0.23593883216381073,"9":0.0998905748128891,"10":-0.016631929203867912,"11":0.12075545638799667,"12":0.07259002327919006,"13":-0.1266084611415863,"14":-0.19498373568058014,"15":0.18401890993118286,"16":0.150130495429039,"17":-0.057405099272727966,"18":-0.02533138357102871,"19":-0.0853995680809021,"20":-0.002121106255799532,"21":0.04558617249131203,"22":-0.33173036575317383,"23":-0.27525728940963745,"24":-0.13632328808307648,"25":0.03122814930975437,"26":0.36431804299354553,"27":-0.1744244545698166,"28":-0.13640037178993225,"29":-0.45125773549079895,"30":-0.26150813698768616,"31":-0.024385444819927216,"32":-0.143380269408226,"33":0.034786123782396317,"34":-0.11842499673366547,"35":0.1996092051267624,"36":0.19171282649040222,"37":0.5567494034767151,"38":0.5605189800262451,"39":0.517057478427887,"40":-0.10366151481866837,"41":-0.2250697910785675,"42":-0.22479033470153809,"43":-0.21355833113193512,"44":-0.20071764290332794,"45":-0.10479914397001266,"46":-0.09978003799915314,"47":-0.3953067660331726,"48":-0.274492472410202,"49":-0.1813138723373413}},"68":{"bias":-0.045289136469364166,"weights":{"0":-0.2010168880224228,"1":0.1257491260766983,"2":-0.12182245403528214,"3":0.022204633802175522,"4":0.10829509794712067,"5":-0.22025741636753082,"6":0.09218411147594452,"7":0.08373797684907913,"8":0.11304782330989838,"9":-0.2507665455341339,"10":0.034258197993040085,"11":0.06577921658754349,"12":-0.22493283450603485,"13":0.11449595540761948,"14":-0.16571171581745148,"15":-0.03441166505217552,"16":-0.0988885834813118,"17":-0.03793187066912651,"18":-0.10707131773233414,"19":0.14934252202510834,"20":-0.01720244809985161,"21":-0.1687629520893097,"22":-0.05480984225869179,"23":0.0028676774818450212,"24":-0.16076074540615082,"25":-0.017050981521606445,"26":-0.010714218951761723,"27":0.21443787217140198,"28":-0.16747644543647766,"29":-0.03254513815045357,"30":-0.023099856451153755,"31":0.17896951735019684,"32":-0.017956968396902084,"33":0.013205988332629204,"34":-0.16823641955852509,"35":-0.15119749307632446,"36":0.3550000488758087,"37":0.32711318135261536,"38":0.4753924310207367,"39":0.315937876701355,"40":0.09442897886037827,"41":-0.22740177810192108,"42":-0.03827564790844917,"43":0.01595277711749077,"44":0.099189393222332,"45":-0.16178986430168152,"46":-0.0971759557723999,"47":-0.03772209957242012,"48":-0.0933578833937645,"49":-0.015114509500563145}},"69":{"bias":-0.3070499897003174,"weights":{"0":-0.1005917638540268,"1":-0.031906191259622574,"2":-0.0863603949546814,"3":-0.3036800026893616,"4":-0.10780378431081772,"5":-0.026468010619282722,"6":-0.18372011184692383,"7":-0.29132524132728577,"8":0.08712021261453629,"9":-0.011997140012681484,"10":-0.17907699942588806,"11":-0.10999014973640442,"12":-0.16574963927268982,"13":-0.16658639907836914,"14":-0.1942996084690094,"15":-0.2429540753364563,"16":-0.0853269025683403,"17":-0.1487789750099182,"18":-0.263357937335968,"19":-0.10451488196849823,"20":-0.1842530518770218,"21":0.03937792778015137,"22":0.0008652230608277023,"23":0.04002143442630768,"24":0.1345568299293518,"25":-0.1596798151731491,"26":-0.2439309060573578,"27":-0.18601199984550476,"28":-0.04190098121762276,"29":0.07532085478305817,"30":-0.025219272822141647,"31":-0.013356206007301807,"32":-0.06793724000453949,"33":0.20078398287296295,"34":0.009156540967524052,"35":0.17383095622062683,"36":0.09132036566734314,"37":-0.04855138435959816,"38":-0.16524040699005127,"39":0.05043579638004303,"40":-0.06870565563440323,"41":0.2403625249862671,"42":0.16311731934547424,"43":0.1795652061700821,"44":0.08593669533729553,"45":0.3162497878074646,"46":0.4326481223106384,"47":0.4133244752883911,"48":0.18796926736831665,"49":0.32521718740463257}},"70":{"bias":-0.04216119647026062,"weights":{"0":-0.1420765221118927,"1":-0.08428803086280823,"2":-0.06117597967386246,"3":-0.049652181565761566,"4":-0.11358735710382462,"5":0.024418283253908157,"6":-0.1437688171863556,"7":-0.28641268610954285,"8":-0.14230622351169586,"9":-0.10482513904571533,"10":-0.1384195238351822,"11":-0.07711814343929291,"12":0.024221546947956085,"13":0.16264837980270386,"14":-0.2082950919866562,"15":-0.05663556605577469,"16":-0.18669933080673218,"17":-0.15135473012924194,"18":-0.24421323835849762,"19":-0.16943615674972534,"20":-0.07762772589921951,"21":0.10999345034360886,"22":0.12273695319890976,"23":0.16157250106334686,"24":-0.15332233905792236,"25":-0.056866154074668884,"26":-0.26455146074295044,"27":-0.021829495206475258,"28":-0.05932266265153885,"29":0.28734397888183594,"30":0.2956782281398773,"31":0.15682291984558105,"32":0.18880236148834229,"33":0.17053838074207306,"34":-0.09993233531713486,"35":-0.11685734242200851,"36":0.13324622809886932,"37":0.015289717353880405,"38":0.0316975936293602,"39":-0.0036530420184135437,"40":-0.09416300058364868,"41":0.2446143925189972,"42":0.14402930438518524,"43":0.10762394964694977,"44":0.3197687864303589,"45":0.14229655265808105,"46":0.24791565537452698,"47":0.43932145833969116,"48":0.06350304931402206,"49":0.0612916424870491}},"71":{"bias":0.02899969555437565,"weights":{"0":-0.004189024213701487,"1":-0.09080170094966888,"2":0.004189700353890657,"3":0.1384899616241455,"4":0.11458442360162735,"5":0.026607798412442207,"6":-0.056801021099090576,"7":0.024401966482400894,"8":-0.15053947269916534,"9":0.05001932010054588,"10":0.07176482677459717,"11":-0.2995119094848633,"12":-0.21446865797042847,"13":-0.23011350631713867,"14":-0.042328283190727234,"15":0.07302803546190262,"16":-0.11810280382633209,"17":-0.09771569818258286,"18":0.10272320359945297,"19":0.038488347083330154,"20":-0.09960214048624039,"21":-0.1221374124288559,"22":-0.2768259346485138,"23":-0.006133357994258404,"24":0.10494450479745865,"25":0.020878314971923828,"26":0.2011522501707077,"27":0.10013488680124283,"28":-0.1171455830335617,"29":-0.15128827095031738,"30":0.047511693090200424,"31":0.1287815123796463,"32":-0.02386573888361454,"33":0.10184624791145325,"34":0.08266240358352661,"35":0.19430479407310486,"36":0.04825728386640549,"37":0.4705435633659363,"38":0.5376672148704529,"39":0.4089623987674713,"40":-0.08548478037118912,"41":-0.09454020857810974,"42":-0.21547266840934753,"43":-0.212132528424263,"44":-0.22391147911548615,"45":-0.1958640217781067,"46":-0.1354302018880844,"47":-0.1860232949256897,"48":0.16657112538814545,"49":0.06955359876155853}},"72":{"bias":-0.2554401159286499,"weights":{"0":-0.09577183425426483,"1":0.0026845005340874195,"2":-0.1874687224626541,"3":-0.11750520020723343,"4":-0.19841837882995605,"5":-0.169019415974617,"6":-0.057836905121803284,"7":-0.3046475052833557,"8":0.11136000603437424,"9":-0.11427003145217896,"10":0.1542493999004364,"11":0.07312493771314621,"12":0.0718432366847992,"13":-0.1504739224910736,"14":-0.20283964276313782,"15":0.12471779435873032,"16":-0.10925489664077759,"17":-0.20468592643737793,"18":-0.16393201053142548,"19":-0.0440639927983284,"20":0.14531153440475464,"21":-0.050831686705350876,"22":0.035474374890327454,"23":0.02131560444831848,"24":-0.23497727513313293,"25":-0.17044323682785034,"26":-0.2499634027481079,"27":0.05141206458210945,"28":-0.04838159680366516,"29":0.241175577044487,"30":-0.011737747117877007,"31":0.01092979684472084,"32":-0.021944789215922356,"33":-0.08298022300004959,"34":-0.12114209681749344,"35":0.08884711563587189,"36":0.14100350439548492,"37":-0.05675167962908745,"38":-0.18533092737197876,"39":0.021202394738793373,"40":-0.16686084866523743,"41":0.00019449027604423463,"42":0.1165362074971199,"43":0.05985245481133461,"44":0.09486114978790283,"45":0.3219316601753235,"46":0.05929536744952202,"47":0.28013691306114197,"48":0.21507945656776428,"49":0.3508332073688507}},"73":{"bias":-0.0490119569003582,"weights":{"0":0.1385757476091385,"1":0.03571462631225586,"2":0.05169685184955597,"3":-0.20126424729824066,"4":-0.004101266618818045,"5":-0.0782163217663765,"6":-0.05515523627400398,"7":0.040060412138700485,"8":-0.10483211278915405,"9":-0.14746412634849548,"10":-0.21325623989105225,"11":-0.06551767885684967,"12":0.13179904222488403,"13":0.08670639991760254,"14":-0.12314213812351227,"15":-0.20849716663360596,"16":0.06805731356143951,"17":-0.09501789510250092,"18":0.14207327365875244,"19":-0.11431879550218582,"20":-0.21591269969940186,"21":0.0790923461318016,"22":-0.14368382096290588,"23":-0.02367311157286167,"24":-0.02609073556959629,"25":-0.11572059988975525,"26":0.19918149709701538,"27":-0.015722312033176422,"28":-0.15675409138202667,"29":0.0019355725962668657,"30":0.16059119999408722,"31":-0.17476269602775574,"32":-0.049352362751960754,"33":0.03631306067109108,"34":0.12293364852666855,"35":-0.15002207458019257,"36":-0.05127532035112381,"37":-0.037329744547605515,"38":0.29985591769218445,"39":0.06414483487606049,"40":0.0036976037081331015,"41":0.10851466655731201,"42":0.05982597917318344,"43":0.15111173689365387,"44":-0.07934056222438812,"45":-0.08954225480556488,"46":0.1345541924238205,"47":0.22454461455345154,"48":0.0034314331132918596,"49":0.1357899308204651}},"74":{"bias":-0.24054138362407684,"weights":{"0":0.10096307098865509,"1":-0.23897910118103027,"2":-0.2159830927848816,"3":-0.2442571222782135,"4":-0.09177130460739136,"5":0.10851822048425674,"6":0.11140555888414383,"7":0.08839328587055206,"8":-0.0071346815675497055,"9":0.05743999034166336,"10":-0.16670042276382446,"11":-0.12877203524112701,"12":-0.11200929433107376,"13":-0.21187859773635864,"14":-0.06975861638784409,"15":0.10712973773479462,"16":-0.17629876732826233,"17":0.1280052214860916,"18":-0.13122156262397766,"19":0.05548873543739319,"20":0.10897348821163177,"21":-0.1164354607462883,"22":-0.005455648992210627,"23":0.1433330923318863,"24":0.10208471119403839,"25":0.16689163446426392,"26":-0.17158056795597076,"27":-0.18969324231147766,"28":0.16146686673164368,"29":0.22003816068172455,"30":0.08087246119976044,"31":-0.1226869523525238,"32":-0.1781519204378128,"33":0.1438174992799759,"34":0.13314756751060486,"35":0.08975912630558014,"36":0.11314965784549713,"37":0.2107161283493042,"38":0.10799319297075272,"39":0.2066628634929657,"40":-0.0911068394780159,"41":0.027963072061538696,"42":0.1849765181541443,"43":0.0868026465177536,"44":0.021223284304142,"45":-0.05024411529302597,"46":0.20162971317768097,"47":0.17310035228729248,"48":-0.026479916647076607,"49":0.26188430190086365}},"75":{"bias":-0.1350320726633072,"weights":{"0":0.006682288367301226,"1":0.01933416724205017,"2":-0.25119155645370483,"3":-0.14417162537574768,"4":-0.1652713418006897,"5":-0.1799677610397339,"6":-0.2715812027454376,"7":-0.10118252784013748,"8":0.04367705434560776,"9":0.017794597893953323,"10":-0.06137297675013542,"11":0.002263524802401662,"12":-0.1310172975063324,"13":0.06132369115948677,"14":-0.07274197041988373,"15":-0.0980900302529335,"16":-0.1303984820842743,"17":-0.03669828549027443,"18":-0.006821520160883665,"19":-0.14058756828308105,"20":-0.1276121288537979,"21":0.036159414798021317,"22":-0.13217633962631226,"23":0.12427064776420593,"24":-0.044316165149211884,"25":-0.28635886311531067,"26":0.043640702962875366,"27":-0.012180307880043983,"28":0.08626475185155869,"29":0.3314807415008545,"30":0.20781439542770386,"31":0.11145667731761932,"32":-0.08760000020265579,"33":0.14105068147182465,"34":-0.02676021121442318,"35":-0.1552036702632904,"36":-0.16228826344013214,"37":0.0008064245339483023,"38":-0.31268614530563354,"39":0.0025284220464527607,"40":-0.10575101524591446,"41":0.12932416796684265,"42":0.18015924096107483,"43":0.2758132219314575,"44":0.055884335190057755,"45":0.20704936981201172,"46":0.25548744201660156,"47":0.2889070212841034,"48":0.24665643274784088,"49":0.3458932042121887}},